digraph Tree {
node [shape=box, style="filled, rounded", color="black", fontname=helvetica] ;
edge [fontname=helvetica] ;
0 [label=<Fault &le; 1.5<br/>gini = 0.11<br/>samples = 11564<br/>value = [10887, 677]<br/>class = Fraud>, fillcolor="#e58139ef"] ;
1 [label=<BasePolicy &le; 2.5<br/>gini = 0.142<br/>samples = 8433<br/>value = [7785, 648]<br/>class = Fraud>, fillcolor="#e58139ea"] ;
0 -> 1 [labeldistance=2.5, labelangle=45, headlabel="True"] ;
2 [label=<BasePolicy &le; 1.5<br/>gini = 0.101<br/>samples = 6333<br/>value = [5995, 338]<br/>class = Fraud>, fillcolor="#e58139f1"] ;
1 -> 2 ;
3 [label=<VehiclePrice &le; 2.5<br/>gini = 0.179<br/>samples = 3145<br/>value = [2832, 313]<br/>class = Fraud>, fillcolor="#e58139e3"] ;
2 -> 3 ;
4 [label=<daysDiff &le; 16.5<br/>gini = 0.163<br/>samples = 2552<br/>value = [2323, 229]<br/>class = Fraud>, fillcolor="#e58139e6"] ;
3 -> 4 ;
5 [label=<Days:Policy-Claim &le; 2.5<br/>gini = 0.183<br/>samples = 1772<br/>value = [1592, 180]<br/>class = Fraud>, fillcolor="#e58139e2"] ;
4 -> 5 ;
6 [label=<daysDiff &le; 3.5<br/>gini = 0.181<br/>samples = 1769<br/>value = [1591, 178]<br/>class = Fraud>, fillcolor="#e58139e2"] ;
5 -> 6 ;
7 [label=<WitnessPresent &le; 1.5<br/>gini = 0.145<br/>samples = 905<br/>value = [834, 71]<br/>class = Fraud>, fillcolor="#e58139e9"] ;
6 -> 7 ;
8 [label=<Make &le; 1.5<br/>gini = 0.141<br/>samples = 903<br/>value = [834, 69]<br/>class = Fraud>, fillcolor="#e58139ea"] ;
7 -> 8 ;
9 [label=<AgeOfVehicle &le; 3.5<br/>gini = 0.088<br/>samples = 239<br/>value = [228, 11]<br/>class = Fraud>, fillcolor="#e58139f3"] ;
8 -> 9 ;
10 [label=<NumberOfCars &le; 1.5<br/>gini = 0.072<br/>samples = 215<br/>value = [207, 8]<br/>class = Fraud>, fillcolor="#e58139f5"] ;
9 -> 10 ;
11 [label=<PastNumberOfClaims &le; 3.5<br/>gini = 0.058<br/>samples = 201<br/>value = [195, 6]<br/>class = Fraud>, fillcolor="#e58139f7"] ;
10 -> 11 ;
12 [label=<AgeOfVehicle &le; 1.5<br/>gini = 0.044<br/>samples = 179<br/>value = [175, 4]<br/>class = Fraud>, fillcolor="#e58139f9"] ;
11 -> 12 ;
13 [label=<daysDiff &le; -3.5<br/>gini = 0.082<br/>samples = 70<br/>value = [67, 3]<br/>class = Fraud>, fillcolor="#e58139f4"] ;
12 -> 13 ;
14 [label=<AccidentArea &le; 1.5<br/>gini = 0.208<br/>samples = 17<br/>value = [15, 2]<br/>class = Fraud>, fillcolor="#e58139dd"] ;
13 -> 14 ;
15 [label=<MaritalStatus &le; 1.5<br/>gini = 0.124<br/>samples = 15<br/>value = [14, 1]<br/>class = Fraud>, fillcolor="#e58139ed"] ;
14 -> 15 ;
16 [label=<gini = 0.0<br/>samples = 11<br/>value = [11, 0]<br/>class = Fraud>, fillcolor="#e58139ff"] ;
15 -> 16 ;
17 [label=<PoliceReportFiled &le; 1.5<br/>gini = 0.375<br/>samples = 4<br/>value = [3, 1]<br/>class = Fraud>, fillcolor="#e58139aa"] ;
15 -> 17 ;
18 [label=<DriverRating &le; 3.5<br/>gini = 0.5<br/>samples = 2<br/>value = [1, 1]<br/>class = Fraud>, fillcolor="#e5813900"] ;
17 -> 18 ;
19 [label=<gini = 0.0<br/>samples = 1<br/>value = [0, 1]<br/>class = Non-Fraud>, fillcolor="#399de5ff"] ;
18 -> 19 ;
20 [label=<gini = 0.0<br/>samples = 1<br/>value = [1, 0]<br/>class = Fraud>, fillcolor="#e58139ff"] ;
18 -> 20 ;
21 [label=<gini = 0.0<br/>samples = 2<br/>value = [2, 0]<br/>class = Fraud>, fillcolor="#e58139ff"] ;
17 -> 21 ;
22 [label=<VehiclePrice &le; 1.5<br/>gini = 0.5<br/>samples = 2<br/>value = [1, 1]<br/>class = Fraud>, fillcolor="#e5813900"] ;
14 -> 22 ;
23 [label=<gini = 0.0<br/>samples = 1<br/>value = [1, 0]<br/>class = Fraud>, fillcolor="#e58139ff"] ;
22 -> 23 ;
24 [label=<gini = 0.0<br/>samples = 1<br/>value = [0, 1]<br/>class = Non-Fraud>, fillcolor="#399de5ff"] ;
22 -> 24 ;
25 [label=<Age &le; 44.5<br/>gini = 0.037<br/>samples = 53<br/>value = [52, 1]<br/>class = Fraud>, fillcolor="#e58139fa"] ;
13 -> 25 ;
26 [label=<gini = 0.0<br/>samples = 44<br/>value = [44, 0]<br/>class = Fraud>, fillcolor="#e58139ff"] ;
25 -> 26 ;
27 [label=<Age &le; 47.5<br/>gini = 0.198<br/>samples = 9<br/>value = [8, 1]<br/>class = Fraud>, fillcolor="#e58139df"] ;
25 -> 27 ;
28 [label=<NumberOfSuppliments &le; 1.5<br/>gini = 0.444<br/>samples = 3<br/>value = [2, 1]<br/>class = Fraud>, fillcolor="#e581397f"] ;
27 -> 28 ;
29 [label=<gini = 0.0<br/>samples = 1<br/>value = [0, 1]<br/>class = Non-Fraud>, fillcolor="#399de5ff"] ;
28 -> 29 ;
30 [label=<gini = 0.0<br/>samples = 2<br/>value = [2, 0]<br/>class = Fraud>, fillcolor="#e58139ff"] ;
28 -> 30 ;
31 [label=<gini = 0.0<br/>samples = 6<br/>value = [6, 0]<br/>class = Fraud>, fillcolor="#e58139ff"] ;
27 -> 31 ;
32 [label=<DriverRating &le; 1.5<br/>gini = 0.018<br/>samples = 109<br/>value = [108, 1]<br/>class = Fraud>, fillcolor="#e58139fd"] ;
12 -> 32 ;
33 [label=<NumberOfSuppliments &le; 2.5<br/>gini = 0.083<br/>samples = 23<br/>value = [22, 1]<br/>class = Fraud>, fillcolor="#e58139f3"] ;
32 -> 33 ;
34 [label=<gini = 0.0<br/>samples = 18<br/>value = [18, 0]<br/>class = Fraud>, fillcolor="#e58139ff"] ;
33 -> 34 ;
35 [label=<daysDiff &le; 1.5<br/>gini = 0.32<br/>samples = 5<br/>value = [4, 1]<br/>class = Fraud>, fillcolor="#e58139bf"] ;
33 -> 35 ;
36 [label=<gini = 0.0<br/>samples = 4<br/>value = [4, 0]<br/>class = Fraud>, fillcolor="#e58139ff"] ;
35 -> 36 ;
37 [label=<gini = 0.0<br/>samples = 1<br/>value = [0, 1]<br/>class = Non-Fraud>, fillcolor="#399de5ff"] ;
35 -> 37 ;
38 [label=<gini = 0.0<br/>samples = 86<br/>value = [86, 0]<br/>class = Fraud>, fillcolor="#e58139ff"] ;
32 -> 38 ;
39 [label=<AccidentArea &le; 1.5<br/>gini = 0.165<br/>samples = 22<br/>value = [20, 2]<br/>class = Fraud>, fillcolor="#e58139e6"] ;
11 -> 39 ;
40 [label=<NumberOfSuppliments &le; 1.5<br/>gini = 0.091<br/>samples = 21<br/>value = [20, 1]<br/>class = Fraud>, fillcolor="#e58139f2"] ;
39 -> 40 ;
41 [label=<gini = 0.0<br/>samples = 11<br/>value = [11, 0]<br/>class = Fraud>, fillcolor="#e58139ff"] ;
40 -> 41 ;
42 [label=<AgeOfVehicle &le; 1.5<br/>gini = 0.18<br/>samples = 10<br/>value = [9, 1]<br/>class = Fraud>, fillcolor="#e58139e3"] ;
40 -> 42 ;
43 [label=<gini = 0.0<br/>samples = 4<br/>value = [4, 0]<br/>class = Fraud>, fillcolor="#e58139ff"] ;
42 -> 43 ;
44 [label=<Age &le; 36.5<br/>gini = 0.278<br/>samples = 6<br/>value = [5, 1]<br/>class = Fraud>, fillcolor="#e58139cc"] ;
42 -> 44 ;
45 [label=<gini = 0.0<br/>samples = 3<br/>value = [3, 0]<br/>class = Fraud>, fillcolor="#e58139ff"] ;
44 -> 45 ;
46 [label=<Age &le; 40.5<br/>gini = 0.444<br/>samples = 3<br/>value = [2, 1]<br/>class = Fraud>, fillcolor="#e581397f"] ;
44 -> 46 ;
47 [label=<gini = 0.0<br/>samples = 1<br/>value = [0, 1]<br/>class = Non-Fraud>, fillcolor="#399de5ff"] ;
46 -> 47 ;
48 [label=<gini = 0.0<br/>samples = 2<br/>value = [2, 0]<br/>class = Fraud>, fillcolor="#e58139ff"] ;
46 -> 48 ;
49 [label=<gini = 0.0<br/>samples = 1<br/>value = [0, 1]<br/>class = Non-Fraud>, fillcolor="#399de5ff"] ;
39 -> 49 ;
50 [label=<PastNumberOfClaims &le; 1.5<br/>gini = 0.245<br/>samples = 14<br/>value = [12, 2]<br/>class = Fraud>, fillcolor="#e58139d4"] ;
10 -> 50 ;
51 [label=<Age &le; 33.0<br/>gini = 0.48<br/>samples = 5<br/>value = [3, 2]<br/>class = Fraud>, fillcolor="#e5813955"] ;
50 -> 51 ;
52 [label=<gini = 0.0<br/>samples = 2<br/>value = [0, 2]<br/>class = Non-Fraud>, fillcolor="#399de5ff"] ;
51 -> 52 ;
53 [label=<gini = 0.0<br/>samples = 3<br/>value = [3, 0]<br/>class = Fraud>, fillcolor="#e58139ff"] ;
51 -> 53 ;
54 [label=<gini = 0.0<br/>samples = 9<br/>value = [9, 0]<br/>class = Fraud>, fillcolor="#e58139ff"] ;
50 -> 54 ;
55 [label=<NumberOfSuppliments &le; 1.5<br/>gini = 0.219<br/>samples = 24<br/>value = [21, 3]<br/>class = Fraud>, fillcolor="#e58139db"] ;
9 -> 55 ;
56 [label=<PastNumberOfClaims &le; 3.5<br/>gini = 0.375<br/>samples = 12<br/>value = [9, 3]<br/>class = Fraud>, fillcolor="#e58139aa"] ;
55 -> 56 ;
57 [label=<daysDiff &le; -1.0<br/>gini = 0.298<br/>samples = 11<br/>value = [9, 2]<br/>class = Fraud>, fillcolor="#e58139c6"] ;
56 -> 57 ;
58 [label=<daysDiff &le; -3.5<br/>gini = 0.5<br/>samples = 4<br/>value = [2, 2]<br/>class = Fraud>, fillcolor="#e5813900"] ;
57 -> 58 ;
59 [label=<gini = 0.0<br/>samples = 2<br/>value = [2, 0]<br/>class = Fraud>, fillcolor="#e58139ff"] ;
58 -> 59 ;
60 [label=<gini = 0.0<br/>samples = 2<br/>value = [0, 2]<br/>class = Non-Fraud>, fillcolor="#399de5ff"] ;
58 -> 60 ;
61 [label=<gini = 0.0<br/>samples = 7<br/>value = [7, 0]<br/>class = Fraud>, fillcolor="#e58139ff"] ;
57 -> 61 ;
62 [label=<gini = 0.0<br/>samples = 1<br/>value = [0, 1]<br/>class = Non-Fraud>, fillcolor="#399de5ff"] ;
56 -> 62 ;
63 [label=<gini = 0.0<br/>samples = 12<br/>value = [12, 0]<br/>class = Fraud>, fillcolor="#e58139ff"] ;
55 -> 63 ;
64 [label=<Age &le; 56.5<br/>gini = 0.159<br/>samples = 664<br/>value = [606, 58]<br/>class = Fraud>, fillcolor="#e58139e7"] ;
8 -> 64 ;
65 [label=<MaritalStatus &le; 3.5<br/>gini = 0.144<br/>samples = 591<br/>value = [545, 46]<br/>class = Fraud>, fillcolor="#e58139e9"] ;
64 -> 65 ;
66 [label=<PastNumberOfClaims &le; 2.5<br/>gini = 0.141<br/>samples = 589<br/>value = [544, 45]<br/>class = Fraud>, fillcolor="#e58139ea"] ;
65 -> 66 ;
67 [label=<daysDiff &le; 0.0<br/>gini = 0.17<br/>samples = 385<br/>value = [349, 36]<br/>class = Fraud>, fillcolor="#e58139e5"] ;
66 -> 67 ;
68 [label=<Make &le; 2.5<br/>gini = 0.23<br/>samples = 113<br/>value = [98, 15]<br/>class = Fraud>, fillcolor="#e58139d8"] ;
67 -> 68 ;
69 [label=<NumberOfSuppliments &le; 2.5<br/>gini = 0.358<br/>samples = 30<br/>value = [23, 7]<br/>class = Fraud>, fillcolor="#e58139b1"] ;
68 -> 69 ;
70 [label=<daysDiff &le; -4.5<br/>gini = 0.455<br/>samples = 20<br/>value = [13, 7]<br/>class = Fraud>, fillcolor="#e5813976"] ;
69 -> 70 ;
71 [label=<gini = 0.0<br/>samples = 4<br/>value = [4, 0]<br/>class = Fraud>, fillcolor="#e58139ff"] ;
70 -> 71 ;
72 [label=<AgeOfVehicle &le; 3.5<br/>gini = 0.492<br/>samples = 16<br/>value = [9, 7]<br/>class = Fraud>, fillcolor="#e5813939"] ;
70 -> 72 ;
73 [label=<DriverRating &le; 2.5<br/>gini = 0.459<br/>samples = 14<br/>value = [9, 5]<br/>class = Fraud>, fillcolor="#e5813971"] ;
72 -> 73 ;
74 [label=<gini = 0.0<br/>samples = 5<br/>value = [5, 0]<br/>class = Fraud>, fillcolor="#e58139ff"] ;
73 -> 74 ;
75 [label=<VehiclePrice &le; 1.5<br/>gini = 0.494<br/>samples = 9<br/>value = [4, 5]<br/>class = Non-Fraud>, fillcolor="#399de533"] ;
73 -> 75 ;
76 [label=<PoliceReportFiled &le; 1.5<br/>gini = 0.408<br/>samples = 7<br/>value = [2, 5]<br/>class = Non-Fraud>, fillcolor="#399de599"] ;
75 -> 76 ;
77 [label=<AccidentArea &le; 1.5<br/>gini = 0.278<br/>samples = 6<br/>value = [1, 5]<br/>class = Non-Fraud>, fillcolor="#399de5cc"] ;
76 -> 77 ;
78 [label=<gini = 0.0<br/>samples = 5<br/>value = [0, 5]<br/>class = Non-Fraud>, fillcolor="#399de5ff"] ;
77 -> 78 ;
79 [label=<gini = 0.0<br/>samples = 1<br/>value = [1, 0]<br/>class = Fraud>, fillcolor="#e58139ff"] ;
77 -> 79 ;
80 [label=<gini = 0.0<br/>samples = 1<br/>value = [1, 0]<br/>class = Fraud>, fillcolor="#e58139ff"] ;
76 -> 80 ;
81 [label=<gini = 0.0<br/>samples = 2<br/>value = [2, 0]<br/>class = Fraud>, fillcolor="#e58139ff"] ;
75 -> 81 ;
82 [label=<gini = 0.0<br/>samples = 2<br/>value = [0, 2]<br/>class = Non-Fraud>, fillcolor="#399de5ff"] ;
72 -> 82 ;
83 [label=<gini = 0.0<br/>samples = 10<br/>value = [10, 0]<br/>class = Fraud>, fillcolor="#e58139ff"] ;
69 -> 83 ;
84 [label=<AgeOfVehicle &le; 3.5<br/>gini = 0.174<br/>samples = 83<br/>value = [75, 8]<br/>class = Fraud>, fillcolor="#e58139e4"] ;
68 -> 84 ;
85 [label=<Age &le; 27.5<br/>gini = 0.134<br/>samples = 69<br/>value = [64, 5]<br/>class = Fraud>, fillcolor="#e58139eb"] ;
84 -> 85 ;
86 [label=<NumberOfSuppliments &le; 1.5<br/>gini = 0.298<br/>samples = 11<br/>value = [9, 2]<br/>class = Fraud>, fillcolor="#e58139c6"] ;
85 -> 86 ;
87 [label=<gini = 0.0<br/>samples = 8<br/>value = [8, 0]<br/>class = Fraud>, fillcolor="#e58139ff"] ;
86 -> 87 ;
88 [label=<NumberOfSuppliments &le; 3.5<br/>gini = 0.444<br/>samples = 3<br/>value = [1, 2]<br/>class = Non-Fraud>, fillcolor="#399de57f"] ;
86 -> 88 ;
89 [label=<gini = 0.0<br/>samples = 2<br/>value = [0, 2]<br/>class = Non-Fraud>, fillcolor="#399de5ff"] ;
88 -> 89 ;
90 [label=<gini = 0.0<br/>samples = 1<br/>value = [1, 0]<br/>class = Fraud>, fillcolor="#e58139ff"] ;
88 -> 90 ;
91 [label=<Make &le; 3.5<br/>gini = 0.098<br/>samples = 58<br/>value = [55, 3]<br/>class = Fraud>, fillcolor="#e58139f1"] ;
85 -> 91 ;
92 [label=<Age &le; 40.0<br/>gini = 0.188<br/>samples = 19<br/>value = [17, 2]<br/>class = Fraud>, fillcolor="#e58139e1"] ;
91 -> 92 ;
93 [label=<gini = 0.0<br/>samples = 12<br/>value = [12, 0]<br/>class = Fraud>, fillcolor="#e58139ff"] ;
92 -> 93 ;
94 [label=<VehiclePrice &le; 1.5<br/>gini = 0.408<br/>samples = 7<br/>value = [5, 2]<br/>class = Fraud>, fillcolor="#e5813999"] ;
92 -> 94 ;
95 [label=<AgeOfVehicle &le; 1.5<br/>gini = 0.278<br/>samples = 6<br/>value = [5, 1]<br/>class = Fraud>, fillcolor="#e58139cc"] ;
94 -> 95 ;
96 [label=<gini = 0.0<br/>samples = 5<br/>value = [5, 0]<br/>class = Fraud>, fillcolor="#e58139ff"] ;
95 -> 96 ;
97 [label=<gini = 0.0<br/>samples = 1<br/>value = [0, 1]<br/>class = Non-Fraud>, fillcolor="#399de5ff"] ;
95 -> 97 ;
98 [label=<gini = 0.0<br/>samples = 1<br/>value = [0, 1]<br/>class = Non-Fraud>, fillcolor="#399de5ff"] ;
94 -> 98 ;
99 [label=<MaritalStatus &le; 1.5<br/>gini = 0.05<br/>samples = 39<br/>value = [38, 1]<br/>class = Fraud>, fillcolor="#e58139f8"] ;
91 -> 99 ;
100 [label=<gini = 0.0<br/>samples = 30<br/>value = [30, 0]<br/>class = Fraud>, fillcolor="#e58139ff"] ;
99 -> 100 ;
101 [label=<daysDiff &le; -4.5<br/>gini = 0.198<br/>samples = 9<br/>value = [8, 1]<br/>class = Fraud>, fillcolor="#e58139df"] ;
99 -> 101 ;
102 [label=<Age &le; 34.0<br/>gini = 0.5<br/>samples = 2<br/>value = [1, 1]<br/>class = Fraud>, fillcolor="#e5813900"] ;
101 -> 102 ;
103 [label=<gini = 0.0<br/>samples = 1<br/>value = [0, 1]<br/>class = Non-Fraud>, fillcolor="#399de5ff"] ;
102 -> 103 ;
104 [label=<gini = 0.0<br/>samples = 1<br/>value = [1, 0]<br/>class = Fraud>, fillcolor="#e58139ff"] ;
102 -> 104 ;
105 [label=<gini = 0.0<br/>samples = 7<br/>value = [7, 0]<br/>class = Fraud>, fillcolor="#e58139ff"] ;
101 -> 105 ;
106 [label=<Age &le; 37.0<br/>gini = 0.337<br/>samples = 14<br/>value = [11, 3]<br/>class = Fraud>, fillcolor="#e58139b9"] ;
84 -> 106 ;
107 [label=<PoliceReportFiled &le; 1.5<br/>gini = 0.153<br/>samples = 12<br/>value = [11, 1]<br/>class = Fraud>, fillcolor="#e58139e8"] ;
106 -> 107 ;
108 [label=<gini = 0.0<br/>samples = 10<br/>value = [10, 0]<br/>class = Fraud>, fillcolor="#e58139ff"] ;
107 -> 108 ;
109 [label=<Age &le; 26.0<br/>gini = 0.5<br/>samples = 2<br/>value = [1, 1]<br/>class = Fraud>, fillcolor="#e5813900"] ;
107 -> 109 ;
110 [label=<gini = 0.0<br/>samples = 1<br/>value = [1, 0]<br/>class = Fraud>, fillcolor="#e58139ff"] ;
109 -> 110 ;
111 [label=<gini = 0.0<br/>samples = 1<br/>value = [0, 1]<br/>class = Non-Fraud>, fillcolor="#399de5ff"] ;
109 -> 111 ;
112 [label=<gini = 0.0<br/>samples = 2<br/>value = [0, 2]<br/>class = Non-Fraud>, fillcolor="#399de5ff"] ;
106 -> 112 ;
113 [label=<AddressChange-Claim &le; 1.5<br/>gini = 0.142<br/>samples = 272<br/>value = [251, 21]<br/>class = Fraud>, fillcolor="#e58139ea"] ;
67 -> 113 ;
114 [label=<PastNumberOfClaims &le; 1.5<br/>gini = 0.12<br/>samples = 249<br/>value = [233, 16]<br/>class = Fraud>, fillcolor="#e58139ed"] ;
113 -> 114 ;
115 [label=<NumberOfSuppliments &le; 2.5<br/>gini = 0.175<br/>samples = 124<br/>value = [112, 12]<br/>class = Fraud>, fillcolor="#e58139e4"] ;
114 -> 115 ;
116 [label=<Age &le; 41.5<br/>gini = 0.225<br/>samples = 85<br/>value = [74, 11]<br/>class = Fraud>, fillcolor="#e58139d9"] ;
115 -> 116 ;
117 [label=<Age &le; 27.5<br/>gini = 0.289<br/>samples = 57<br/>value = [47, 10]<br/>class = Fraud>, fillcolor="#e58139c9"] ;
116 -> 117 ;
118 [label=<gini = 0.0<br/>samples = 15<br/>value = [15, 0]<br/>class = Fraud>, fillcolor="#e58139ff"] ;
117 -> 118 ;
119 [label=<DriverRating &le; 1.5<br/>gini = 0.363<br/>samples = 42<br/>value = [32, 10]<br/>class = Fraud>, fillcolor="#e58139af"] ;
117 -> 119 ;
120 [label=<Age &le; 39.5<br/>gini = 0.496<br/>samples = 11<br/>value = [6, 5]<br/>class = Fraud>, fillcolor="#e581392a"] ;
119 -> 120 ;
121 [label=<Age &le; 33.0<br/>gini = 0.444<br/>samples = 9<br/>value = [6, 3]<br/>class = Fraud>, fillcolor="#e581397f"] ;
120 -> 121 ;
122 [label=<MaritalStatus &le; 1.5<br/>gini = 0.375<br/>samples = 4<br/>value = [1, 3]<br/>class = Non-Fraud>, fillcolor="#399de5aa"] ;
121 -> 122 ;
123 [label=<NumberOfSuppliments &le; 1.5<br/>gini = 0.5<br/>samples = 2<br/>value = [1, 1]<br/>class = Fraud>, fillcolor="#e5813900"] ;
122 -> 123 ;
124 [label=<gini = 0.0<br/>samples = 1<br/>value = [1, 0]<br/>class = Fraud>, fillcolor="#e58139ff"] ;
123 -> 124 ;
125 [label=<gini = 0.0<br/>samples = 1<br/>value = [0, 1]<br/>class = Non-Fraud>, fillcolor="#399de5ff"] ;
123 -> 125 ;
126 [label=<gini = 0.0<br/>samples = 2<br/>value = [0, 2]<br/>class = Non-Fraud>, fillcolor="#399de5ff"] ;
122 -> 126 ;
127 [label=<gini = 0.0<br/>samples = 5<br/>value = [5, 0]<br/>class = Fraud>, fillcolor="#e58139ff"] ;
121 -> 127 ;
128 [label=<gini = 0.0<br/>samples = 2<br/>value = [0, 2]<br/>class = Non-Fraud>, fillcolor="#399de5ff"] ;
120 -> 128 ;
129 [label=<DriverRating &le; 3.5<br/>gini = 0.271<br/>samples = 31<br/>value = [26, 5]<br/>class = Fraud>, fillcolor="#e58139ce"] ;
119 -> 129 ;
130 [label=<Age &le; 29.0<br/>gini = 0.117<br/>samples = 16<br/>value = [15, 1]<br/>class = Fraud>, fillcolor="#e58139ee"] ;
129 -> 130 ;
131 [label=<Make &le; 4.5<br/>gini = 0.444<br/>samples = 3<br/>value = [2, 1]<br/>class = Fraud>, fillcolor="#e581397f"] ;
130 -> 131 ;
132 [label=<gini = 0.0<br/>samples = 2<br/>value = [2, 0]<br/>class = Fraud>, fillcolor="#e58139ff"] ;
131 -> 132 ;
133 [label=<gini = 0.0<br/>samples = 1<br/>value = [0, 1]<br/>class = Non-Fraud>, fillcolor="#399de5ff"] ;
131 -> 133 ;
134 [label=<gini = 0.0<br/>samples = 13<br/>value = [13, 0]<br/>class = Fraud>, fillcolor="#e58139ff"] ;
130 -> 134 ;
135 [label=<Age &le; 38.5<br/>gini = 0.391<br/>samples = 15<br/>value = [11, 4]<br/>class = Fraud>, fillcolor="#e58139a2"] ;
129 -> 135 ;
136 [label=<Age &le; 32.5<br/>gini = 0.278<br/>samples = 12<br/>value = [10, 2]<br/>class = Fraud>, fillcolor="#e58139cc"] ;
135 -> 136 ;
137 [label=<NumberOfSuppliments &le; 1.5<br/>gini = 0.444<br/>samples = 6<br/>value = [4, 2]<br/>class = Fraud>, fillcolor="#e581397f"] ;
136 -> 137 ;
138 [label=<daysDiff &le; 2.0<br/>gini = 0.444<br/>samples = 3<br/>value = [1, 2]<br/>class = Non-Fraud>, fillcolor="#399de57f"] ;
137 -> 138 ;
139 [label=<gini = 0.0<br/>samples = 2<br/>value = [0, 2]<br/>class = Non-Fraud>, fillcolor="#399de5ff"] ;
138 -> 139 ;
140 [label=<gini = 0.0<br/>samples = 1<br/>value = [1, 0]<br/>class = Fraud>, fillcolor="#e58139ff"] ;
138 -> 140 ;
141 [label=<gini = 0.0<br/>samples = 3<br/>value = [3, 0]<br/>class = Fraud>, fillcolor="#e58139ff"] ;
137 -> 141 ;
142 [label=<gini = 0.0<br/>samples = 6<br/>value = [6, 0]<br/>class = Fraud>, fillcolor="#e58139ff"] ;
136 -> 142 ;
143 [label=<Age &le; 40.0<br/>gini = 0.444<br/>samples = 3<br/>value = [1, 2]<br/>class = Non-Fraud>, fillcolor="#399de57f"] ;
135 -> 143 ;
144 [label=<gini = 0.0<br/>samples = 2<br/>value = [0, 2]<br/>class = Non-Fraud>, fillcolor="#399de5ff"] ;
143 -> 144 ;
145 [label=<gini = 0.0<br/>samples = 1<br/>value = [1, 0]<br/>class = Fraud>, fillcolor="#e58139ff"] ;
143 -> 145 ;
146 [label=<MaritalStatus &le; 1.5<br/>gini = 0.069<br/>samples = 28<br/>value = [27, 1]<br/>class = Fraud>, fillcolor="#e58139f6"] ;
116 -> 146 ;
147 [label=<gini = 0.0<br/>samples = 27<br/>value = [27, 0]<br/>class = Fraud>, fillcolor="#e58139ff"] ;
146 -> 147 ;
148 [label=<gini = 0.0<br/>samples = 1<br/>value = [0, 1]<br/>class = Non-Fraud>, fillcolor="#399de5ff"] ;
146 -> 148 ;
149 [label=<Age &le; 44.5<br/>gini = 0.05<br/>samples = 39<br/>value = [38, 1]<br/>class = Fraud>, fillcolor="#e58139f8"] ;
115 -> 149 ;
150 [label=<gini = 0.0<br/>samples = 31<br/>value = [31, 0]<br/>class = Fraud>, fillcolor="#e58139ff"] ;
149 -> 150 ;
151 [label=<AgeOfVehicle &le; 1.5<br/>gini = 0.219<br/>samples = 8<br/>value = [7, 1]<br/>class = Fraud>, fillcolor="#e58139db"] ;
149 -> 151 ;
152 [label=<Make &le; 3.0<br/>gini = 0.444<br/>samples = 3<br/>value = [2, 1]<br/>class = Fraud>, fillcolor="#e581397f"] ;
151 -> 152 ;
153 [label=<gini = 0.0<br/>samples = 1<br/>value = [0, 1]<br/>class = Non-Fraud>, fillcolor="#399de5ff"] ;
152 -> 153 ;
154 [label=<gini = 0.0<br/>samples = 2<br/>value = [2, 0]<br/>class = Fraud>, fillcolor="#e58139ff"] ;
152 -> 154 ;
155 [label=<gini = 0.0<br/>samples = 5<br/>value = [5, 0]<br/>class = Fraud>, fillcolor="#e58139ff"] ;
151 -> 155 ;
156 [label=<Age &le; 30.5<br/>gini = 0.062<br/>samples = 125<br/>value = [121, 4]<br/>class = Fraud>, fillcolor="#e58139f7"] ;
114 -> 156 ;
157 [label=<Age &le; 29.5<br/>gini = 0.161<br/>samples = 34<br/>value = [31, 3]<br/>class = Fraud>, fillcolor="#e58139e6"] ;
156 -> 157 ;
158 [label=<AgeOfVehicle &le; 2.0<br/>gini = 0.069<br/>samples = 28<br/>value = [27, 1]<br/>class = Fraud>, fillcolor="#e58139f6"] ;
157 -> 158 ;
159 [label=<NumberOfSuppliments &le; 1.5<br/>gini = 0.198<br/>samples = 9<br/>value = [8, 1]<br/>class = Fraud>, fillcolor="#e58139df"] ;
158 -> 159 ;
160 [label=<gini = 0.0<br/>samples = 7<br/>value = [7, 0]<br/>class = Fraud>, fillcolor="#e58139ff"] ;
159 -> 160 ;
161 [label=<Age &le; 26.5<br/>gini = 0.5<br/>samples = 2<br/>value = [1, 1]<br/>class = Fraud>, fillcolor="#e5813900"] ;
159 -> 161 ;
162 [label=<gini = 0.0<br/>samples = 1<br/>value = [0, 1]<br/>class = Non-Fraud>, fillcolor="#399de5ff"] ;
161 -> 162 ;
163 [label=<gini = 0.0<br/>samples = 1<br/>value = [1, 0]<br/>class = Fraud>, fillcolor="#e58139ff"] ;
161 -> 163 ;
164 [label=<gini = 0.0<br/>samples = 19<br/>value = [19, 0]<br/>class = Fraud>, fillcolor="#e58139ff"] ;
158 -> 164 ;
165 [label=<daysDiff &le; 1.5<br/>gini = 0.444<br/>samples = 6<br/>value = [4, 2]<br/>class = Fraud>, fillcolor="#e581397f"] ;
157 -> 165 ;
166 [label=<gini = 0.0<br/>samples = 3<br/>value = [3, 0]<br/>class = Fraud>, fillcolor="#e58139ff"] ;
165 -> 166 ;
167 [label=<VehiclePrice &le; 1.5<br/>gini = 0.444<br/>samples = 3<br/>value = [1, 2]<br/>class = Non-Fraud>, fillcolor="#399de57f"] ;
165 -> 167 ;
168 [label=<gini = 0.0<br/>samples = 2<br/>value = [0, 2]<br/>class = Non-Fraud>, fillcolor="#399de5ff"] ;
167 -> 168 ;
169 [label=<gini = 0.0<br/>samples = 1<br/>value = [1, 0]<br/>class = Fraud>, fillcolor="#e58139ff"] ;
167 -> 169 ;
170 [label=<AgeOfVehicle &le; 5.0<br/>gini = 0.022<br/>samples = 91<br/>value = [90, 1]<br/>class = Fraud>, fillcolor="#e58139fc"] ;
156 -> 170 ;
171 [label=<gini = 0.0<br/>samples = 87<br/>value = [87, 0]<br/>class = Fraud>, fillcolor="#e58139ff"] ;
170 -> 171 ;
172 [label=<Age &le; 45.5<br/>gini = 0.375<br/>samples = 4<br/>value = [3, 1]<br/>class = Fraud>, fillcolor="#e58139aa"] ;
170 -> 172 ;
173 [label=<gini = 0.0<br/>samples = 3<br/>value = [3, 0]<br/>class = Fraud>, fillcolor="#e58139ff"] ;
172 -> 173 ;
174 [label=<gini = 0.0<br/>samples = 1<br/>value = [0, 1]<br/>class = Non-Fraud>, fillcolor="#399de5ff"] ;
172 -> 174 ;
175 [label=<AgeOfVehicle &le; 3.5<br/>gini = 0.34<br/>samples = 23<br/>value = [18, 5]<br/>class = Fraud>, fillcolor="#e58139b8"] ;
113 -> 175 ;
176 [label=<Make &le; 8.5<br/>gini = 0.188<br/>samples = 19<br/>value = [17, 2]<br/>class = Fraud>, fillcolor="#e58139e1"] ;
175 -> 176 ;
177 [label=<Age &le; 51.0<br/>gini = 0.105<br/>samples = 18<br/>value = [17, 1]<br/>class = Fraud>, fillcolor="#e58139f0"] ;
176 -> 177 ;
178 [label=<gini = 0.0<br/>samples = 17<br/>value = [17, 0]<br/>class = Fraud>, fillcolor="#e58139ff"] ;
177 -> 178 ;
179 [label=<gini = 0.0<br/>samples = 1<br/>value = [0, 1]<br/>class = Non-Fraud>, fillcolor="#399de5ff"] ;
177 -> 179 ;
180 [label=<gini = 0.0<br/>samples = 1<br/>value = [0, 1]<br/>class = Non-Fraud>, fillcolor="#399de5ff"] ;
176 -> 180 ;
181 [label=<Age &le; 32.5<br/>gini = 0.375<br/>samples = 4<br/>value = [1, 3]<br/>class = Non-Fraud>, fillcolor="#399de5aa"] ;
175 -> 181 ;
182 [label=<gini = 0.0<br/>samples = 3<br/>value = [0, 3]<br/>class = Non-Fraud>, fillcolor="#399de5ff"] ;
181 -> 182 ;
183 [label=<gini = 0.0<br/>samples = 1<br/>value = [1, 0]<br/>class = Fraud>, fillcolor="#e58139ff"] ;
181 -> 183 ;
184 [label=<NumberOfSuppliments &le; 3.5<br/>gini = 0.084<br/>samples = 204<br/>value = [195, 9]<br/>class = Fraud>, fillcolor="#e58139f3"] ;
66 -> 184 ;
185 [label=<Age &le; 21.5<br/>gini = 0.064<br/>samples = 181<br/>value = [175, 6]<br/>class = Fraud>, fillcolor="#e58139f6"] ;
184 -> 185 ;
186 [label=<VehiclePrice &le; 1.5<br/>gini = 0.245<br/>samples = 7<br/>value = [6, 1]<br/>class = Fraud>, fillcolor="#e58139d4"] ;
185 -> 186 ;
187 [label=<gini = 0.0<br/>samples = 6<br/>value = [6, 0]<br/>class = Fraud>, fillcolor="#e58139ff"] ;
186 -> 187 ;
188 [label=<gini = 0.0<br/>samples = 1<br/>value = [0, 1]<br/>class = Non-Fraud>, fillcolor="#399de5ff"] ;
186 -> 188 ;
189 [label=<Age &le; 30.5<br/>gini = 0.056<br/>samples = 174<br/>value = [169, 5]<br/>class = Fraud>, fillcolor="#e58139f7"] ;
185 -> 189 ;
190 [label=<gini = 0.0<br/>samples = 60<br/>value = [60, 0]<br/>class = Fraud>, fillcolor="#e58139ff"] ;
189 -> 190 ;
191 [label=<Age &le; 32.5<br/>gini = 0.084<br/>samples = 114<br/>value = [109, 5]<br/>class = Fraud>, fillcolor="#e58139f3"] ;
189 -> 191 ;
192 [label=<Make &le; 5.5<br/>gini = 0.231<br/>samples = 15<br/>value = [13, 2]<br/>class = Fraud>, fillcolor="#e58139d8"] ;
191 -> 192 ;
193 [label=<daysDiff &le; -3.0<br/>gini = 0.133<br/>samples = 14<br/>value = [13, 1]<br/>class = Fraud>, fillcolor="#e58139eb"] ;
192 -> 193 ;
194 [label=<Age &le; 31.5<br/>gini = 0.5<br/>samples = 2<br/>value = [1, 1]<br/>class = Fraud>, fillcolor="#e5813900"] ;
193 -> 194 ;
195 [label=<gini = 0.0<br/>samples = 1<br/>value = [0, 1]<br/>class = Non-Fraud>, fillcolor="#399de5ff"] ;
194 -> 195 ;
196 [label=<gini = 0.0<br/>samples = 1<br/>value = [1, 0]<br/>class = Fraud>, fillcolor="#e58139ff"] ;
194 -> 196 ;
197 [label=<gini = 0.0<br/>samples = 12<br/>value = [12, 0]<br/>class = Fraud>, fillcolor="#e58139ff"] ;
193 -> 197 ;
198 [label=<gini = 0.0<br/>samples = 1<br/>value = [0, 1]<br/>class = Non-Fraud>, fillcolor="#399de5ff"] ;
192 -> 198 ;
199 [label=<DriverRating &le; 2.5<br/>gini = 0.059<br/>samples = 99<br/>value = [96, 3]<br/>class = Fraud>, fillcolor="#e58139f7"] ;
191 -> 199 ;
200 [label=<gini = 0.0<br/>samples = 50<br/>value = [50, 0]<br/>class = Fraud>, fillcolor="#e58139ff"] ;
199 -> 200 ;
201 [label=<Age &le; 46.0<br/>gini = 0.115<br/>samples = 49<br/>value = [46, 3]<br/>class = Fraud>, fillcolor="#e58139ee"] ;
199 -> 201 ;
202 [label=<Age &le; 38.5<br/>gini = 0.18<br/>samples = 30<br/>value = [27, 3]<br/>class = Fraud>, fillcolor="#e58139e3"] ;
201 -> 202 ;
203 [label=<gini = 0.0<br/>samples = 18<br/>value = [18, 0]<br/>class = Fraud>, fillcolor="#e58139ff"] ;
202 -> 203 ;
204 [label=<Age &le; 40.0<br/>gini = 0.375<br/>samples = 12<br/>value = [9, 3]<br/>class = Fraud>, fillcolor="#e58139aa"] ;
202 -> 204 ;
205 [label=<daysDiff &le; -1.5<br/>gini = 0.5<br/>samples = 4<br/>value = [2, 2]<br/>class = Fraud>, fillcolor="#e5813900"] ;
204 -> 205 ;
206 [label=<gini = 0.0<br/>samples = 1<br/>value = [1, 0]<br/>class = Fraud>, fillcolor="#e58139ff"] ;
205 -> 206 ;
207 [label=<Deductible &le; 450.0<br/>gini = 0.444<br/>samples = 3<br/>value = [1, 2]<br/>class = Non-Fraud>, fillcolor="#399de57f"] ;
205 -> 207 ;
208 [label=<gini = 0.0<br/>samples = 2<br/>value = [0, 2]<br/>class = Non-Fraud>, fillcolor="#399de5ff"] ;
207 -> 208 ;
209 [label=<gini = 0.0<br/>samples = 1<br/>value = [1, 0]<br/>class = Fraud>, fillcolor="#e58139ff"] ;
207 -> 209 ;
210 [label=<AgeOfVehicle &le; 1.5<br/>gini = 0.219<br/>samples = 8<br/>value = [7, 1]<br/>class = Fraud>, fillcolor="#e58139db"] ;
204 -> 210 ;
211 [label=<gini = 0.0<br/>samples = 7<br/>value = [7, 0]<br/>class = Fraud>, fillcolor="#e58139ff"] ;
210 -> 211 ;
212 [label=<gini = 0.0<br/>samples = 1<br/>value = [0, 1]<br/>class = Non-Fraud>, fillcolor="#399de5ff"] ;
210 -> 212 ;
213 [label=<gini = 0.0<br/>samples = 19<br/>value = [19, 0]<br/>class = Fraud>, fillcolor="#e58139ff"] ;
201 -> 213 ;
214 [label=<Age &le; 45.0<br/>gini = 0.227<br/>samples = 23<br/>value = [20, 3]<br/>class = Fraud>, fillcolor="#e58139d9"] ;
184 -> 214 ;
215 [label=<MaritalStatus &le; 1.5<br/>gini = 0.105<br/>samples = 18<br/>value = [17, 1]<br/>class = Fraud>, fillcolor="#e58139f0"] ;
214 -> 215 ;
216 [label=<gini = 0.0<br/>samples = 10<br/>value = [10, 0]<br/>class = Fraud>, fillcolor="#e58139ff"] ;
215 -> 216 ;
217 [label=<AgeOfVehicle &le; 3.5<br/>gini = 0.219<br/>samples = 8<br/>value = [7, 1]<br/>class = Fraud>, fillcolor="#e58139db"] ;
215 -> 217 ;
218 [label=<Age &le; 31.0<br/>gini = 0.375<br/>samples = 4<br/>value = [3, 1]<br/>class = Fraud>, fillcolor="#e58139aa"] ;
217 -> 218 ;
219 [label=<gini = 0.0<br/>samples = 1<br/>value = [0, 1]<br/>class = Non-Fraud>, fillcolor="#399de5ff"] ;
218 -> 219 ;
220 [label=<gini = 0.0<br/>samples = 3<br/>value = [3, 0]<br/>class = Fraud>, fillcolor="#e58139ff"] ;
218 -> 220 ;
221 [label=<gini = 0.0<br/>samples = 4<br/>value = [4, 0]<br/>class = Fraud>, fillcolor="#e58139ff"] ;
217 -> 221 ;
222 [label=<Age &le; 47.0<br/>gini = 0.48<br/>samples = 5<br/>value = [3, 2]<br/>class = Fraud>, fillcolor="#e5813955"] ;
214 -> 222 ;
223 [label=<gini = 0.0<br/>samples = 2<br/>value = [0, 2]<br/>class = Non-Fraud>, fillcolor="#399de5ff"] ;
222 -> 223 ;
224 [label=<gini = 0.0<br/>samples = 3<br/>value = [3, 0]<br/>class = Fraud>, fillcolor="#e58139ff"] ;
222 -> 224 ;
225 [label=<AgeOfVehicle &le; 5.0<br/>gini = 0.5<br/>samples = 2<br/>value = [1, 1]<br/>class = Fraud>, fillcolor="#e5813900"] ;
65 -> 225 ;
226 [label=<gini = 0.0<br/>samples = 1<br/>value = [1, 0]<br/>class = Fraud>, fillcolor="#e58139ff"] ;
225 -> 226 ;
227 [label=<gini = 0.0<br/>samples = 1<br/>value = [0, 1]<br/>class = Non-Fraud>, fillcolor="#399de5ff"] ;
225 -> 227 ;
228 [label=<daysDiff &le; 1.5<br/>gini = 0.275<br/>samples = 73<br/>value = [61, 12]<br/>class = Fraud>, fillcolor="#e58139cd"] ;
64 -> 228 ;
229 [label=<AgeOfVehicle &le; 1.5<br/>gini = 0.113<br/>samples = 50<br/>value = [47, 3]<br/>class = Fraud>, fillcolor="#e58139ef"] ;
228 -> 229 ;
230 [label=<Age &le; 61.0<br/>gini = 0.444<br/>samples = 6<br/>value = [4, 2]<br/>class = Fraud>, fillcolor="#e581397f"] ;
229 -> 230 ;
231 [label=<Age &le; 57.5<br/>gini = 0.444<br/>samples = 3<br/>value = [1, 2]<br/>class = Non-Fraud>, fillcolor="#399de57f"] ;
230 -> 231 ;
232 [label=<gini = 0.0<br/>samples = 1<br/>value = [1, 0]<br/>class = Fraud>, fillcolor="#e58139ff"] ;
231 -> 232 ;
233 [label=<gini = 0.0<br/>samples = 2<br/>value = [0, 2]<br/>class = Non-Fraud>, fillcolor="#399de5ff"] ;
231 -> 233 ;
234 [label=<gini = 0.0<br/>samples = 3<br/>value = [3, 0]<br/>class = Fraud>, fillcolor="#e58139ff"] ;
230 -> 234 ;
235 [label=<Age &le; 76.5<br/>gini = 0.044<br/>samples = 44<br/>value = [43, 1]<br/>class = Fraud>, fillcolor="#e58139f9"] ;
229 -> 235 ;
236 [label=<gini = 0.0<br/>samples = 39<br/>value = [39, 0]<br/>class = Fraud>, fillcolor="#e58139ff"] ;
235 -> 236 ;
237 [label=<Make &le; 4.5<br/>gini = 0.32<br/>samples = 5<br/>value = [4, 1]<br/>class = Fraud>, fillcolor="#e58139bf"] ;
235 -> 237 ;
238 [label=<gini = 0.0<br/>samples = 4<br/>value = [4, 0]<br/>class = Fraud>, fillcolor="#e58139ff"] ;
237 -> 238 ;
239 [label=<gini = 0.0<br/>samples = 1<br/>value = [0, 1]<br/>class = Non-Fraud>, fillcolor="#399de5ff"] ;
237 -> 239 ;
240 [label=<MaritalStatus &le; 1.5<br/>gini = 0.476<br/>samples = 23<br/>value = [14, 9]<br/>class = Fraud>, fillcolor="#e581395b"] ;
228 -> 240 ;
241 [label=<Age &le; 60.5<br/>gini = 0.444<br/>samples = 21<br/>value = [14, 7]<br/>class = Fraud>, fillcolor="#e581397f"] ;
240 -> 241 ;
242 [label=<PastNumberOfClaims &le; 2.5<br/>gini = 0.494<br/>samples = 9<br/>value = [4, 5]<br/>class = Non-Fraud>, fillcolor="#399de533"] ;
241 -> 242 ;
243 [label=<Age &le; 57.5<br/>gini = 0.444<br/>samples = 6<br/>value = [4, 2]<br/>class = Fraud>, fillcolor="#e581397f"] ;
242 -> 243 ;
244 [label=<gini = 0.0<br/>samples = 1<br/>value = [0, 1]<br/>class = Non-Fraud>, fillcolor="#399de5ff"] ;
243 -> 244 ;
245 [label=<DriverRating &le; 3.5<br/>gini = 0.32<br/>samples = 5<br/>value = [4, 1]<br/>class = Fraud>, fillcolor="#e58139bf"] ;
243 -> 245 ;
246 [label=<gini = 0.0<br/>samples = 3<br/>value = [3, 0]<br/>class = Fraud>, fillcolor="#e58139ff"] ;
245 -> 246 ;
247 [label=<VehiclePrice &le; 1.5<br/>gini = 0.5<br/>samples = 2<br/>value = [1, 1]<br/>class = Fraud>, fillcolor="#e5813900"] ;
245 -> 247 ;
248 [label=<gini = 0.0<br/>samples = 1<br/>value = [0, 1]<br/>class = Non-Fraud>, fillcolor="#399de5ff"] ;
247 -> 248 ;
249 [label=<gini = 0.0<br/>samples = 1<br/>value = [1, 0]<br/>class = Fraud>, fillcolor="#e58139ff"] ;
247 -> 249 ;
250 [label=<gini = 0.0<br/>samples = 3<br/>value = [0, 3]<br/>class = Non-Fraud>, fillcolor="#399de5ff"] ;
242 -> 250 ;
251 [label=<NumberOfSuppliments &le; 3.5<br/>gini = 0.278<br/>samples = 12<br/>value = [10, 2]<br/>class = Fraud>, fillcolor="#e58139cc"] ;
241 -> 251 ;
252 [label=<DriverRating &le; 1.5<br/>gini = 0.165<br/>samples = 11<br/>value = [10, 1]<br/>class = Fraud>, fillcolor="#e58139e6"] ;
251 -> 252 ;
253 [label=<AgeOfVehicle &le; 1.5<br/>gini = 0.444<br/>samples = 3<br/>value = [2, 1]<br/>class = Fraud>, fillcolor="#e581397f"] ;
252 -> 253 ;
254 [label=<gini = 0.0<br/>samples = 1<br/>value = [0, 1]<br/>class = Non-Fraud>, fillcolor="#399de5ff"] ;
253 -> 254 ;
255 [label=<gini = 0.0<br/>samples = 2<br/>value = [2, 0]<br/>class = Fraud>, fillcolor="#e58139ff"] ;
253 -> 255 ;
256 [label=<gini = 0.0<br/>samples = 8<br/>value = [8, 0]<br/>class = Fraud>, fillcolor="#e58139ff"] ;
252 -> 256 ;
257 [label=<gini = 0.0<br/>samples = 1<br/>value = [0, 1]<br/>class = Non-Fraud>, fillcolor="#399de5ff"] ;
251 -> 257 ;
258 [label=<gini = 0.0<br/>samples = 2<br/>value = [0, 2]<br/>class = Non-Fraud>, fillcolor="#399de5ff"] ;
240 -> 258 ;
259 [label=<gini = 0.0<br/>samples = 2<br/>value = [0, 2]<br/>class = Non-Fraud>, fillcolor="#399de5ff"] ;
7 -> 259 ;
260 [label=<NumberOfCars &le; 2.5<br/>gini = 0.217<br/>samples = 864<br/>value = [757, 107]<br/>class = Fraud>, fillcolor="#e58139db"] ;
6 -> 260 ;
261 [label=<PastNumberOfClaims &le; 3.5<br/>gini = 0.212<br/>samples = 840<br/>value = [739, 101]<br/>class = Fraud>, fillcolor="#e58139dc"] ;
260 -> 261 ;
262 [label=<Age &le; 28.5<br/>gini = 0.203<br/>samples = 785<br/>value = [695, 90]<br/>class = Fraud>, fillcolor="#e58139de"] ;
261 -> 262 ;
263 [label=<PastNumberOfClaims &le; 2.5<br/>gini = 0.275<br/>samples = 146<br/>value = [122, 24]<br/>class = Fraud>, fillcolor="#e58139cd"] ;
262 -> 263 ;
264 [label=<Age &le; 24.5<br/>gini = 0.342<br/>samples = 105<br/>value = [82, 23]<br/>class = Fraud>, fillcolor="#e58139b7"] ;
263 -> 264 ;
265 [label=<Make &le; 6.5<br/>gini = 0.149<br/>samples = 37<br/>value = [34, 3]<br/>class = Fraud>, fillcolor="#e58139e9"] ;
264 -> 265 ;
266 [label=<DriverRating &le; 3.5<br/>gini = 0.105<br/>samples = 36<br/>value = [34, 2]<br/>class = Fraud>, fillcolor="#e58139f0"] ;
265 -> 266 ;
267 [label=<gini = 0.0<br/>samples = 27<br/>value = [27, 0]<br/>class = Fraud>, fillcolor="#e58139ff"] ;
266 -> 267 ;
268 [label=<Age &le; 21.5<br/>gini = 0.346<br/>samples = 9<br/>value = [7, 2]<br/>class = Fraud>, fillcolor="#e58139b6"] ;
266 -> 268 ;
269 [label=<daysDiff &le; 10.5<br/>gini = 0.5<br/>samples = 4<br/>value = [2, 2]<br/>class = Fraud>, fillcolor="#e5813900"] ;
268 -> 269 ;
270 [label=<PastNumberOfClaims &le; 1.5<br/>gini = 0.444<br/>samples = 3<br/>value = [1, 2]<br/>class = Non-Fraud>, fillcolor="#399de57f"] ;
269 -> 270 ;
271 [label=<daysDiff &le; 8.5<br/>gini = 0.5<br/>samples = 2<br/>value = [1, 1]<br/>class = Fraud>, fillcolor="#e5813900"] ;
270 -> 271 ;
272 [label=<gini = 0.0<br/>samples = 1<br/>value = [1, 0]<br/>class = Fraud>, fillcolor="#e58139ff"] ;
271 -> 272 ;
273 [label=<gini = 0.0<br/>samples = 1<br/>value = [0, 1]<br/>class = Non-Fraud>, fillcolor="#399de5ff"] ;
271 -> 273 ;
274 [label=<gini = 0.0<br/>samples = 1<br/>value = [0, 1]<br/>class = Non-Fraud>, fillcolor="#399de5ff"] ;
270 -> 274 ;
275 [label=<gini = 0.0<br/>samples = 1<br/>value = [1, 0]<br/>class = Fraud>, fillcolor="#e58139ff"] ;
269 -> 275 ;
276 [label=<gini = 0.0<br/>samples = 5<br/>value = [5, 0]<br/>class = Fraud>, fillcolor="#e58139ff"] ;
268 -> 276 ;
277 [label=<gini = 0.0<br/>samples = 1<br/>value = [0, 1]<br/>class = Non-Fraud>, fillcolor="#399de5ff"] ;
265 -> 277 ;
278 [label=<AccidentArea &le; 1.5<br/>gini = 0.415<br/>samples = 68<br/>value = [48, 20]<br/>class = Fraud>, fillcolor="#e5813995"] ;
264 -> 278 ;
279 [label=<Days:Policy-Accident &le; 1.5<br/>gini = 0.379<br/>samples = 59<br/>value = [44, 15]<br/>class = Fraud>, fillcolor="#e58139a8"] ;
278 -> 279 ;
280 [label=<Make &le; 9.5<br/>gini = 0.366<br/>samples = 58<br/>value = [44, 14]<br/>class = Fraud>, fillcolor="#e58139ae"] ;
279 -> 280 ;
281 [label=<AddressChange-Claim &le; 3.0<br/>gini = 0.352<br/>samples = 57<br/>value = [44, 13]<br/>class = Fraud>, fillcolor="#e58139b4"] ;
280 -> 281 ;
282 [label=<VehiclePrice &le; 1.5<br/>gini = 0.337<br/>samples = 56<br/>value = [44, 12]<br/>class = Fraud>, fillcolor="#e58139b9"] ;
281 -> 282 ;
283 [label=<Age &le; 27.5<br/>gini = 0.411<br/>samples = 38<br/>value = [27, 11]<br/>class = Fraud>, fillcolor="#e5813997"] ;
282 -> 283 ;
284 [label=<NumberOfSuppliments &le; 1.5<br/>gini = 0.488<br/>samples = 26<br/>value = [15, 11]<br/>class = Fraud>, fillcolor="#e5813944"] ;
283 -> 284 ;
285 [label=<Sex &le; 1.5<br/>gini = 0.375<br/>samples = 12<br/>value = [9, 3]<br/>class = Fraud>, fillcolor="#e58139aa"] ;
284 -> 285 ;
286 [label=<DriverRating &le; 3.5<br/>gini = 0.18<br/>samples = 10<br/>value = [9, 1]<br/>class = Fraud>, fillcolor="#e58139e3"] ;
285 -> 286 ;
287 [label=<gini = 0.0<br/>samples = 7<br/>value = [7, 0]<br/>class = Fraud>, fillcolor="#e58139ff"] ;
286 -> 287 ;
288 [label=<daysDiff &le; 7.5<br/>gini = 0.444<br/>samples = 3<br/>value = [2, 1]<br/>class = Fraud>, fillcolor="#e581397f"] ;
286 -> 288 ;
289 [label=<gini = 0.0<br/>samples = 2<br/>value = [2, 0]<br/>class = Fraud>, fillcolor="#e58139ff"] ;
288 -> 289 ;
290 [label=<gini = 0.0<br/>samples = 1<br/>value = [0, 1]<br/>class = Non-Fraud>, fillcolor="#399de5ff"] ;
288 -> 290 ;
291 [label=<gini = 0.0<br/>samples = 2<br/>value = [0, 2]<br/>class = Non-Fraud>, fillcolor="#399de5ff"] ;
285 -> 291 ;
292 [label=<Make &le; 2.5<br/>gini = 0.49<br/>samples = 14<br/>value = [6, 8]<br/>class = Non-Fraud>, fillcolor="#399de540"] ;
284 -> 292 ;
293 [label=<AgeOfVehicle &le; 2.0<br/>gini = 0.245<br/>samples = 7<br/>value = [1, 6]<br/>class = Non-Fraud>, fillcolor="#399de5d4"] ;
292 -> 293 ;
294 [label=<NumberOfSuppliments &le; 2.5<br/>gini = 0.444<br/>samples = 3<br/>value = [1, 2]<br/>class = Non-Fraud>, fillcolor="#399de57f"] ;
293 -> 294 ;
295 [label=<gini = 0.0<br/>samples = 1<br/>value = [0, 1]<br/>class = Non-Fraud>, fillcolor="#399de5ff"] ;
294 -> 295 ;
296 [label=<DriverRating &le; 2.0<br/>gini = 0.5<br/>samples = 2<br/>value = [1, 1]<br/>class = Fraud>, fillcolor="#e5813900"] ;
294 -> 296 ;
297 [label=<gini = 0.0<br/>samples = 1<br/>value = [1, 0]<br/>class = Fraud>, fillcolor="#e58139ff"] ;
296 -> 297 ;
298 [label=<gini = 0.0<br/>samples = 1<br/>value = [0, 1]<br/>class = Non-Fraud>, fillcolor="#399de5ff"] ;
296 -> 298 ;
299 [label=<gini = 0.0<br/>samples = 4<br/>value = [0, 4]<br/>class = Non-Fraud>, fillcolor="#399de5ff"] ;
293 -> 299 ;
300 [label=<NumberOfSuppliments &le; 2.5<br/>gini = 0.408<br/>samples = 7<br/>value = [5, 2]<br/>class = Fraud>, fillcolor="#e5813999"] ;
292 -> 300 ;
301 [label=<gini = 0.0<br/>samples = 2<br/>value = [0, 2]<br/>class = Non-Fraud>, fillcolor="#399de5ff"] ;
300 -> 301 ;
302 [label=<gini = 0.0<br/>samples = 5<br/>value = [5, 0]<br/>class = Fraud>, fillcolor="#e58139ff"] ;
300 -> 302 ;
303 [label=<gini = 0.0<br/>samples = 12<br/>value = [12, 0]<br/>class = Fraud>, fillcolor="#e58139ff"] ;
283 -> 303 ;
304 [label=<Age &le; 27.5<br/>gini = 0.105<br/>samples = 18<br/>value = [17, 1]<br/>class = Fraud>, fillcolor="#e58139f0"] ;
282 -> 304 ;
305 [label=<gini = 0.0<br/>samples = 14<br/>value = [14, 0]<br/>class = Fraud>, fillcolor="#e58139ff"] ;
304 -> 305 ;
306 [label=<daysDiff &le; 10.5<br/>gini = 0.375<br/>samples = 4<br/>value = [3, 1]<br/>class = Fraud>, fillcolor="#e58139aa"] ;
304 -> 306 ;
307 [label=<gini = 0.0<br/>samples = 3<br/>value = [3, 0]<br/>class = Fraud>, fillcolor="#e58139ff"] ;
306 -> 307 ;
308 [label=<gini = 0.0<br/>samples = 1<br/>value = [0, 1]<br/>class = Non-Fraud>, fillcolor="#399de5ff"] ;
306 -> 308 ;
309 [label=<gini = 0.0<br/>samples = 1<br/>value = [0, 1]<br/>class = Non-Fraud>, fillcolor="#399de5ff"] ;
281 -> 309 ;
310 [label=<gini = 0.0<br/>samples = 1<br/>value = [0, 1]<br/>class = Non-Fraud>, fillcolor="#399de5ff"] ;
280 -> 310 ;
311 [label=<gini = 0.0<br/>samples = 1<br/>value = [0, 1]<br/>class = Non-Fraud>, fillcolor="#399de5ff"] ;
279 -> 311 ;
312 [label=<NumberOfSuppliments &le; 1.5<br/>gini = 0.494<br/>samples = 9<br/>value = [4, 5]<br/>class = Non-Fraud>, fillcolor="#399de533"] ;
278 -> 312 ;
313 [label=<NumberOfCars &le; 1.5<br/>gini = 0.278<br/>samples = 6<br/>value = [1, 5]<br/>class = Non-Fraud>, fillcolor="#399de5cc"] ;
312 -> 313 ;
314 [label=<gini = 0.0<br/>samples = 5<br/>value = [0, 5]<br/>class = Non-Fraud>, fillcolor="#399de5ff"] ;
313 -> 314 ;
315 [label=<gini = 0.0<br/>samples = 1<br/>value = [1, 0]<br/>class = Fraud>, fillcolor="#e58139ff"] ;
313 -> 315 ;
316 [label=<gini = 0.0<br/>samples = 3<br/>value = [3, 0]<br/>class = Fraud>, fillcolor="#e58139ff"] ;
312 -> 316 ;
317 [label=<Age &le; 27.5<br/>gini = 0.048<br/>samples = 41<br/>value = [40, 1]<br/>class = Fraud>, fillcolor="#e58139f9"] ;
263 -> 317 ;
318 [label=<gini = 0.0<br/>samples = 31<br/>value = [31, 0]<br/>class = Fraud>, fillcolor="#e58139ff"] ;
317 -> 318 ;
319 [label=<Make &le; 2.0<br/>gini = 0.18<br/>samples = 10<br/>value = [9, 1]<br/>class = Fraud>, fillcolor="#e58139e3"] ;
317 -> 319 ;
320 [label=<NumberOfSuppliments &le; 2.0<br/>gini = 0.444<br/>samples = 3<br/>value = [2, 1]<br/>class = Fraud>, fillcolor="#e581397f"] ;
319 -> 320 ;
321 [label=<gini = 0.0<br/>samples = 1<br/>value = [0, 1]<br/>class = Non-Fraud>, fillcolor="#399de5ff"] ;
320 -> 321 ;
322 [label=<gini = 0.0<br/>samples = 2<br/>value = [2, 0]<br/>class = Fraud>, fillcolor="#e58139ff"] ;
320 -> 322 ;
323 [label=<gini = 0.0<br/>samples = 7<br/>value = [7, 0]<br/>class = Fraud>, fillcolor="#e58139ff"] ;
319 -> 323 ;
324 [label=<VehiclePrice &le; 1.5<br/>gini = 0.185<br/>samples = 639<br/>value = [573, 66]<br/>class = Fraud>, fillcolor="#e58139e2"] ;
262 -> 324 ;
325 [label=<daysDiff &le; 12.5<br/>gini = 0.157<br/>samples = 443<br/>value = [405, 38]<br/>class = Fraud>, fillcolor="#e58139e7"] ;
324 -> 325 ;
326 [label=<Sex &le; 1.5<br/>gini = 0.13<br/>samples = 371<br/>value = [345, 26]<br/>class = Fraud>, fillcolor="#e58139ec"] ;
325 -> 326 ;
327 [label=<MaritalStatus &le; 2.5<br/>gini = 0.157<br/>samples = 291<br/>value = [266, 25]<br/>class = Fraud>, fillcolor="#e58139e7"] ;
326 -> 327 ;
328 [label=<Age &le; 47.5<br/>gini = 0.152<br/>samples = 289<br/>value = [265, 24]<br/>class = Fraud>, fillcolor="#e58139e8"] ;
327 -> 328 ;
329 [label=<Age &le; 34.5<br/>gini = 0.181<br/>samples = 218<br/>value = [196, 22]<br/>class = Fraud>, fillcolor="#e58139e2"] ;
328 -> 329 ;
330 [label=<NumberOfSuppliments &le; 2.5<br/>gini = 0.104<br/>samples = 109<br/>value = [103, 6]<br/>class = Fraud>, fillcolor="#e58139f0"] ;
329 -> 330 ;
331 [label=<daysDiff &le; 10.5<br/>gini = 0.029<br/>samples = 68<br/>value = [67, 1]<br/>class = Fraud>, fillcolor="#e58139fb"] ;
330 -> 331 ;
332 [label=<gini = 0.0<br/>samples = 59<br/>value = [59, 0]<br/>class = Fraud>, fillcolor="#e58139ff"] ;
331 -> 332 ;
333 [label=<AccidentArea &le; 1.5<br/>gini = 0.198<br/>samples = 9<br/>value = [8, 1]<br/>class = Fraud>, fillcolor="#e58139df"] ;
331 -> 333 ;
334 [label=<gini = 0.0<br/>samples = 7<br/>value = [7, 0]<br/>class = Fraud>, fillcolor="#e58139ff"] ;
333 -> 334 ;
335 [label=<MaritalStatus &le; 1.5<br/>gini = 0.5<br/>samples = 2<br/>value = [1, 1]<br/>class = Fraud>, fillcolor="#e5813900"] ;
333 -> 335 ;
336 [label=<gini = 0.0<br/>samples = 1<br/>value = [0, 1]<br/>class = Non-Fraud>, fillcolor="#399de5ff"] ;
335 -> 336 ;
337 [label=<gini = 0.0<br/>samples = 1<br/>value = [1, 0]<br/>class = Fraud>, fillcolor="#e58139ff"] ;
335 -> 337 ;
338 [label=<AgeOfVehicle &le; 2.0<br/>gini = 0.214<br/>samples = 41<br/>value = [36, 5]<br/>class = Fraud>, fillcolor="#e58139dc"] ;
330 -> 338 ;
339 [label=<gini = 0.0<br/>samples = 15<br/>value = [15, 0]<br/>class = Fraud>, fillcolor="#e58139ff"] ;
338 -> 339 ;
340 [label=<AddressChange-Claim &le; 3.5<br/>gini = 0.311<br/>samples = 26<br/>value = [21, 5]<br/>class = Fraud>, fillcolor="#e58139c2"] ;
338 -> 340 ;
341 [label=<daysDiff &le; 11.5<br/>gini = 0.269<br/>samples = 25<br/>value = [21, 4]<br/>class = Fraud>, fillcolor="#e58139ce"] ;
340 -> 341 ;
342 [label=<NumberOfSuppliments &le; 3.5<br/>gini = 0.219<br/>samples = 24<br/>value = [21, 3]<br/>class = Fraud>, fillcolor="#e58139db"] ;
341 -> 342 ;
343 [label=<daysDiff &le; 5.0<br/>gini = 0.42<br/>samples = 10<br/>value = [7, 3]<br/>class = Fraud>, fillcolor="#e5813992"] ;
342 -> 343 ;
344 [label=<gini = 0.0<br/>samples = 2<br/>value = [0, 2]<br/>class = Non-Fraud>, fillcolor="#399de5ff"] ;
343 -> 344 ;
345 [label=<PastNumberOfClaims &le; 2.5<br/>gini = 0.219<br/>samples = 8<br/>value = [7, 1]<br/>class = Fraud>, fillcolor="#e58139db"] ;
343 -> 345 ;
346 [label=<gini = 0.0<br/>samples = 6<br/>value = [6, 0]<br/>class = Fraud>, fillcolor="#e58139ff"] ;
345 -> 346 ;
347 [label=<Make &le; 2.0<br/>gini = 0.5<br/>samples = 2<br/>value = [1, 1]<br/>class = Fraud>, fillcolor="#e5813900"] ;
345 -> 347 ;
348 [label=<gini = 0.0<br/>samples = 1<br/>value = [0, 1]<br/>class = Non-Fraud>, fillcolor="#399de5ff"] ;
347 -> 348 ;
349 [label=<gini = 0.0<br/>samples = 1<br/>value = [1, 0]<br/>class = Fraud>, fillcolor="#e58139ff"] ;
347 -> 349 ;
350 [label=<gini = 0.0<br/>samples = 14<br/>value = [14, 0]<br/>class = Fraud>, fillcolor="#e58139ff"] ;
342 -> 350 ;
351 [label=<gini = 0.0<br/>samples = 1<br/>value = [0, 1]<br/>class = Non-Fraud>, fillcolor="#399de5ff"] ;
341 -> 351 ;
352 [label=<gini = 0.0<br/>samples = 1<br/>value = [0, 1]<br/>class = Non-Fraud>, fillcolor="#399de5ff"] ;
340 -> 352 ;
353 [label=<DriverRating &le; 3.5<br/>gini = 0.25<br/>samples = 109<br/>value = [93, 16]<br/>class = Fraud>, fillcolor="#e58139d3"] ;
329 -> 353 ;
354 [label=<AgeOfVehicle &le; 1.5<br/>gini = 0.306<br/>samples = 85<br/>value = [69, 16]<br/>class = Fraud>, fillcolor="#e58139c4"] ;
353 -> 354 ;
355 [label=<DriverRating &le; 2.5<br/>gini = 0.206<br/>samples = 43<br/>value = [38, 5]<br/>class = Fraud>, fillcolor="#e58139dd"] ;
354 -> 355 ;
356 [label=<NumberOfSuppliments &le; 2.5<br/>gini = 0.271<br/>samples = 31<br/>value = [26, 5]<br/>class = Fraud>, fillcolor="#e58139ce"] ;
355 -> 356 ;
357 [label=<Age &le; 41.5<br/>gini = 0.18<br/>samples = 20<br/>value = [18, 2]<br/>class = Fraud>, fillcolor="#e58139e3"] ;
356 -> 357 ;
358 [label=<gini = 0.0<br/>samples = 13<br/>value = [13, 0]<br/>class = Fraud>, fillcolor="#e58139ff"] ;
357 -> 358 ;
359 [label=<Make &le; 1.5<br/>gini = 0.408<br/>samples = 7<br/>value = [5, 2]<br/>class = Fraud>, fillcolor="#e5813999"] ;
357 -> 359 ;
360 [label=<gini = 0.0<br/>samples = 1<br/>value = [0, 1]<br/>class = Non-Fraud>, fillcolor="#399de5ff"] ;
359 -> 360 ;
361 [label=<Age &le; 42.5<br/>gini = 0.278<br/>samples = 6<br/>value = [5, 1]<br/>class = Fraud>, fillcolor="#e58139cc"] ;
359 -> 361 ;
362 [label=<Make &le; 3.0<br/>gini = 0.5<br/>samples = 2<br/>value = [1, 1]<br/>class = Fraud>, fillcolor="#e5813900"] ;
361 -> 362 ;
363 [label=<gini = 0.0<br/>samples = 1<br/>value = [1, 0]<br/>class = Fraud>, fillcolor="#e58139ff"] ;
362 -> 363 ;
364 [label=<gini = 0.0<br/>samples = 1<br/>value = [0, 1]<br/>class = Non-Fraud>, fillcolor="#399de5ff"] ;
362 -> 364 ;
365 [label=<gini = 0.0<br/>samples = 4<br/>value = [4, 0]<br/>class = Fraud>, fillcolor="#e58139ff"] ;
361 -> 365 ;
366 [label=<Age &le; 38.5<br/>gini = 0.397<br/>samples = 11<br/>value = [8, 3]<br/>class = Fraud>, fillcolor="#e581399f"] ;
356 -> 366 ;
367 [label=<DriverRating &le; 1.5<br/>gini = 0.444<br/>samples = 3<br/>value = [1, 2]<br/>class = Non-Fraud>, fillcolor="#399de57f"] ;
366 -> 367 ;
368 [label=<gini = 0.0<br/>samples = 1<br/>value = [1, 0]<br/>class = Fraud>, fillcolor="#e58139ff"] ;
367 -> 368 ;
369 [label=<gini = 0.0<br/>samples = 2<br/>value = [0, 2]<br/>class = Non-Fraud>, fillcolor="#399de5ff"] ;
367 -> 369 ;
370 [label=<Make &le; 2.5<br/>gini = 0.219<br/>samples = 8<br/>value = [7, 1]<br/>class = Fraud>, fillcolor="#e58139db"] ;
366 -> 370 ;
371 [label=<gini = 0.0<br/>samples = 5<br/>value = [5, 0]<br/>class = Fraud>, fillcolor="#e58139ff"] ;
370 -> 371 ;
372 [label=<daysDiff &le; 9.0<br/>gini = 0.444<br/>samples = 3<br/>value = [2, 1]<br/>class = Fraud>, fillcolor="#e581397f"] ;
370 -> 372 ;
373 [label=<gini = 0.0<br/>samples = 2<br/>value = [2, 0]<br/>class = Fraud>, fillcolor="#e58139ff"] ;
372 -> 373 ;
374 [label=<gini = 0.0<br/>samples = 1<br/>value = [0, 1]<br/>class = Non-Fraud>, fillcolor="#399de5ff"] ;
372 -> 374 ;
375 [label=<gini = 0.0<br/>samples = 12<br/>value = [12, 0]<br/>class = Fraud>, fillcolor="#e58139ff"] ;
355 -> 375 ;
376 [label=<Make &le; 4.5<br/>gini = 0.387<br/>samples = 42<br/>value = [31, 11]<br/>class = Fraud>, fillcolor="#e58139a5"] ;
354 -> 376 ;
377 [label=<NumberOfCars &le; 1.5<br/>gini = 0.313<br/>samples = 36<br/>value = [29, 7]<br/>class = Fraud>, fillcolor="#e58139c1"] ;
376 -> 377 ;
378 [label=<daysDiff &le; 4.5<br/>gini = 0.251<br/>samples = 34<br/>value = [29, 5]<br/>class = Fraud>, fillcolor="#e58139d3"] ;
377 -> 378 ;
379 [label=<DriverRating &le; 2.5<br/>gini = 0.48<br/>samples = 5<br/>value = [3, 2]<br/>class = Fraud>, fillcolor="#e5813955"] ;
378 -> 379 ;
380 [label=<gini = 0.0<br/>samples = 3<br/>value = [3, 0]<br/>class = Fraud>, fillcolor="#e58139ff"] ;
379 -> 380 ;
381 [label=<gini = 0.0<br/>samples = 2<br/>value = [0, 2]<br/>class = Non-Fraud>, fillcolor="#399de5ff"] ;
379 -> 381 ;
382 [label=<Age &le; 43.5<br/>gini = 0.185<br/>samples = 29<br/>value = [26, 3]<br/>class = Fraud>, fillcolor="#e58139e2"] ;
378 -> 382 ;
383 [label=<AgeOfVehicle &le; 3.5<br/>gini = 0.091<br/>samples = 21<br/>value = [20, 1]<br/>class = Fraud>, fillcolor="#e58139f2"] ;
382 -> 383 ;
384 [label=<gini = 0.0<br/>samples = 16<br/>value = [16, 0]<br/>class = Fraud>, fillcolor="#e58139ff"] ;
383 -> 384 ;
385 [label=<daysDiff &le; 8.5<br/>gini = 0.32<br/>samples = 5<br/>value = [4, 1]<br/>class = Fraud>, fillcolor="#e58139bf"] ;
383 -> 385 ;
386 [label=<gini = 0.0<br/>samples = 3<br/>value = [3, 0]<br/>class = Fraud>, fillcolor="#e58139ff"] ;
385 -> 386 ;
387 [label=<DriverRating &le; 2.5<br/>gini = 0.5<br/>samples = 2<br/>value = [1, 1]<br/>class = Fraud>, fillcolor="#e5813900"] ;
385 -> 387 ;
388 [label=<gini = 0.0<br/>samples = 1<br/>value = [0, 1]<br/>class = Non-Fraud>, fillcolor="#399de5ff"] ;
387 -> 388 ;
389 [label=<gini = 0.0<br/>samples = 1<br/>value = [1, 0]<br/>class = Fraud>, fillcolor="#e58139ff"] ;
387 -> 389 ;
390 [label=<NumberOfSuppliments &le; 3.5<br/>gini = 0.375<br/>samples = 8<br/>value = [6, 2]<br/>class = Fraud>, fillcolor="#e58139aa"] ;
382 -> 390 ;
391 [label=<DriverRating &le; 1.5<br/>gini = 0.245<br/>samples = 7<br/>value = [6, 1]<br/>class = Fraud>, fillcolor="#e58139d4"] ;
390 -> 391 ;
392 [label=<Make &le; 1.5<br/>gini = 0.5<br/>samples = 2<br/>value = [1, 1]<br/>class = Fraud>, fillcolor="#e5813900"] ;
391 -> 392 ;
393 [label=<gini = 0.0<br/>samples = 1<br/>value = [1, 0]<br/>class = Fraud>, fillcolor="#e58139ff"] ;
392 -> 393 ;
394 [label=<gini = 0.0<br/>samples = 1<br/>value = [0, 1]<br/>class = Non-Fraud>, fillcolor="#399de5ff"] ;
392 -> 394 ;
395 [label=<gini = 0.0<br/>samples = 5<br/>value = [5, 0]<br/>class = Fraud>, fillcolor="#e58139ff"] ;
391 -> 395 ;
396 [label=<gini = 0.0<br/>samples = 1<br/>value = [0, 1]<br/>class = Non-Fraud>, fillcolor="#399de5ff"] ;
390 -> 396 ;
397 [label=<gini = 0.0<br/>samples = 2<br/>value = [0, 2]<br/>class = Non-Fraud>, fillcolor="#399de5ff"] ;
377 -> 397 ;
398 [label=<Make &le; 10.5<br/>gini = 0.444<br/>samples = 6<br/>value = [2, 4]<br/>class = Non-Fraud>, fillcolor="#399de57f"] ;
376 -> 398 ;
399 [label=<Age &le; 36.0<br/>gini = 0.32<br/>samples = 5<br/>value = [1, 4]<br/>class = Non-Fraud>, fillcolor="#399de5bf"] ;
398 -> 399 ;
400 [label=<gini = 0.5<br/>samples = 2<br/>value = [1, 1]<br/>class = Fraud>, fillcolor="#e5813900"] ;
399 -> 400 ;
401 [label=<gini = 0.0<br/>samples = 3<br/>value = [0, 3]<br/>class = Non-Fraud>, fillcolor="#399de5ff"] ;
399 -> 401 ;
402 [label=<gini = 0.0<br/>samples = 1<br/>value = [1, 0]<br/>class = Fraud>, fillcolor="#e58139ff"] ;
398 -> 402 ;
403 [label=<gini = 0.0<br/>samples = 24<br/>value = [24, 0]<br/>class = Fraud>, fillcolor="#e58139ff"] ;
353 -> 403 ;
404 [label=<daysDiff &le; 11.5<br/>gini = 0.055<br/>samples = 71<br/>value = [69, 2]<br/>class = Fraud>, fillcolor="#e58139f8"] ;
328 -> 404 ;
405 [label=<Make &le; 3.5<br/>gini = 0.029<br/>samples = 69<br/>value = [68, 1]<br/>class = Fraud>, fillcolor="#e58139fb"] ;
404 -> 405 ;
406 [label=<gini = 0.0<br/>samples = 52<br/>value = [52, 0]<br/>class = Fraud>, fillcolor="#e58139ff"] ;
405 -> 406 ;
407 [label=<Age &le; 58.5<br/>gini = 0.111<br/>samples = 17<br/>value = [16, 1]<br/>class = Fraud>, fillcolor="#e58139ef"] ;
405 -> 407 ;
408 [label=<gini = 0.0<br/>samples = 13<br/>value = [13, 0]<br/>class = Fraud>, fillcolor="#e58139ff"] ;
407 -> 408 ;
409 [label=<DriverRating &le; 3.5<br/>gini = 0.375<br/>samples = 4<br/>value = [3, 1]<br/>class = Fraud>, fillcolor="#e58139aa"] ;
407 -> 409 ;
410 [label=<gini = 0.0<br/>samples = 3<br/>value = [3, 0]<br/>class = Fraud>, fillcolor="#e58139ff"] ;
409 -> 410 ;
411 [label=<gini = 0.0<br/>samples = 1<br/>value = [0, 1]<br/>class = Non-Fraud>, fillcolor="#399de5ff"] ;
409 -> 411 ;
412 [label=<AddressChange-Claim &le; 2.0<br/>gini = 0.5<br/>samples = 2<br/>value = [1, 1]<br/>class = Fraud>, fillcolor="#e5813900"] ;
404 -> 412 ;
413 [label=<gini = 0.0<br/>samples = 1<br/>value = [1, 0]<br/>class = Fraud>, fillcolor="#e58139ff"] ;
412 -> 413 ;
414 [label=<gini = 0.0<br/>samples = 1<br/>value = [0, 1]<br/>class = Non-Fraud>, fillcolor="#399de5ff"] ;
412 -> 414 ;
415 [label=<Make &le; 2.5<br/>gini = 0.5<br/>samples = 2<br/>value = [1, 1]<br/>class = Fraud>, fillcolor="#e5813900"] ;
327 -> 415 ;
416 [label=<gini = 0.0<br/>samples = 1<br/>value = [0, 1]<br/>class = Non-Fraud>, fillcolor="#399de5ff"] ;
415 -> 416 ;
417 [label=<gini = 0.0<br/>samples = 1<br/>value = [1, 0]<br/>class = Fraud>, fillcolor="#e58139ff"] ;
415 -> 417 ;
418 [label=<AccidentArea &le; 1.5<br/>gini = 0.025<br/>samples = 80<br/>value = [79, 1]<br/>class = Fraud>, fillcolor="#e58139fc"] ;
326 -> 418 ;
419 [label=<gini = 0.0<br/>samples = 72<br/>value = [72, 0]<br/>class = Fraud>, fillcolor="#e58139ff"] ;
418 -> 419 ;
420 [label=<NumberOfSuppliments &le; 2.5<br/>gini = 0.219<br/>samples = 8<br/>value = [7, 1]<br/>class = Fraud>, fillcolor="#e58139db"] ;
418 -> 420 ;
421 [label=<gini = 0.0<br/>samples = 7<br/>value = [7, 0]<br/>class = Fraud>, fillcolor="#e58139ff"] ;
420 -> 421 ;
422 [label=<gini = 0.0<br/>samples = 1<br/>value = [0, 1]<br/>class = Non-Fraud>, fillcolor="#399de5ff"] ;
420 -> 422 ;
423 [label=<AgeOfVehicle &le; 1.5<br/>gini = 0.278<br/>samples = 72<br/>value = [60, 12]<br/>class = Fraud>, fillcolor="#e58139cc"] ;
325 -> 423 ;
424 [label=<Sex &le; 1.5<br/>gini = 0.408<br/>samples = 28<br/>value = [20, 8]<br/>class = Fraud>, fillcolor="#e5813999"] ;
423 -> 424 ;
425 [label=<DriverRating &le; 1.5<br/>gini = 0.298<br/>samples = 22<br/>value = [18, 4]<br/>class = Fraud>, fillcolor="#e58139c6"] ;
424 -> 425 ;
426 [label=<NumberOfSuppliments &le; 1.5<br/>gini = 0.469<br/>samples = 8<br/>value = [5, 3]<br/>class = Fraud>, fillcolor="#e5813966"] ;
425 -> 426 ;
427 [label=<gini = 0.0<br/>samples = 1<br/>value = [0, 1]<br/>class = Non-Fraud>, fillcolor="#399de5ff"] ;
426 -> 427 ;
428 [label=<NumberOfSuppliments &le; 2.5<br/>gini = 0.408<br/>samples = 7<br/>value = [5, 2]<br/>class = Fraud>, fillcolor="#e5813999"] ;
426 -> 428 ;
429 [label=<gini = 0.0<br/>samples = 4<br/>value = [4, 0]<br/>class = Fraud>, fillcolor="#e58139ff"] ;
428 -> 429 ;
430 [label=<Make &le; 3.0<br/>gini = 0.444<br/>samples = 3<br/>value = [1, 2]<br/>class = Non-Fraud>, fillcolor="#399de57f"] ;
428 -> 430 ;
431 [label=<gini = 0.0<br/>samples = 2<br/>value = [0, 2]<br/>class = Non-Fraud>, fillcolor="#399de5ff"] ;
430 -> 431 ;
432 [label=<gini = 0.0<br/>samples = 1<br/>value = [1, 0]<br/>class = Fraud>, fillcolor="#e58139ff"] ;
430 -> 432 ;
433 [label=<AccidentArea &le; 1.5<br/>gini = 0.133<br/>samples = 14<br/>value = [13, 1]<br/>class = Fraud>, fillcolor="#e58139eb"] ;
425 -> 433 ;
434 [label=<gini = 0.0<br/>samples = 11<br/>value = [11, 0]<br/>class = Fraud>, fillcolor="#e58139ff"] ;
433 -> 434 ;
435 [label=<Age &le; 36.5<br/>gini = 0.444<br/>samples = 3<br/>value = [2, 1]<br/>class = Fraud>, fillcolor="#e581397f"] ;
433 -> 435 ;
436 [label=<gini = 0.0<br/>samples = 1<br/>value = [0, 1]<br/>class = Non-Fraud>, fillcolor="#399de5ff"] ;
435 -> 436 ;
437 [label=<gini = 0.0<br/>samples = 2<br/>value = [2, 0]<br/>class = Fraud>, fillcolor="#e58139ff"] ;
435 -> 437 ;
438 [label=<Age &le; 35.5<br/>gini = 0.444<br/>samples = 6<br/>value = [2, 4]<br/>class = Non-Fraud>, fillcolor="#399de57f"] ;
424 -> 438 ;
439 [label=<NumberOfSuppliments &le; 1.5<br/>gini = 0.444<br/>samples = 3<br/>value = [2, 1]<br/>class = Fraud>, fillcolor="#e581397f"] ;
438 -> 439 ;
440 [label=<gini = 0.0<br/>samples = 2<br/>value = [2, 0]<br/>class = Fraud>, fillcolor="#e58139ff"] ;
439 -> 440 ;
441 [label=<gini = 0.0<br/>samples = 1<br/>value = [0, 1]<br/>class = Non-Fraud>, fillcolor="#399de5ff"] ;
439 -> 441 ;
442 [label=<gini = 0.0<br/>samples = 3<br/>value = [0, 3]<br/>class = Non-Fraud>, fillcolor="#399de5ff"] ;
438 -> 442 ;
443 [label=<daysDiff &le; 14.5<br/>gini = 0.165<br/>samples = 44<br/>value = [40, 4]<br/>class = Fraud>, fillcolor="#e58139e6"] ;
423 -> 443 ;
444 [label=<gini = 0.0<br/>samples = 22<br/>value = [22, 0]<br/>class = Fraud>, fillcolor="#e58139ff"] ;
443 -> 444 ;
445 [label=<Days:Policy-Accident &le; 2.0<br/>gini = 0.298<br/>samples = 22<br/>value = [18, 4]<br/>class = Fraud>, fillcolor="#e58139c6"] ;
443 -> 445 ;
446 [label=<MaritalStatus &le; 1.5<br/>gini = 0.245<br/>samples = 21<br/>value = [18, 3]<br/>class = Fraud>, fillcolor="#e58139d4"] ;
445 -> 446 ;
447 [label=<gini = 0.0<br/>samples = 11<br/>value = [11, 0]<br/>class = Fraud>, fillcolor="#e58139ff"] ;
446 -> 447 ;
448 [label=<AgeOfVehicle &le; 3.5<br/>gini = 0.42<br/>samples = 10<br/>value = [7, 3]<br/>class = Fraud>, fillcolor="#e5813992"] ;
446 -> 448 ;
449 [label=<Make &le; 5.5<br/>gini = 0.245<br/>samples = 7<br/>value = [6, 1]<br/>class = Fraud>, fillcolor="#e58139d4"] ;
448 -> 449 ;
450 [label=<gini = 0.0<br/>samples = 6<br/>value = [6, 0]<br/>class = Fraud>, fillcolor="#e58139ff"] ;
449 -> 450 ;
451 [label=<gini = 0.0<br/>samples = 1<br/>value = [0, 1]<br/>class = Non-Fraud>, fillcolor="#399de5ff"] ;
449 -> 451 ;
452 [label=<Make &le; 4.0<br/>gini = 0.444<br/>samples = 3<br/>value = [1, 2]<br/>class = Non-Fraud>, fillcolor="#399de57f"] ;
448 -> 452 ;
453 [label=<gini = 0.0<br/>samples = 2<br/>value = [0, 2]<br/>class = Non-Fraud>, fillcolor="#399de5ff"] ;
452 -> 453 ;
454 [label=<gini = 0.0<br/>samples = 1<br/>value = [1, 0]<br/>class = Fraud>, fillcolor="#e58139ff"] ;
452 -> 454 ;
455 [label=<gini = 0.0<br/>samples = 1<br/>value = [0, 1]<br/>class = Non-Fraud>, fillcolor="#399de5ff"] ;
445 -> 455 ;
456 [label=<PastNumberOfClaims &le; 1.5<br/>gini = 0.245<br/>samples = 196<br/>value = [168, 28]<br/>class = Fraud>, fillcolor="#e58139d4"] ;
324 -> 456 ;
457 [label=<MaritalStatus &le; 1.5<br/>gini = 0.343<br/>samples = 82<br/>value = [64, 18]<br/>class = Fraud>, fillcolor="#e58139b7"] ;
456 -> 457 ;
458 [label=<Age &le; 35.5<br/>gini = 0.386<br/>samples = 65<br/>value = [48, 17]<br/>class = Fraud>, fillcolor="#e58139a5"] ;
457 -> 458 ;
459 [label=<DriverRating &le; 3.5<br/>gini = 0.49<br/>samples = 21<br/>value = [12, 9]<br/>class = Fraud>, fillcolor="#e5813940"] ;
458 -> 459 ;
460 [label=<Make &le; 7.0<br/>gini = 0.465<br/>samples = 19<br/>value = [12, 7]<br/>class = Fraud>, fillcolor="#e581396a"] ;
459 -> 460 ;
461 [label=<Make &le; 1.5<br/>gini = 0.492<br/>samples = 16<br/>value = [9, 7]<br/>class = Fraud>, fillcolor="#e5813939"] ;
460 -> 461 ;
462 [label=<AccidentArea &le; 1.5<br/>gini = 0.375<br/>samples = 8<br/>value = [6, 2]<br/>class = Fraud>, fillcolor="#e58139aa"] ;
461 -> 462 ;
463 [label=<gini = 0.0<br/>samples = 5<br/>value = [5, 0]<br/>class = Fraud>, fillcolor="#e58139ff"] ;
462 -> 463 ;
464 [label=<DriverRating &le; 1.5<br/>gini = 0.444<br/>samples = 3<br/>value = [1, 2]<br/>class = Non-Fraud>, fillcolor="#399de57f"] ;
462 -> 464 ;
465 [label=<gini = 0.0<br/>samples = 1<br/>value = [1, 0]<br/>class = Fraud>, fillcolor="#e58139ff"] ;
464 -> 465 ;
466 [label=<gini = 0.0<br/>samples = 2<br/>value = [0, 2]<br/>class = Non-Fraud>, fillcolor="#399de5ff"] ;
464 -> 466 ;
467 [label=<NumberOfSuppliments &le; 2.5<br/>gini = 0.469<br/>samples = 8<br/>value = [3, 5]<br/>class = Non-Fraud>, fillcolor="#399de566"] ;
461 -> 467 ;
468 [label=<Age &le; 29.5<br/>gini = 0.278<br/>samples = 6<br/>value = [1, 5]<br/>class = Non-Fraud>, fillcolor="#399de5cc"] ;
467 -> 468 ;
469 [label=<gini = 0.0<br/>samples = 1<br/>value = [1, 0]<br/>class = Fraud>, fillcolor="#e58139ff"] ;
468 -> 469 ;
470 [label=<gini = 0.0<br/>samples = 5<br/>value = [0, 5]<br/>class = Non-Fraud>, fillcolor="#399de5ff"] ;
468 -> 470 ;
471 [label=<gini = 0.0<br/>samples = 2<br/>value = [2, 0]<br/>class = Fraud>, fillcolor="#e58139ff"] ;
467 -> 471 ;
472 [label=<gini = 0.0<br/>samples = 3<br/>value = [3, 0]<br/>class = Fraud>, fillcolor="#e58139ff"] ;
460 -> 472 ;
473 [label=<gini = 0.0<br/>samples = 2<br/>value = [0, 2]<br/>class = Non-Fraud>, fillcolor="#399de5ff"] ;
459 -> 473 ;
474 [label=<Age &le; 39.5<br/>gini = 0.298<br/>samples = 44<br/>value = [36, 8]<br/>class = Fraud>, fillcolor="#e58139c6"] ;
458 -> 474 ;
475 [label=<gini = 0.0<br/>samples = 11<br/>value = [11, 0]<br/>class = Fraud>, fillcolor="#e58139ff"] ;
474 -> 475 ;
476 [label=<Make &le; 10.0<br/>gini = 0.367<br/>samples = 33<br/>value = [25, 8]<br/>class = Fraud>, fillcolor="#e58139ad"] ;
474 -> 476 ;
477 [label=<Age &le; 59.5<br/>gini = 0.342<br/>samples = 32<br/>value = [25, 7]<br/>class = Fraud>, fillcolor="#e58139b8"] ;
476 -> 477 ;
478 [label=<Age &le; 50.5<br/>gini = 0.384<br/>samples = 27<br/>value = [20, 7]<br/>class = Fraud>, fillcolor="#e58139a6"] ;
477 -> 478 ;
479 [label=<AgeOfVehicle &le; 2.5<br/>gini = 0.266<br/>samples = 19<br/>value = [16, 3]<br/>class = Fraud>, fillcolor="#e58139cf"] ;
478 -> 479 ;
480 [label=<DriverRating &le; 1.5<br/>gini = 0.133<br/>samples = 14<br/>value = [13, 1]<br/>class = Fraud>, fillcolor="#e58139eb"] ;
479 -> 480 ;
481 [label=<Make &le; 2.0<br/>gini = 0.444<br/>samples = 3<br/>value = [2, 1]<br/>class = Fraud>, fillcolor="#e581397f"] ;
480 -> 481 ;
482 [label=<gini = 0.0<br/>samples = 2<br/>value = [2, 0]<br/>class = Fraud>, fillcolor="#e58139ff"] ;
481 -> 482 ;
483 [label=<gini = 0.0<br/>samples = 1<br/>value = [0, 1]<br/>class = Non-Fraud>, fillcolor="#399de5ff"] ;
481 -> 483 ;
484 [label=<gini = 0.0<br/>samples = 11<br/>value = [11, 0]<br/>class = Fraud>, fillcolor="#e58139ff"] ;
480 -> 484 ;
485 [label=<daysDiff &le; 9.0<br/>gini = 0.48<br/>samples = 5<br/>value = [3, 2]<br/>class = Fraud>, fillcolor="#e5813955"] ;
479 -> 485 ;
486 [label=<gini = 0.0<br/>samples = 3<br/>value = [3, 0]<br/>class = Fraud>, fillcolor="#e58139ff"] ;
485 -> 486 ;
487 [label=<gini = 0.0<br/>samples = 2<br/>value = [0, 2]<br/>class = Non-Fraud>, fillcolor="#399de5ff"] ;
485 -> 487 ;
488 [label=<AgeOfVehicle &le; 1.5<br/>gini = 0.5<br/>samples = 8<br/>value = [4, 4]<br/>class = Fraud>, fillcolor="#e5813900"] ;
478 -> 488 ;
489 [label=<gini = 0.0<br/>samples = 2<br/>value = [2, 0]<br/>class = Fraud>, fillcolor="#e58139ff"] ;
488 -> 489 ;
490 [label=<Age &le; 54.0<br/>gini = 0.444<br/>samples = 6<br/>value = [2, 4]<br/>class = Non-Fraud>, fillcolor="#399de57f"] ;
488 -> 490 ;
491 [label=<gini = 0.0<br/>samples = 3<br/>value = [0, 3]<br/>class = Non-Fraud>, fillcolor="#399de5ff"] ;
490 -> 491 ;
492 [label=<Age &le; 57.0<br/>gini = 0.444<br/>samples = 3<br/>value = [2, 1]<br/>class = Fraud>, fillcolor="#e581397f"] ;
490 -> 492 ;
493 [label=<gini = 0.0<br/>samples = 2<br/>value = [2, 0]<br/>class = Fraud>, fillcolor="#e58139ff"] ;
492 -> 493 ;
494 [label=<gini = 0.0<br/>samples = 1<br/>value = [0, 1]<br/>class = Non-Fraud>, fillcolor="#399de5ff"] ;
492 -> 494 ;
495 [label=<gini = 0.0<br/>samples = 5<br/>value = [5, 0]<br/>class = Fraud>, fillcolor="#e58139ff"] ;
477 -> 495 ;
496 [label=<gini = 0.0<br/>samples = 1<br/>value = [0, 1]<br/>class = Non-Fraud>, fillcolor="#399de5ff"] ;
476 -> 496 ;
497 [label=<Deductible &le; 550.0<br/>gini = 0.111<br/>samples = 17<br/>value = [16, 1]<br/>class = Fraud>, fillcolor="#e58139ef"] ;
457 -> 497 ;
498 [label=<gini = 0.0<br/>samples = 16<br/>value = [16, 0]<br/>class = Fraud>, fillcolor="#e58139ff"] ;
497 -> 498 ;
499 [label=<gini = 0.0<br/>samples = 1<br/>value = [0, 1]<br/>class = Non-Fraud>, fillcolor="#399de5ff"] ;
497 -> 499 ;
500 [label=<NumberOfSuppliments &le; 1.5<br/>gini = 0.16<br/>samples = 114<br/>value = [104, 10]<br/>class = Fraud>, fillcolor="#e58139e6"] ;
456 -> 500 ;
501 [label=<PastNumberOfClaims &le; 2.5<br/>gini = 0.256<br/>samples = 53<br/>value = [45, 8]<br/>class = Fraud>, fillcolor="#e58139d2"] ;
500 -> 501 ;
502 [label=<Deductible &le; 600.0<br/>gini = 0.108<br/>samples = 35<br/>value = [33, 2]<br/>class = Fraud>, fillcolor="#e58139f0"] ;
501 -> 502 ;
503 [label=<daysDiff &le; 4.5<br/>gini = 0.059<br/>samples = 33<br/>value = [32, 1]<br/>class = Fraud>, fillcolor="#e58139f7"] ;
502 -> 503 ;
504 [label=<Age &le; 40.5<br/>gini = 0.32<br/>samples = 5<br/>value = [4, 1]<br/>class = Fraud>, fillcolor="#e58139bf"] ;
503 -> 504 ;
505 [label=<AgeOfVehicle &le; 2.0<br/>gini = 0.5<br/>samples = 2<br/>value = [1, 1]<br/>class = Fraud>, fillcolor="#e5813900"] ;
504 -> 505 ;
506 [label=<gini = 0.0<br/>samples = 1<br/>value = [0, 1]<br/>class = Non-Fraud>, fillcolor="#399de5ff"] ;
505 -> 506 ;
507 [label=<gini = 0.0<br/>samples = 1<br/>value = [1, 0]<br/>class = Fraud>, fillcolor="#e58139ff"] ;
505 -> 507 ;
508 [label=<gini = 0.0<br/>samples = 3<br/>value = [3, 0]<br/>class = Fraud>, fillcolor="#e58139ff"] ;
504 -> 508 ;
509 [label=<gini = 0.0<br/>samples = 28<br/>value = [28, 0]<br/>class = Fraud>, fillcolor="#e58139ff"] ;
503 -> 509 ;
510 [label=<daysDiff &le; 11.5<br/>gini = 0.5<br/>samples = 2<br/>value = [1, 1]<br/>class = Fraud>, fillcolor="#e5813900"] ;
502 -> 510 ;
511 [label=<gini = 0.0<br/>samples = 1<br/>value = [0, 1]<br/>class = Non-Fraud>, fillcolor="#399de5ff"] ;
510 -> 511 ;
512 [label=<gini = 0.0<br/>samples = 1<br/>value = [1, 0]<br/>class = Fraud>, fillcolor="#e58139ff"] ;
510 -> 512 ;
513 [label=<AccidentArea &le; 1.5<br/>gini = 0.444<br/>samples = 18<br/>value = [12, 6]<br/>class = Fraud>, fillcolor="#e581397f"] ;
501 -> 513 ;
514 [label=<daysDiff &le; 10.0<br/>gini = 0.337<br/>samples = 14<br/>value = [11, 3]<br/>class = Fraud>, fillcolor="#e58139b9"] ;
513 -> 514 ;
515 [label=<Make &le; 4.5<br/>gini = 0.18<br/>samples = 10<br/>value = [9, 1]<br/>class = Fraud>, fillcolor="#e58139e3"] ;
514 -> 515 ;
516 [label=<gini = 0.0<br/>samples = 9<br/>value = [9, 0]<br/>class = Fraud>, fillcolor="#e58139ff"] ;
515 -> 516 ;
517 [label=<gini = 0.0<br/>samples = 1<br/>value = [0, 1]<br/>class = Non-Fraud>, fillcolor="#399de5ff"] ;
515 -> 517 ;
518 [label=<DriverRating &le; 2.0<br/>gini = 0.5<br/>samples = 4<br/>value = [2, 2]<br/>class = Fraud>, fillcolor="#e5813900"] ;
514 -> 518 ;
519 [label=<gini = 0.0<br/>samples = 2<br/>value = [2, 0]<br/>class = Fraud>, fillcolor="#e58139ff"] ;
518 -> 519 ;
520 [label=<gini = 0.0<br/>samples = 2<br/>value = [0, 2]<br/>class = Non-Fraud>, fillcolor="#399de5ff"] ;
518 -> 520 ;
521 [label=<Make &le; 6.5<br/>gini = 0.375<br/>samples = 4<br/>value = [1, 3]<br/>class = Non-Fraud>, fillcolor="#399de5aa"] ;
513 -> 521 ;
522 [label=<gini = 0.0<br/>samples = 3<br/>value = [0, 3]<br/>class = Non-Fraud>, fillcolor="#399de5ff"] ;
521 -> 522 ;
523 [label=<gini = 0.0<br/>samples = 1<br/>value = [1, 0]<br/>class = Fraud>, fillcolor="#e58139ff"] ;
521 -> 523 ;
524 [label=<AgeOfVehicle &le; 1.5<br/>gini = 0.063<br/>samples = 61<br/>value = [59, 2]<br/>class = Fraud>, fillcolor="#e58139f6"] ;
500 -> 524 ;
525 [label=<DriverRating &le; 2.5<br/>gini = 0.133<br/>samples = 28<br/>value = [26, 2]<br/>class = Fraud>, fillcolor="#e58139eb"] ;
524 -> 525 ;
526 [label=<Make &le; 4.5<br/>gini = 0.278<br/>samples = 12<br/>value = [10, 2]<br/>class = Fraud>, fillcolor="#e58139cc"] ;
525 -> 526 ;
527 [label=<Age &le; 41.5<br/>gini = 0.5<br/>samples = 4<br/>value = [2, 2]<br/>class = Fraud>, fillcolor="#e5813900"] ;
526 -> 527 ;
528 [label=<gini = 0.0<br/>samples = 2<br/>value = [0, 2]<br/>class = Non-Fraud>, fillcolor="#399de5ff"] ;
527 -> 528 ;
529 [label=<gini = 0.0<br/>samples = 2<br/>value = [2, 0]<br/>class = Fraud>, fillcolor="#e58139ff"] ;
527 -> 529 ;
530 [label=<gini = 0.0<br/>samples = 8<br/>value = [8, 0]<br/>class = Fraud>, fillcolor="#e58139ff"] ;
526 -> 530 ;
531 [label=<gini = 0.0<br/>samples = 16<br/>value = [16, 0]<br/>class = Fraud>, fillcolor="#e58139ff"] ;
525 -> 531 ;
532 [label=<gini = 0.0<br/>samples = 33<br/>value = [33, 0]<br/>class = Fraud>, fillcolor="#e58139ff"] ;
524 -> 532 ;
533 [label=<daysDiff &le; 8.5<br/>gini = 0.32<br/>samples = 55<br/>value = [44, 11]<br/>class = Fraud>, fillcolor="#e58139bf"] ;
261 -> 533 ;
534 [label=<AgeOfVehicle &le; 1.5<br/>gini = 0.436<br/>samples = 28<br/>value = [19, 9]<br/>class = Fraud>, fillcolor="#e5813986"] ;
533 -> 534 ;
535 [label=<gini = 0.0<br/>samples = 9<br/>value = [9, 0]<br/>class = Fraud>, fillcolor="#e58139ff"] ;
534 -> 535 ;
536 [label=<daysDiff &le; 7.5<br/>gini = 0.499<br/>samples = 19<br/>value = [10, 9]<br/>class = Fraud>, fillcolor="#e5813919"] ;
534 -> 536 ;
537 [label=<Age &le; 41.0<br/>gini = 0.469<br/>samples = 16<br/>value = [10, 6]<br/>class = Fraud>, fillcolor="#e5813966"] ;
536 -> 537 ;
538 [label=<NumberOfCars &le; 1.5<br/>gini = 0.298<br/>samples = 11<br/>value = [9, 2]<br/>class = Fraud>, fillcolor="#e58139c6"] ;
537 -> 538 ;
539 [label=<AccidentArea &le; 1.5<br/>gini = 0.18<br/>samples = 10<br/>value = [9, 1]<br/>class = Fraud>, fillcolor="#e58139e3"] ;
538 -> 539 ;
540 [label=<gini = 0.0<br/>samples = 9<br/>value = [9, 0]<br/>class = Fraud>, fillcolor="#e58139ff"] ;
539 -> 540 ;
541 [label=<gini = 0.0<br/>samples = 1<br/>value = [0, 1]<br/>class = Non-Fraud>, fillcolor="#399de5ff"] ;
539 -> 541 ;
542 [label=<gini = 0.0<br/>samples = 1<br/>value = [0, 1]<br/>class = Non-Fraud>, fillcolor="#399de5ff"] ;
538 -> 542 ;
543 [label=<Make &le; 1.5<br/>gini = 0.32<br/>samples = 5<br/>value = [1, 4]<br/>class = Non-Fraud>, fillcolor="#399de5bf"] ;
537 -> 543 ;
544 [label=<Age &le; 60.5<br/>gini = 0.5<br/>samples = 2<br/>value = [1, 1]<br/>class = Fraud>, fillcolor="#e5813900"] ;
543 -> 544 ;
545 [label=<gini = 0.0<br/>samples = 1<br/>value = [0, 1]<br/>class = Non-Fraud>, fillcolor="#399de5ff"] ;
544 -> 545 ;
546 [label=<gini = 0.0<br/>samples = 1<br/>value = [1, 0]<br/>class = Fraud>, fillcolor="#e58139ff"] ;
544 -> 546 ;
547 [label=<gini = 0.0<br/>samples = 3<br/>value = [0, 3]<br/>class = Non-Fraud>, fillcolor="#399de5ff"] ;
543 -> 547 ;
548 [label=<gini = 0.0<br/>samples = 3<br/>value = [0, 3]<br/>class = Non-Fraud>, fillcolor="#399de5ff"] ;
536 -> 548 ;
549 [label=<Make &le; 1.5<br/>gini = 0.137<br/>samples = 27<br/>value = [25, 2]<br/>class = Fraud>, fillcolor="#e58139eb"] ;
533 -> 549 ;
550 [label=<DriverRating &le; 2.5<br/>gini = 0.298<br/>samples = 11<br/>value = [9, 2]<br/>class = Fraud>, fillcolor="#e58139c6"] ;
549 -> 550 ;
551 [label=<gini = 0.0<br/>samples = 6<br/>value = [6, 0]<br/>class = Fraud>, fillcolor="#e58139ff"] ;
550 -> 551 ;
552 [label=<Age &le; 38.5<br/>gini = 0.48<br/>samples = 5<br/>value = [3, 2]<br/>class = Fraud>, fillcolor="#e5813955"] ;
550 -> 552 ;
553 [label=<Age &le; 30.5<br/>gini = 0.444<br/>samples = 3<br/>value = [1, 2]<br/>class = Non-Fraud>, fillcolor="#399de57f"] ;
552 -> 553 ;
554 [label=<gini = 0.0<br/>samples = 1<br/>value = [1, 0]<br/>class = Fraud>, fillcolor="#e58139ff"] ;
553 -> 554 ;
555 [label=<gini = 0.0<br/>samples = 2<br/>value = [0, 2]<br/>class = Non-Fraud>, fillcolor="#399de5ff"] ;
553 -> 555 ;
556 [label=<gini = 0.0<br/>samples = 2<br/>value = [2, 0]<br/>class = Fraud>, fillcolor="#e58139ff"] ;
552 -> 556 ;
557 [label=<gini = 0.0<br/>samples = 16<br/>value = [16, 0]<br/>class = Fraud>, fillcolor="#e58139ff"] ;
549 -> 557 ;
558 [label=<AgeOfVehicle &le; 3.5<br/>gini = 0.375<br/>samples = 24<br/>value = [18, 6]<br/>class = Fraud>, fillcolor="#e58139aa"] ;
260 -> 558 ;
559 [label=<daysDiff &le; 4.5<br/>gini = 0.308<br/>samples = 21<br/>value = [17, 4]<br/>class = Fraud>, fillcolor="#e58139c3"] ;
558 -> 559 ;
560 [label=<VehiclePrice &le; 1.5<br/>gini = 0.444<br/>samples = 3<br/>value = [1, 2]<br/>class = Non-Fraud>, fillcolor="#399de57f"] ;
559 -> 560 ;
561 [label=<gini = 0.0<br/>samples = 2<br/>value = [0, 2]<br/>class = Non-Fraud>, fillcolor="#399de5ff"] ;
560 -> 561 ;
562 [label=<gini = 0.0<br/>samples = 1<br/>value = [1, 0]<br/>class = Fraud>, fillcolor="#e58139ff"] ;
560 -> 562 ;
563 [label=<Make &le; 9.5<br/>gini = 0.198<br/>samples = 18<br/>value = [16, 2]<br/>class = Fraud>, fillcolor="#e58139df"] ;
559 -> 563 ;
564 [label=<Age &le; 63.5<br/>gini = 0.111<br/>samples = 17<br/>value = [16, 1]<br/>class = Fraud>, fillcolor="#e58139ef"] ;
563 -> 564 ;
565 [label=<gini = 0.0<br/>samples = 16<br/>value = [16, 0]<br/>class = Fraud>, fillcolor="#e58139ff"] ;
564 -> 565 ;
566 [label=<gini = 0.0<br/>samples = 1<br/>value = [0, 1]<br/>class = Non-Fraud>, fillcolor="#399de5ff"] ;
564 -> 566 ;
567 [label=<gini = 0.0<br/>samples = 1<br/>value = [0, 1]<br/>class = Non-Fraud>, fillcolor="#399de5ff"] ;
563 -> 567 ;
568 [label=<Age &le; 33.5<br/>gini = 0.444<br/>samples = 3<br/>value = [1, 2]<br/>class = Non-Fraud>, fillcolor="#399de57f"] ;
558 -> 568 ;
569 [label=<gini = 0.0<br/>samples = 2<br/>value = [0, 2]<br/>class = Non-Fraud>, fillcolor="#399de5ff"] ;
568 -> 569 ;
570 [label=<gini = 0.0<br/>samples = 1<br/>value = [1, 0]<br/>class = Fraud>, fillcolor="#e58139ff"] ;
568 -> 570 ;
571 [label=<MaritalStatus &le; 2.5<br/>gini = 0.444<br/>samples = 3<br/>value = [1, 2]<br/>class = Non-Fraud>, fillcolor="#399de57f"] ;
5 -> 571 ;
572 [label=<gini = 0.0<br/>samples = 2<br/>value = [0, 2]<br/>class = Non-Fraud>, fillcolor="#399de5ff"] ;
571 -> 572 ;
573 [label=<gini = 0.0<br/>samples = 1<br/>value = [1, 0]<br/>class = Fraud>, fillcolor="#e58139ff"] ;
571 -> 573 ;
574 [label=<daysDiff &le; 17.5<br/>gini = 0.118<br/>samples = 780<br/>value = [731, 49]<br/>class = Fraud>, fillcolor="#e58139ee"] ;
4 -> 574 ;
575 [label=<Deductible &le; 600.0<br/>gini = 0.06<br/>samples = 417<br/>value = [404, 13]<br/>class = Fraud>, fillcolor="#e58139f7"] ;
574 -> 575 ;
576 [label=<PoliceReportFiled &le; 1.5<br/>gini = 0.056<br/>samples = 413<br/>value = [401, 12]<br/>class = Fraud>, fillcolor="#e58139f7"] ;
575 -> 576 ;
577 [label=<Age &le; 49.5<br/>gini = 0.053<br/>samples = 405<br/>value = [394, 11]<br/>class = Fraud>, fillcolor="#e58139f8"] ;
576 -> 577 ;
578 [label=<Age &le; 48.5<br/>gini = 0.065<br/>samples = 325<br/>value = [314, 11]<br/>class = Fraud>, fillcolor="#e58139f6"] ;
577 -> 578 ;
579 [label=<Age &le; 30.5<br/>gini = 0.061<br/>samples = 320<br/>value = [310, 10]<br/>class = Fraud>, fillcolor="#e58139f7"] ;
578 -> 579 ;
580 [label=<Make &le; 3.5<br/>gini = 0.018<br/>samples = 108<br/>value = [107, 1]<br/>class = Fraud>, fillcolor="#e58139fd"] ;
579 -> 580 ;
581 [label=<gini = 0.0<br/>samples = 79<br/>value = [79, 0]<br/>class = Fraud>, fillcolor="#e58139ff"] ;
580 -> 581 ;
582 [label=<NumberOfSuppliments &le; 2.5<br/>gini = 0.067<br/>samples = 29<br/>value = [28, 1]<br/>class = Fraud>, fillcolor="#e58139f6"] ;
580 -> 582 ;
583 [label=<gini = 0.0<br/>samples = 23<br/>value = [23, 0]<br/>class = Fraud>, fillcolor="#e58139ff"] ;
582 -> 583 ;
584 [label=<AgeOfVehicle &le; 2.0<br/>gini = 0.278<br/>samples = 6<br/>value = [5, 1]<br/>class = Fraud>, fillcolor="#e58139cc"] ;
582 -> 584 ;
585 [label=<Age &le; 28.5<br/>gini = 0.5<br/>samples = 2<br/>value = [1, 1]<br/>class = Fraud>, fillcolor="#e5813900"] ;
584 -> 585 ;
586 [label=<gini = 0.0<br/>samples = 1<br/>value = [0, 1]<br/>class = Non-Fraud>, fillcolor="#399de5ff"] ;
585 -> 586 ;
587 [label=<gini = 0.0<br/>samples = 1<br/>value = [1, 0]<br/>class = Fraud>, fillcolor="#e58139ff"] ;
585 -> 587 ;
588 [label=<gini = 0.0<br/>samples = 4<br/>value = [4, 0]<br/>class = Fraud>, fillcolor="#e58139ff"] ;
584 -> 588 ;
589 [label=<PastNumberOfClaims &le; 2.5<br/>gini = 0.081<br/>samples = 212<br/>value = [203, 9]<br/>class = Fraud>, fillcolor="#e58139f4"] ;
579 -> 589 ;
590 [label=<NumberOfCars &le; 1.5<br/>gini = 0.054<br/>samples = 144<br/>value = [140, 4]<br/>class = Fraud>, fillcolor="#e58139f8"] ;
589 -> 590 ;
591 [label=<Make &le; 6.5<br/>gini = 0.043<br/>samples = 136<br/>value = [133, 3]<br/>class = Fraud>, fillcolor="#e58139f9"] ;
590 -> 591 ;
592 [label=<DriverRating &le; 2.5<br/>gini = 0.031<br/>samples = 127<br/>value = [125, 2]<br/>class = Fraud>, fillcolor="#e58139fb"] ;
591 -> 592 ;
593 [label=<gini = 0.0<br/>samples = 74<br/>value = [74, 0]<br/>class = Fraud>, fillcolor="#e58139ff"] ;
592 -> 593 ;
594 [label=<Make &le; 2.5<br/>gini = 0.073<br/>samples = 53<br/>value = [51, 2]<br/>class = Fraud>, fillcolor="#e58139f5"] ;
592 -> 594 ;
595 [label=<gini = 0.0<br/>samples = 31<br/>value = [31, 0]<br/>class = Fraud>, fillcolor="#e58139ff"] ;
594 -> 595 ;
596 [label=<DriverRating &le; 3.5<br/>gini = 0.165<br/>samples = 22<br/>value = [20, 2]<br/>class = Fraud>, fillcolor="#e58139e6"] ;
594 -> 596 ;
597 [label=<AgeOfVehicle &le; 1.5<br/>gini = 0.298<br/>samples = 11<br/>value = [9, 2]<br/>class = Fraud>, fillcolor="#e58139c6"] ;
596 -> 597 ;
598 [label=<gini = 0.0<br/>samples = 5<br/>value = [5, 0]<br/>class = Fraud>, fillcolor="#e58139ff"] ;
597 -> 598 ;
599 [label=<Age &le; 35.5<br/>gini = 0.444<br/>samples = 6<br/>value = [4, 2]<br/>class = Fraud>, fillcolor="#e581397f"] ;
597 -> 599 ;
600 [label=<gini = 0.0<br/>samples = 1<br/>value = [0, 1]<br/>class = Non-Fraud>, fillcolor="#399de5ff"] ;
599 -> 600 ;
601 [label=<Make &le; 3.5<br/>gini = 0.32<br/>samples = 5<br/>value = [4, 1]<br/>class = Fraud>, fillcolor="#e58139bf"] ;
599 -> 601 ;
602 [label=<gini = 0.0<br/>samples = 1<br/>value = [0, 1]<br/>class = Non-Fraud>, fillcolor="#399de5ff"] ;
601 -> 602 ;
603 [label=<gini = 0.0<br/>samples = 4<br/>value = [4, 0]<br/>class = Fraud>, fillcolor="#e58139ff"] ;
601 -> 603 ;
604 [label=<gini = 0.0<br/>samples = 11<br/>value = [11, 0]<br/>class = Fraud>, fillcolor="#e58139ff"] ;
596 -> 604 ;
605 [label=<DriverRating &le; 1.5<br/>gini = 0.198<br/>samples = 9<br/>value = [8, 1]<br/>class = Fraud>, fillcolor="#e58139df"] ;
591 -> 605 ;
606 [label=<Age &le; 41.0<br/>gini = 0.444<br/>samples = 3<br/>value = [2, 1]<br/>class = Fraud>, fillcolor="#e581397f"] ;
605 -> 606 ;
607 [label=<gini = 0.0<br/>samples = 2<br/>value = [2, 0]<br/>class = Fraud>, fillcolor="#e58139ff"] ;
606 -> 607 ;
608 [label=<gini = 0.0<br/>samples = 1<br/>value = [0, 1]<br/>class = Non-Fraud>, fillcolor="#399de5ff"] ;
606 -> 608 ;
609 [label=<gini = 0.0<br/>samples = 6<br/>value = [6, 0]<br/>class = Fraud>, fillcolor="#e58139ff"] ;
605 -> 609 ;
610 [label=<VehiclePrice &le; 1.5<br/>gini = 0.219<br/>samples = 8<br/>value = [7, 1]<br/>class = Fraud>, fillcolor="#e58139db"] ;
590 -> 610 ;
611 [label=<gini = 0.0<br/>samples = 6<br/>value = [6, 0]<br/>class = Fraud>, fillcolor="#e58139ff"] ;
610 -> 611 ;
612 [label=<Deductible &le; 450.0<br/>gini = 0.5<br/>samples = 2<br/>value = [1, 1]<br/>class = Fraud>, fillcolor="#e5813900"] ;
610 -> 612 ;
613 [label=<gini = 0.0<br/>samples = 1<br/>value = [0, 1]<br/>class = Non-Fraud>, fillcolor="#399de5ff"] ;
612 -> 613 ;
614 [label=<gini = 0.0<br/>samples = 1<br/>value = [1, 0]<br/>class = Fraud>, fillcolor="#e58139ff"] ;
612 -> 614 ;
615 [label=<AgeOfVehicle &le; 3.5<br/>gini = 0.136<br/>samples = 68<br/>value = [63, 5]<br/>class = Fraud>, fillcolor="#e58139eb"] ;
589 -> 615 ;
616 [label=<Age &le; 32.5<br/>gini = 0.097<br/>samples = 59<br/>value = [56, 3]<br/>class = Fraud>, fillcolor="#e58139f1"] ;
615 -> 616 ;
617 [label=<MaritalStatus &le; 1.5<br/>gini = 0.32<br/>samples = 10<br/>value = [8, 2]<br/>class = Fraud>, fillcolor="#e58139bf"] ;
616 -> 617 ;
618 [label=<Make &le; 2.5<br/>gini = 0.219<br/>samples = 8<br/>value = [7, 1]<br/>class = Fraud>, fillcolor="#e58139db"] ;
617 -> 618 ;
619 [label=<gini = 0.0<br/>samples = 4<br/>value = [4, 0]<br/>class = Fraud>, fillcolor="#e58139ff"] ;
618 -> 619 ;
620 [label=<Age &le; 31.5<br/>gini = 0.375<br/>samples = 4<br/>value = [3, 1]<br/>class = Fraud>, fillcolor="#e58139aa"] ;
618 -> 620 ;
621 [label=<gini = 0.0<br/>samples = 2<br/>value = [2, 0]<br/>class = Fraud>, fillcolor="#e58139ff"] ;
620 -> 621 ;
622 [label=<AgeOfVehicle &le; 2.0<br/>gini = 0.5<br/>samples = 2<br/>value = [1, 1]<br/>class = Fraud>, fillcolor="#e5813900"] ;
620 -> 622 ;
623 [label=<gini = 0.0<br/>samples = 1<br/>value = [1, 0]<br/>class = Fraud>, fillcolor="#e58139ff"] ;
622 -> 623 ;
624 [label=<gini = 0.0<br/>samples = 1<br/>value = [0, 1]<br/>class = Non-Fraud>, fillcolor="#399de5ff"] ;
622 -> 624 ;
625 [label=<AgeOfVehicle &le; 2.0<br/>gini = 0.5<br/>samples = 2<br/>value = [1, 1]<br/>class = Fraud>, fillcolor="#e5813900"] ;
617 -> 625 ;
626 [label=<gini = 0.0<br/>samples = 1<br/>value = [0, 1]<br/>class = Non-Fraud>, fillcolor="#399de5ff"] ;
625 -> 626 ;
627 [label=<gini = 0.0<br/>samples = 1<br/>value = [1, 0]<br/>class = Fraud>, fillcolor="#e58139ff"] ;
625 -> 627 ;
628 [label=<Make &le; 4.5<br/>gini = 0.04<br/>samples = 49<br/>value = [48, 1]<br/>class = Fraud>, fillcolor="#e58139fa"] ;
616 -> 628 ;
629 [label=<gini = 0.0<br/>samples = 42<br/>value = [42, 0]<br/>class = Fraud>, fillcolor="#e58139ff"] ;
628 -> 629 ;
630 [label=<DriverRating &le; 2.5<br/>gini = 0.245<br/>samples = 7<br/>value = [6, 1]<br/>class = Fraud>, fillcolor="#e58139d4"] ;
628 -> 630 ;
631 [label=<Age &le; 37.5<br/>gini = 0.444<br/>samples = 3<br/>value = [2, 1]<br/>class = Fraud>, fillcolor="#e581397f"] ;
630 -> 631 ;
632 [label=<gini = 0.0<br/>samples = 2<br/>value = [2, 0]<br/>class = Fraud>, fillcolor="#e58139ff"] ;
631 -> 632 ;
633 [label=<gini = 0.0<br/>samples = 1<br/>value = [0, 1]<br/>class = Non-Fraud>, fillcolor="#399de5ff"] ;
631 -> 633 ;
634 [label=<gini = 0.0<br/>samples = 4<br/>value = [4, 0]<br/>class = Fraud>, fillcolor="#e58139ff"] ;
630 -> 634 ;
635 [label=<Age &le; 44.5<br/>gini = 0.346<br/>samples = 9<br/>value = [7, 2]<br/>class = Fraud>, fillcolor="#e58139b6"] ;
615 -> 635 ;
636 [label=<AccidentArea &le; 1.5<br/>gini = 0.219<br/>samples = 8<br/>value = [7, 1]<br/>class = Fraud>, fillcolor="#e58139db"] ;
635 -> 636 ;
637 [label=<gini = 0.0<br/>samples = 7<br/>value = [7, 0]<br/>class = Fraud>, fillcolor="#e58139ff"] ;
636 -> 637 ;
638 [label=<gini = 0.0<br/>samples = 1<br/>value = [0, 1]<br/>class = Non-Fraud>, fillcolor="#399de5ff"] ;
636 -> 638 ;
639 [label=<gini = 0.0<br/>samples = 1<br/>value = [0, 1]<br/>class = Non-Fraud>, fillcolor="#399de5ff"] ;
635 -> 639 ;
640 [label=<Make &le; 3.5<br/>gini = 0.32<br/>samples = 5<br/>value = [4, 1]<br/>class = Fraud>, fillcolor="#e58139bf"] ;
578 -> 640 ;
641 [label=<gini = 0.0<br/>samples = 3<br/>value = [3, 0]<br/>class = Fraud>, fillcolor="#e58139ff"] ;
640 -> 641 ;
642 [label=<DriverRating &le; 3.5<br/>gini = 0.5<br/>samples = 2<br/>value = [1, 1]<br/>class = Fraud>, fillcolor="#e5813900"] ;
640 -> 642 ;
643 [label=<gini = 0.0<br/>samples = 1<br/>value = [0, 1]<br/>class = Non-Fraud>, fillcolor="#399de5ff"] ;
642 -> 643 ;
644 [label=<gini = 0.0<br/>samples = 1<br/>value = [1, 0]<br/>class = Fraud>, fillcolor="#e58139ff"] ;
642 -> 644 ;
645 [label=<gini = 0.0<br/>samples = 80<br/>value = [80, 0]<br/>class = Fraud>, fillcolor="#e58139ff"] ;
577 -> 645 ;
646 [label=<DriverRating &le; 1.5<br/>gini = 0.219<br/>samples = 8<br/>value = [7, 1]<br/>class = Fraud>, fillcolor="#e58139db"] ;
576 -> 646 ;
647 [label=<gini = 0.0<br/>samples = 1<br/>value = [0, 1]<br/>class = Non-Fraud>, fillcolor="#399de5ff"] ;
646 -> 647 ;
648 [label=<gini = 0.0<br/>samples = 7<br/>value = [7, 0]<br/>class = Fraud>, fillcolor="#e58139ff"] ;
646 -> 648 ;
649 [label=<DriverRating &le; 1.5<br/>gini = 0.375<br/>samples = 4<br/>value = [3, 1]<br/>class = Fraud>, fillcolor="#e58139aa"] ;
575 -> 649 ;
650 [label=<gini = 0.0<br/>samples = 3<br/>value = [3, 0]<br/>class = Fraud>, fillcolor="#e58139ff"] ;
649 -> 650 ;
651 [label=<gini = 0.0<br/>samples = 1<br/>value = [0, 1]<br/>class = Non-Fraud>, fillcolor="#399de5ff"] ;
649 -> 651 ;
652 [label=<NumberOfCars &le; 2.5<br/>gini = 0.179<br/>samples = 363<br/>value = [327, 36]<br/>class = Fraud>, fillcolor="#e58139e3"] ;
574 -> 652 ;
653 [label=<VehiclePrice &le; 1.5<br/>gini = 0.167<br/>samples = 349<br/>value = [317, 32]<br/>class = Fraud>, fillcolor="#e58139e5"] ;
652 -> 653 ;
654 [label=<PastNumberOfClaims &le; 3.5<br/>gini = 0.121<br/>samples = 231<br/>value = [216, 15]<br/>class = Fraud>, fillcolor="#e58139ed"] ;
653 -> 654 ;
655 [label=<daysDiff &le; 20.5<br/>gini = 0.098<br/>samples = 213<br/>value = [202, 11]<br/>class = Fraud>, fillcolor="#e58139f1"] ;
654 -> 655 ;
656 [label=<Age &le; 48.5<br/>gini = 0.234<br/>samples = 37<br/>value = [32, 5]<br/>class = Fraud>, fillcolor="#e58139d7"] ;
655 -> 656 ;
657 [label=<NumberOfSuppliments &le; 2.5<br/>gini = 0.08<br/>samples = 24<br/>value = [23, 1]<br/>class = Fraud>, fillcolor="#e58139f4"] ;
656 -> 657 ;
658 [label=<gini = 0.0<br/>samples = 15<br/>value = [15, 0]<br/>class = Fraud>, fillcolor="#e58139ff"] ;
657 -> 658 ;
659 [label=<PastNumberOfClaims &le; 2.5<br/>gini = 0.198<br/>samples = 9<br/>value = [8, 1]<br/>class = Fraud>, fillcolor="#e58139df"] ;
657 -> 659 ;
660 [label=<gini = 0.0<br/>samples = 5<br/>value = [5, 0]<br/>class = Fraud>, fillcolor="#e58139ff"] ;
659 -> 660 ;
661 [label=<NumberOfSuppliments &le; 3.5<br/>gini = 0.375<br/>samples = 4<br/>value = [3, 1]<br/>class = Fraud>, fillcolor="#e58139aa"] ;
659 -> 661 ;
662 [label=<AgeOfVehicle &le; 5.0<br/>gini = 0.5<br/>samples = 2<br/>value = [1, 1]<br/>class = Fraud>, fillcolor="#e5813900"] ;
661 -> 662 ;
663 [label=<gini = 0.0<br/>samples = 1<br/>value = [0, 1]<br/>class = Non-Fraud>, fillcolor="#399de5ff"] ;
662 -> 663 ;
664 [label=<gini = 0.0<br/>samples = 1<br/>value = [1, 0]<br/>class = Fraud>, fillcolor="#e58139ff"] ;
662 -> 664 ;
665 [label=<gini = 0.0<br/>samples = 2<br/>value = [2, 0]<br/>class = Fraud>, fillcolor="#e58139ff"] ;
661 -> 665 ;
666 [label=<Age &le; 53.5<br/>gini = 0.426<br/>samples = 13<br/>value = [9, 4]<br/>class = Fraud>, fillcolor="#e581398e"] ;
656 -> 666 ;
667 [label=<DriverRating &le; 2.5<br/>gini = 0.48<br/>samples = 5<br/>value = [2, 3]<br/>class = Non-Fraud>, fillcolor="#399de555"] ;
666 -> 667 ;
668 [label=<Age &le; 50.5<br/>gini = 0.444<br/>samples = 3<br/>value = [2, 1]<br/>class = Fraud>, fillcolor="#e581397f"] ;
667 -> 668 ;
669 [label=<gini = 0.0<br/>samples = 1<br/>value = [0, 1]<br/>class = Non-Fraud>, fillcolor="#399de5ff"] ;
668 -> 669 ;
670 [label=<gini = 0.0<br/>samples = 2<br/>value = [2, 0]<br/>class = Fraud>, fillcolor="#e58139ff"] ;
668 -> 670 ;
671 [label=<gini = 0.0<br/>samples = 2<br/>value = [0, 2]<br/>class = Non-Fraud>, fillcolor="#399de5ff"] ;
667 -> 671 ;
672 [label=<NumberOfSuppliments &le; 2.0<br/>gini = 0.219<br/>samples = 8<br/>value = [7, 1]<br/>class = Fraud>, fillcolor="#e58139db"] ;
666 -> 672 ;
673 [label=<Make &le; 6.5<br/>gini = 0.5<br/>samples = 2<br/>value = [1, 1]<br/>class = Fraud>, fillcolor="#e5813900"] ;
672 -> 673 ;
674 [label=<gini = 0.0<br/>samples = 1<br/>value = [0, 1]<br/>class = Non-Fraud>, fillcolor="#399de5ff"] ;
673 -> 674 ;
675 [label=<gini = 0.0<br/>samples = 1<br/>value = [1, 0]<br/>class = Fraud>, fillcolor="#e58139ff"] ;
673 -> 675 ;
676 [label=<gini = 0.0<br/>samples = 6<br/>value = [6, 0]<br/>class = Fraud>, fillcolor="#e58139ff"] ;
672 -> 676 ;
677 [label=<NumberOfSuppliments &le; 3.5<br/>gini = 0.066<br/>samples = 176<br/>value = [170, 6]<br/>class = Fraud>, fillcolor="#e58139f6"] ;
655 -> 677 ;
678 [label=<Age &le; 34.5<br/>gini = 0.05<br/>samples = 155<br/>value = [151, 4]<br/>class = Fraud>, fillcolor="#e58139f8"] ;
677 -> 678 ;
679 [label=<gini = 0.0<br/>samples = 70<br/>value = [70, 0]<br/>class = Fraud>, fillcolor="#e58139ff"] ;
678 -> 679 ;
680 [label=<AgeOfVehicle &le; 3.5<br/>gini = 0.09<br/>samples = 85<br/>value = [81, 4]<br/>class = Fraud>, fillcolor="#e58139f2"] ;
678 -> 680 ;
681 [label=<PoliceReportFiled &le; 1.5<br/>gini = 0.07<br/>samples = 83<br/>value = [80, 3]<br/>class = Fraud>, fillcolor="#e58139f5"] ;
680 -> 681 ;
682 [label=<daysDiff &le; 42.5<br/>gini = 0.05<br/>samples = 78<br/>value = [76, 2]<br/>class = Fraud>, fillcolor="#e58139f8"] ;
681 -> 682 ;
683 [label=<gini = 0.0<br/>samples = 52<br/>value = [52, 0]<br/>class = Fraud>, fillcolor="#e58139ff"] ;
682 -> 683 ;
684 [label=<daysDiff &le; 44.0<br/>gini = 0.142<br/>samples = 26<br/>value = [24, 2]<br/>class = Fraud>, fillcolor="#e58139ea"] ;
682 -> 684 ;
685 [label=<gini = 0.0<br/>samples = 1<br/>value = [0, 1]<br/>class = Non-Fraud>, fillcolor="#399de5ff"] ;
684 -> 685 ;
686 [label=<Make &le; 1.5<br/>gini = 0.077<br/>samples = 25<br/>value = [24, 1]<br/>class = Fraud>, fillcolor="#e58139f4"] ;
684 -> 686 ;
687 [label=<daysDiff &le; 84.0<br/>gini = 0.245<br/>samples = 7<br/>value = [6, 1]<br/>class = Fraud>, fillcolor="#e58139d4"] ;
686 -> 687 ;
688 [label=<PastNumberOfClaims &le; 1.5<br/>gini = 0.5<br/>samples = 2<br/>value = [1, 1]<br/>class = Fraud>, fillcolor="#e5813900"] ;
687 -> 688 ;
689 [label=<gini = 0.0<br/>samples = 1<br/>value = [1, 0]<br/>class = Fraud>, fillcolor="#e58139ff"] ;
688 -> 689 ;
690 [label=<gini = 0.0<br/>samples = 1<br/>value = [0, 1]<br/>class = Non-Fraud>, fillcolor="#399de5ff"] ;
688 -> 690 ;
691 [label=<gini = 0.0<br/>samples = 5<br/>value = [5, 0]<br/>class = Fraud>, fillcolor="#e58139ff"] ;
687 -> 691 ;
692 [label=<gini = 0.0<br/>samples = 18<br/>value = [18, 0]<br/>class = Fraud>, fillcolor="#e58139ff"] ;
686 -> 692 ;
693 [label=<daysDiff &le; 30.0<br/>gini = 0.32<br/>samples = 5<br/>value = [4, 1]<br/>class = Fraud>, fillcolor="#e58139bf"] ;
681 -> 693 ;
694 [label=<gini = 0.0<br/>samples = 3<br/>value = [3, 0]<br/>class = Fraud>, fillcolor="#e58139ff"] ;
693 -> 694 ;
695 [label=<Age &le; 41.0<br/>gini = 0.5<br/>samples = 2<br/>value = [1, 1]<br/>class = Fraud>, fillcolor="#e5813900"] ;
693 -> 695 ;
696 [label=<gini = 0.0<br/>samples = 1<br/>value = [1, 0]<br/>class = Fraud>, fillcolor="#e58139ff"] ;
695 -> 696 ;
697 [label=<gini = 0.0<br/>samples = 1<br/>value = [0, 1]<br/>class = Non-Fraud>, fillcolor="#399de5ff"] ;
695 -> 697 ;
698 [label=<DriverRating &le; 2.5<br/>gini = 0.5<br/>samples = 2<br/>value = [1, 1]<br/>class = Fraud>, fillcolor="#e5813900"] ;
680 -> 698 ;
699 [label=<gini = 0.0<br/>samples = 1<br/>value = [1, 0]<br/>class = Fraud>, fillcolor="#e58139ff"] ;
698 -> 699 ;
700 [label=<gini = 0.0<br/>samples = 1<br/>value = [0, 1]<br/>class = Non-Fraud>, fillcolor="#399de5ff"] ;
698 -> 700 ;
701 [label=<daysDiff &le; 27.5<br/>gini = 0.172<br/>samples = 21<br/>value = [19, 2]<br/>class = Fraud>, fillcolor="#e58139e4"] ;
677 -> 701 ;
702 [label=<daysDiff &le; 26.5<br/>gini = 0.375<br/>samples = 8<br/>value = [6, 2]<br/>class = Fraud>, fillcolor="#e58139aa"] ;
701 -> 702 ;
703 [label=<daysDiff &le; 23.0<br/>gini = 0.245<br/>samples = 7<br/>value = [6, 1]<br/>class = Fraud>, fillcolor="#e58139d4"] ;
702 -> 703 ;
704 [label=<gini = 0.0<br/>samples = 4<br/>value = [4, 0]<br/>class = Fraud>, fillcolor="#e58139ff"] ;
703 -> 704 ;
705 [label=<Age &le; 32.5<br/>gini = 0.444<br/>samples = 3<br/>value = [2, 1]<br/>class = Fraud>, fillcolor="#e581397f"] ;
703 -> 705 ;
706 [label=<gini = 0.0<br/>samples = 1<br/>value = [0, 1]<br/>class = Non-Fraud>, fillcolor="#399de5ff"] ;
705 -> 706 ;
707 [label=<gini = 0.0<br/>samples = 2<br/>value = [2, 0]<br/>class = Fraud>, fillcolor="#e58139ff"] ;
705 -> 707 ;
708 [label=<gini = 0.0<br/>samples = 1<br/>value = [0, 1]<br/>class = Non-Fraud>, fillcolor="#399de5ff"] ;
702 -> 708 ;
709 [label=<gini = 0.0<br/>samples = 13<br/>value = [13, 0]<br/>class = Fraud>, fillcolor="#e58139ff"] ;
701 -> 709 ;
710 [label=<Sex &le; 1.5<br/>gini = 0.346<br/>samples = 18<br/>value = [14, 4]<br/>class = Fraud>, fillcolor="#e58139b6"] ;
654 -> 710 ;
711 [label=<Make &le; 1.5<br/>gini = 0.291<br/>samples = 17<br/>value = [14, 3]<br/>class = Fraud>, fillcolor="#e58139c8"] ;
710 -> 711 ;
712 [label=<DriverRating &le; 3.5<br/>gini = 0.48<br/>samples = 5<br/>value = [3, 2]<br/>class = Fraud>, fillcolor="#e5813955"] ;
711 -> 712 ;
713 [label=<gini = 0.0<br/>samples = 2<br/>value = [2, 0]<br/>class = Fraud>, fillcolor="#e58139ff"] ;
712 -> 713 ;
714 [label=<Age &le; 28.5<br/>gini = 0.444<br/>samples = 3<br/>value = [1, 2]<br/>class = Non-Fraud>, fillcolor="#399de57f"] ;
712 -> 714 ;
715 [label=<gini = 0.0<br/>samples = 1<br/>value = [0, 1]<br/>class = Non-Fraud>, fillcolor="#399de5ff"] ;
714 -> 715 ;
716 [label=<daysDiff &le; 33.5<br/>gini = 0.5<br/>samples = 2<br/>value = [1, 1]<br/>class = Fraud>, fillcolor="#e5813900"] ;
714 -> 716 ;
717 [label=<gini = 0.0<br/>samples = 1<br/>value = [0, 1]<br/>class = Non-Fraud>, fillcolor="#399de5ff"] ;
716 -> 717 ;
718 [label=<gini = 0.0<br/>samples = 1<br/>value = [1, 0]<br/>class = Fraud>, fillcolor="#e58139ff"] ;
716 -> 718 ;
719 [label=<AgeOfVehicle &le; 3.5<br/>gini = 0.153<br/>samples = 12<br/>value = [11, 1]<br/>class = Fraud>, fillcolor="#e58139e8"] ;
711 -> 719 ;
720 [label=<gini = 0.0<br/>samples = 10<br/>value = [10, 0]<br/>class = Fraud>, fillcolor="#e58139ff"] ;
719 -> 720 ;
721 [label=<DriverRating &le; 3.5<br/>gini = 0.5<br/>samples = 2<br/>value = [1, 1]<br/>class = Fraud>, fillcolor="#e5813900"] ;
719 -> 721 ;
722 [label=<gini = 0.0<br/>samples = 1<br/>value = [0, 1]<br/>class = Non-Fraud>, fillcolor="#399de5ff"] ;
721 -> 722 ;
723 [label=<gini = 0.0<br/>samples = 1<br/>value = [1, 0]<br/>class = Fraud>, fillcolor="#e58139ff"] ;
721 -> 723 ;
724 [label=<gini = 0.0<br/>samples = 1<br/>value = [0, 1]<br/>class = Non-Fraud>, fillcolor="#399de5ff"] ;
710 -> 724 ;
725 [label=<Deductible &le; 450.0<br/>gini = 0.247<br/>samples = 118<br/>value = [101, 17]<br/>class = Fraud>, fillcolor="#e58139d4"] ;
653 -> 725 ;
726 [label=<AgentType &le; 1.5<br/>gini = 0.229<br/>samples = 114<br/>value = [99, 15]<br/>class = Fraud>, fillcolor="#e58139d8"] ;
725 -> 726 ;
727 [label=<Make &le; 2.5<br/>gini = 0.21<br/>samples = 109<br/>value = [96, 13]<br/>class = Fraud>, fillcolor="#e58139dc"] ;
726 -> 727 ;
728 [label=<Age &le; 33.5<br/>gini = 0.12<br/>samples = 47<br/>value = [44, 3]<br/>class = Fraud>, fillcolor="#e58139ee"] ;
727 -> 728 ;
729 [label=<Make &le; 1.5<br/>gini = 0.278<br/>samples = 18<br/>value = [15, 3]<br/>class = Fraud>, fillcolor="#e58139cc"] ;
728 -> 729 ;
730 [label=<Age &le; 30.5<br/>gini = 0.375<br/>samples = 12<br/>value = [9, 3]<br/>class = Fraud>, fillcolor="#e58139aa"] ;
729 -> 730 ;
731 [label=<daysDiff &le; 55.0<br/>gini = 0.198<br/>samples = 9<br/>value = [8, 1]<br/>class = Fraud>, fillcolor="#e58139df"] ;
730 -> 731 ;
732 [label=<gini = 0.0<br/>samples = 7<br/>value = [7, 0]<br/>class = Fraud>, fillcolor="#e58139ff"] ;
731 -> 732 ;
733 [label=<daysDiff &le; 72.0<br/>gini = 0.5<br/>samples = 2<br/>value = [1, 1]<br/>class = Fraud>, fillcolor="#e5813900"] ;
731 -> 733 ;
734 [label=<gini = 0.0<br/>samples = 1<br/>value = [0, 1]<br/>class = Non-Fraud>, fillcolor="#399de5ff"] ;
733 -> 734 ;
735 [label=<gini = 0.0<br/>samples = 1<br/>value = [1, 0]<br/>class = Fraud>, fillcolor="#e58139ff"] ;
733 -> 735 ;
736 [label=<Sex &le; 1.5<br/>gini = 0.444<br/>samples = 3<br/>value = [1, 2]<br/>class = Non-Fraud>, fillcolor="#399de57f"] ;
730 -> 736 ;
737 [label=<gini = 0.0<br/>samples = 2<br/>value = [0, 2]<br/>class = Non-Fraud>, fillcolor="#399de5ff"] ;
736 -> 737 ;
738 [label=<gini = 0.0<br/>samples = 1<br/>value = [1, 0]<br/>class = Fraud>, fillcolor="#e58139ff"] ;
736 -> 738 ;
739 [label=<gini = 0.0<br/>samples = 6<br/>value = [6, 0]<br/>class = Fraud>, fillcolor="#e58139ff"] ;
729 -> 739 ;
740 [label=<gini = 0.0<br/>samples = 29<br/>value = [29, 0]<br/>class = Fraud>, fillcolor="#e58139ff"] ;
728 -> 740 ;
741 [label=<Make &le; 6.5<br/>gini = 0.271<br/>samples = 62<br/>value = [52, 10]<br/>class = Fraud>, fillcolor="#e58139ce"] ;
727 -> 741 ;
742 [label=<daysDiff &le; 20.5<br/>gini = 0.33<br/>samples = 48<br/>value = [38, 10]<br/>class = Fraud>, fillcolor="#e58139bc"] ;
741 -> 742 ;
743 [label=<gini = 0.0<br/>samples = 5<br/>value = [5, 0]<br/>class = Fraud>, fillcolor="#e58139ff"] ;
742 -> 743 ;
744 [label=<Age &le; 34.0<br/>gini = 0.357<br/>samples = 43<br/>value = [33, 10]<br/>class = Fraud>, fillcolor="#e58139b2"] ;
742 -> 744 ;
745 [label=<daysDiff &le; 35.0<br/>gini = 0.255<br/>samples = 20<br/>value = [17, 3]<br/>class = Fraud>, fillcolor="#e58139d2"] ;
744 -> 745 ;
746 [label=<Age &le; 26.5<br/>gini = 0.375<br/>samples = 12<br/>value = [9, 3]<br/>class = Fraud>, fillcolor="#e58139aa"] ;
745 -> 746 ;
747 [label=<gini = 0.0<br/>samples = 1<br/>value = [0, 1]<br/>class = Non-Fraud>, fillcolor="#399de5ff"] ;
746 -> 747 ;
748 [label=<NumberOfSuppliments &le; 2.5<br/>gini = 0.298<br/>samples = 11<br/>value = [9, 2]<br/>class = Fraud>, fillcolor="#e58139c6"] ;
746 -> 748 ;
749 [label=<AccidentArea &le; 1.5<br/>gini = 0.198<br/>samples = 9<br/>value = [8, 1]<br/>class = Fraud>, fillcolor="#e58139df"] ;
748 -> 749 ;
750 [label=<gini = 0.0<br/>samples = 7<br/>value = [7, 0]<br/>class = Fraud>, fillcolor="#e58139ff"] ;
749 -> 750 ;
751 [label=<NumberOfSuppliments &le; 1.5<br/>gini = 0.5<br/>samples = 2<br/>value = [1, 1]<br/>class = Fraud>, fillcolor="#e5813900"] ;
749 -> 751 ;
752 [label=<gini = 0.0<br/>samples = 1<br/>value = [0, 1]<br/>class = Non-Fraud>, fillcolor="#399de5ff"] ;
751 -> 752 ;
753 [label=<gini = 0.0<br/>samples = 1<br/>value = [1, 0]<br/>class = Fraud>, fillcolor="#e58139ff"] ;
751 -> 753 ;
754 [label=<daysDiff &le; 26.0<br/>gini = 0.5<br/>samples = 2<br/>value = [1, 1]<br/>class = Fraud>, fillcolor="#e5813900"] ;
748 -> 754 ;
755 [label=<gini = 0.0<br/>samples = 1<br/>value = [0, 1]<br/>class = Non-Fraud>, fillcolor="#399de5ff"] ;
754 -> 755 ;
756 [label=<gini = 0.0<br/>samples = 1<br/>value = [1, 0]<br/>class = Fraud>, fillcolor="#e58139ff"] ;
754 -> 756 ;
757 [label=<gini = 0.0<br/>samples = 8<br/>value = [8, 0]<br/>class = Fraud>, fillcolor="#e58139ff"] ;
745 -> 757 ;
758 [label=<AgeOfVehicle &le; 2.5<br/>gini = 0.423<br/>samples = 23<br/>value = [16, 7]<br/>class = Fraud>, fillcolor="#e581398f"] ;
744 -> 758 ;
759 [label=<Age &le; 35.5<br/>gini = 0.332<br/>samples = 19<br/>value = [15, 4]<br/>class = Fraud>, fillcolor="#e58139bb"] ;
758 -> 759 ;
760 [label=<gini = 0.0<br/>samples = 1<br/>value = [0, 1]<br/>class = Non-Fraud>, fillcolor="#399de5ff"] ;
759 -> 760 ;
761 [label=<daysDiff &le; 38.5<br/>gini = 0.278<br/>samples = 18<br/>value = [15, 3]<br/>class = Fraud>, fillcolor="#e58139cc"] ;
759 -> 761 ;
762 [label=<gini = 0.0<br/>samples = 9<br/>value = [9, 0]<br/>class = Fraud>, fillcolor="#e58139ff"] ;
761 -> 762 ;
763 [label=<daysDiff &le; 44.0<br/>gini = 0.444<br/>samples = 9<br/>value = [6, 3]<br/>class = Fraud>, fillcolor="#e581397f"] ;
761 -> 763 ;
764 [label=<gini = 0.0<br/>samples = 2<br/>value = [0, 2]<br/>class = Non-Fraud>, fillcolor="#399de5ff"] ;
763 -> 764 ;
765 [label=<NumberOfCars &le; 1.5<br/>gini = 0.245<br/>samples = 7<br/>value = [6, 1]<br/>class = Fraud>, fillcolor="#e58139d4"] ;
763 -> 765 ;
