digraph Tree {
node [shape=box, style="filled, rounded", color="black", fontname=helvetica] ;
edge [fontname=helvetica] ;
0 [label="BasePolicy_Liability <= 0.5\ngini = 0.5\nsamples = 22436\nvalue = [10866, 11570]\nclass = Non-Fraudulent", fillcolor="#399de510"] ;
1 [label="Fault_Third Party <= 0.5\ngini = 0.474\nsamples = 18500\nvalue = [7142, 11358]\nclass = Non-Fraudulent", fillcolor="#399de55f"] ;
0 -> 1 [labeldistance=2.5, labelangle=45, headlabel="True"] ;
2 [label="BasePolicy_Collision <= 0.5\ngini = 0.411\nsamples = 15695\nvalue = [4544, 11151]\nclass = Non-Fraudulent", fillcolor="#399de597"] ;
1 -> 2 ;
3 [label="PoliceReportFiled_Yes <= 0.5\ngini = 0.35\nsamples = 7654\nvalue = [1734, 5920]\nclass = Non-Fraudulent", fillcolor="#399de5b4"] ;
2 -> 3 ;
4 [label="AddressChange-Claim_4 to 8 years <= 0.5\ngini = 0.345\nsamples = 7576\nvalue = [1676, 5900]\nclass = Non-Fraudulent", fillcolor="#399de5b7"] ;
3 -> 4 ;
5 [label="VehicleCategory_Sedan <= 0.5\ngini = 0.337\nsamples = 7449\nvalue = [1598, 5851]\nclass = Non-Fraudulent", fillcolor="#399de5b9"] ;
4 -> 5 ;
6 [label="Make_Accura <= 0.5\ngini = 0.473\nsamples = 516\nvalue = [198, 318]\nclass = Non-Fraudulent", fillcolor="#399de560"] ;
5 -> 6 ;
7 [label="Age <= 0.519\ngini = 0.5\nsamples = 319\nvalue = [161, 158]\nclass = Fraudulent", fillcolor="#e5813905"] ;
6 -> 7 ;
8 [label="NumberOfSuppliments_3 to 5 <= 0.5\ngini = 0.454\nsamples = 164\nvalue = [57, 107]\nclass = Non-Fraudulent", fillcolor="#399de577"] ;
7 -> 8 ;
9 [label="Age <= 0.356\ngini = 0.424\nsamples = 154\nvalue = [47, 107]\nclass = Non-Fraudulent", fillcolor="#399de58f"] ;
8 -> 9 ;
10 [label="PastNumberOfClaims_none <= 0.5\ngini = 0.444\nsamples = 24\nvalue = [16, 8]\nclass = Fraudulent", fillcolor="#e581397f"] ;
9 -> 10 ;
11 [label="gini = 0.0\nsamples = 11\nvalue = [11, 0]\nclass = Fraudulent", fillcolor="#e58139ff"] ;
10 -> 11 ;
12 [label="DaysDiff <= 0.163\ngini = 0.473\nsamples = 13\nvalue = [5, 8]\nclass = Non-Fraudulent", fillcolor="#399de560"] ;
10 -> 12 ;
13 [label="Make_Ford <= 0.5\ngini = 0.198\nsamples = 9\nvalue = [1, 8]\nclass = Non-Fraudulent", fillcolor="#399de5df"] ;
12 -> 13 ;
14 [label="gini = 0.0\nsamples = 8\nvalue = [0, 8]\nclass = Non-Fraudulent", fillcolor="#399de5ff"] ;
13 -> 14 ;
15 [label="gini = 0.0\nsamples = 1\nvalue = [1, 0]\nclass = Fraudulent", fillcolor="#e58139ff"] ;
13 -> 15 ;
16 [label="gini = 0.0\nsamples = 4\nvalue = [4, 0]\nclass = Fraudulent", fillcolor="#e58139ff"] ;
12 -> 16 ;
17 [label="DaysDiff <= 0.058\ngini = 0.363\nsamples = 130\nvalue = [31, 99]\nclass = Non-Fraudulent", fillcolor="#399de5af"] ;
9 -> 17 ;
18 [label="gini = 0.0\nsamples = 5\nvalue = [5, 0]\nclass = Fraudulent", fillcolor="#e58139ff"] ;
17 -> 18 ;
19 [label="Make_Mazda <= 0.5\ngini = 0.329\nsamples = 125\nvalue = [26, 99]\nclass = Non-Fraudulent", fillcolor="#399de5bc"] ;
17 -> 19 ;
20 [label="MartalStatus_Single <= 0.5\ngini = 0.298\nsamples = 121\nvalue = [22, 99]\nclass = Non-Fraudulent", fillcolor="#399de5c6"] ;
19 -> 20 ;
21 [label="AgeOfVehicle_6 years <= 0.5\ngini = 0.372\nsamples = 89\nvalue = [22, 67]\nclass = Non-Fraudulent", fillcolor="#399de5ab"] ;
20 -> 21 ;
22 [label="PastNumberOfClaims_none <= 0.5\ngini = 0.334\nsamples = 85\nvalue = [18, 67]\nclass = Non-Fraudulent", fillcolor="#399de5ba"] ;
21 -> 22 ;
23 [label="DaysDiff <= 0.095\ngini = 0.299\nsamples = 82\nvalue = [15, 67]\nclass = Non-Fraudulent", fillcolor="#399de5c6"] ;
22 -> 23 ;
24 [label="Age <= 0.456\ngini = 0.444\nsamples = 36\nvalue = [12, 24]\nclass = Non-Fraudulent", fillcolor="#399de57f"] ;
23 -> 24 ;
25 [label="gini = 0.0\nsamples = 7\nvalue = [7, 0]\nclass = Fraudulent", fillcolor="#e58139ff"] ;
24 -> 25 ;
26 [label="Age <= 0.481\ngini = 0.285\nsamples = 29\nvalue = [5, 24]\nclass = Non-Fraudulent", fillcolor="#399de5ca"] ;
24 -> 26 ;
27 [label="DaysDiff <= 0.077\ngini = 0.077\nsamples = 25\nvalue = [1, 24]\nclass = Non-Fraudulent", fillcolor="#399de5f4"] ;
26 -> 27 ;
28 [label="gini = 0.0\nsamples = 24\nvalue = [0, 24]\nclass = Non-Fraudulent", fillcolor="#399de5ff"] ;
27 -> 28 ;
29 [label="gini = 0.0\nsamples = 1\nvalue = [1, 0]\nclass = Fraudulent", fillcolor="#e58139ff"] ;
27 -> 29 ;
30 [label="gini = 0.0\nsamples = 4\nvalue = [4, 0]\nclass = Fraudulent", fillcolor="#e58139ff"] ;
26 -> 30 ;
31 [label="Age <= 0.381\ngini = 0.122\nsamples = 46\nvalue = [3, 43]\nclass = Non-Fraudulent", fillcolor="#399de5ed"] ;
23 -> 31 ;
32 [label="gini = 0.0\nsamples = 1\nvalue = [1, 0]\nclass = Fraudulent", fillcolor="#e58139ff"] ;
31 -> 32 ;
33 [label="DaysDiff <= 0.305\ngini = 0.085\nsamples = 45\nvalue = [2, 43]\nclass = Non-Fraudulent", fillcolor="#399de5f3"] ;
31 -> 33 ;
34 [label="PastNumberOfClaims_more than 4 <= 0.5\ngini = 0.044\nsamples = 44\nvalue = [1, 43]\nclass = Non-Fraudulent", fillcolor="#399de5f9"] ;
33 -> 34 ;
35 [label="gini = 0.0\nsamples = 32\nvalue = [0, 32]\nclass = Non-Fraudulent", fillcolor="#399de5ff"] ;
34 -> 35 ;
36 [label="Make_Chevrolet <= 0.5\ngini = 0.153\nsamples = 12\nvalue = [1, 11]\nclass = Non-Fraudulent", fillcolor="#399de5e8"] ;
34 -> 36 ;
37 [label="gini = 0.0\nsamples = 1\nvalue = [1, 0]\nclass = Fraudulent", fillcolor="#e58139ff"] ;
36 -> 37 ;
38 [label="gini = 0.0\nsamples = 11\nvalue = [0, 11]\nclass = Non-Fraudulent", fillcolor="#399de5ff"] ;
36 -> 38 ;
39 [label="gini = 0.0\nsamples = 1\nvalue = [1, 0]\nclass = Fraudulent", fillcolor="#e58139ff"] ;
33 -> 39 ;
40 [label="gini = 0.0\nsamples = 3\nvalue = [3, 0]\nclass = Fraudulent", fillcolor="#e58139ff"] ;
22 -> 40 ;
41 [label="gini = 0.0\nsamples = 4\nvalue = [4, 0]\nclass = Fraudulent", fillcolor="#e58139ff"] ;
21 -> 41 ;
42 [label="gini = 0.0\nsamples = 32\nvalue = [0, 32]\nclass = Non-Fraudulent", fillcolor="#399de5ff"] ;
20 -> 42 ;
43 [label="gini = 0.0\nsamples = 4\nvalue = [4, 0]\nclass = Fraudulent", fillcolor="#e58139ff"] ;
19 -> 43 ;
44 [label="gini = 0.0\nsamples = 10\nvalue = [10, 0]\nclass = Fraudulent", fillcolor="#e58139ff"] ;
8 -> 44 ;
45 [label="PastNumberOfClaims_2 to 4 <= 0.5\ngini = 0.442\nsamples = 155\nvalue = [104, 51]\nclass = Fraudulent", fillcolor="#e5813982"] ;
7 -> 45 ;
46 [label="Age <= 0.556\ngini = 0.498\nsamples = 109\nvalue = [58, 51]\nclass = Fraudulent", fillcolor="#e581391f"] ;
45 -> 46 ;
47 [label="gini = 0.0\nsamples = 10\nvalue = [10, 0]\nclass = Fraudulent", fillcolor="#e58139ff"] ;
46 -> 47 ;
48 [label="AgeOfVehicle_7 years <= 0.5\ngini = 0.5\nsamples = 99\nvalue = [48, 51]\nclass = Non-Fraudulent", fillcolor="#399de50f"] ;
46 -> 48 ;
49 [label="Deductible <= 0.5\ngini = 0.473\nsamples = 65\nvalue = [40, 25]\nclass = Fraudulent", fillcolor="#e5813960"] ;
48 -> 49 ;
50 [label="gini = 0.0\nsamples = 20\nvalue = [20, 0]\nclass = Fraudulent", fillcolor="#e58139ff"] ;
49 -> 50 ;
51 [label="Make_Pontiac <= 0.5\ngini = 0.494\nsamples = 45\nvalue = [20, 25]\nclass = Non-Fraudulent", fillcolor="#399de533"] ;
49 -> 51 ;
52 [label="DaysDiff <= 0.235\ngini = 0.46\nsamples = 39\nvalue = [14, 25]\nclass = Non-Fraudulent", fillcolor="#399de570"] ;
51 -> 52 ;
53 [label="DaysDiff <= 0.185\ngini = 0.408\nsamples = 35\nvalue = [10, 25]\nclass = Non-Fraudulent", fillcolor="#399de599"] ;
52 -> 53 ;
54 [label="PastNumberOfClaims_none <= 0.5\ngini = 0.473\nsamples = 26\nvalue = [10, 16]\nclass = Non-Fraudulent", fillcolor="#399de560"] ;
53 -> 54 ;
55 [label="Age <= 0.694\ngini = 0.363\nsamples = 21\nvalue = [5, 16]\nclass = Non-Fraudulent", fillcolor="#399de5af"] ;
54 -> 55 ;
56 [label="Make_Chevrolet <= 0.5\ngini = 0.266\nsamples = 19\nvalue = [3, 16]\nclass = Non-Fraudulent", fillcolor="#399de5cf"] ;
55 -> 56 ;
57 [label="gini = 0.0\nsamples = 12\nvalue = [0, 12]\nclass = Non-Fraudulent", fillcolor="#399de5ff"] ;
56 -> 57 ;
58 [label="NumberOfSuppliments_more than 5 <= 0.5\ngini = 0.49\nsamples = 7\nvalue = [3, 4]\nclass = Non-Fraudulent", fillcolor="#399de540"] ;
56 -> 58 ;
59 [label="gini = 0.0\nsamples = 4\nvalue = [0, 4]\nclass = Non-Fraudulent", fillcolor="#399de5ff"] ;
58 -> 59 ;
60 [label="gini = 0.0\nsamples = 3\nvalue = [3, 0]\nclass = Fraudulent", fillcolor="#e58139ff"] ;
58 -> 60 ;
61 [label="gini = 0.0\nsamples = 2\nvalue = [2, 0]\nclass = Fraudulent", fillcolor="#e58139ff"] ;
55 -> 61 ;
62 [label="gini = 0.0\nsamples = 5\nvalue = [5, 0]\nclass = Fraudulent", fillcolor="#e58139ff"] ;
54 -> 62 ;
63 [label="gini = 0.0\nsamples = 9\nvalue = [0, 9]\nclass = Non-Fraudulent", fillcolor="#399de5ff"] ;
53 -> 63 ;
64 [label="gini = 0.0\nsamples = 4\nvalue = [4, 0]\nclass = Fraudulent", fillcolor="#e58139ff"] ;
52 -> 64 ;
65 [label="gini = 0.0\nsamples = 6\nvalue = [6, 0]\nclass = Fraudulent", fillcolor="#e58139ff"] ;
51 -> 65 ;
66 [label="NumberOfSuppliments_none <= 0.5\ngini = 0.36\nsamples = 34\nvalue = [8, 26]\nclass = Non-Fraudulent", fillcolor="#399de5b1"] ;
48 -> 66 ;
67 [label="gini = 0.0\nsamples = 7\nvalue = [7, 0]\nclass = Fraudulent", fillcolor="#e58139ff"] ;
66 -> 67 ;
68 [label="AccidentArea_Urban <= 0.5\ngini = 0.071\nsamples = 27\nvalue = [1, 26]\nclass = Non-Fraudulent", fillcolor="#399de5f5"] ;
66 -> 68 ;
69 [label="gini = 0.0\nsamples = 1\nvalue = [1, 0]\nclass = Fraudulent", fillcolor="#e58139ff"] ;
68 -> 69 ;
70 [label="gini = 0.0\nsamples = 26\nvalue = [0, 26]\nclass = Non-Fraudulent", fillcolor="#399de5ff"] ;
68 -> 70 ;
71 [label="gini = 0.0\nsamples = 46\nvalue = [46, 0]\nclass = Fraudulent", fillcolor="#e58139ff"] ;
45 -> 71 ;
72 [label="DaysDiff <= 0.179\ngini = 0.305\nsamples = 197\nvalue = [37, 160]\nclass = Non-Fraudulent", fillcolor="#399de5c4"] ;
6 -> 72 ;
73 [label="DaysDiff <= 0.054\ngini = 0.278\nsamples = 192\nvalue = [32, 160]\nclass = Non-Fraudulent", fillcolor="#399de5cc"] ;
72 -> 73 ;
74 [label="gini = 0.0\nsamples = 4\nvalue = [4, 0]\nclass = Fraudulent", fillcolor="#e58139ff"] ;
73 -> 74 ;
75 [label="Age <= 0.456\ngini = 0.254\nsamples = 188\nvalue = [28, 160]\nclass = Non-Fraudulent", fillcolor="#399de5d2"] ;
73 -> 75 ;
76 [label="NumberOfCars_1 vehicle <= 0.5\ngini = 0.104\nsamples = 91\nvalue = [5, 86]\nclass = Non-Fraudulent", fillcolor="#399de5f0"] ;
75 -> 76 ;
77 [label="gini = 0.0\nsamples = 2\nvalue = [2, 0]\nclass = Fraudulent", fillcolor="#e58139ff"] ;
76 -> 77 ;
78 [label="NumberOfSuppliments_more than 5 <= 0.5\ngini = 0.065\nsamples = 89\nvalue = [3, 86]\nclass = Non-Fraudulent", fillcolor="#399de5f6"] ;
76 -> 78 ;
79 [label="DaysDiff <= 0.145\ngini = 0.044\nsamples = 88\nvalue = [2, 86]\nclass = Non-Fraudulent", fillcolor="#399de5f9"] ;
78 -> 79 ;
80 [label="AgeOfVehicle_5 years <= 0.5\ngini = 0.023\nsamples = 87\nvalue = [1, 86]\nclass = Non-Fraudulent", fillcolor="#399de5fc"] ;
79 -> 80 ;
81 [label="gini = 0.0\nsamples = 77\nvalue = [0, 77]\nclass = Non-Fraudulent", fillcolor="#399de5ff"] ;
80 -> 81 ;
82 [label="MartalStatus_Single <= 0.5\ngini = 0.18\nsamples = 10\nvalue = [1, 9]\nclass = Non-Fraudulent", fillcolor="#399de5e3"] ;
80 -> 82 ;
83 [label="gini = 0.0\nsamples = 9\nvalue = [0, 9]\nclass = Non-Fraudulent", fillcolor="#399de5ff"] ;
82 -> 83 ;
84 [label="gini = 0.0\nsamples = 1\nvalue = [1, 0]\nclass = Fraudulent", fillcolor="#e58139ff"] ;
82 -> 84 ;
85 [label="gini = 0.0\nsamples = 1\nvalue = [1, 0]\nclass = Fraudulent", fillcolor="#e58139ff"] ;
79 -> 85 ;
86 [label="gini = 0.0\nsamples = 1\nvalue = [1, 0]\nclass = Fraudulent", fillcolor="#e58139ff"] ;
78 -> 86 ;
87 [label="Age <= 0.675\ngini = 0.362\nsamples = 97\nvalue = [23, 74]\nclass = Non-Fraudulent", fillcolor="#399de5b0"] ;
75 -> 87 ;
88 [label="DaysDiff <= 0.129\ngini = 0.493\nsamples = 25\nvalue = [14, 11]\nclass = Fraudulent", fillcolor="#e5813937"] ;
87 -> 88 ;
89 [label="gini = 0.0\nsamples = 14\nvalue = [14, 0]\nclass = Fraudulent", fillcolor="#e58139ff"] ;
88 -> 89 ;
90 [label="gini = 0.0\nsamples = 11\nvalue = [0, 11]\nclass = Non-Fraudulent", fillcolor="#399de5ff"] ;
88 -> 90 ;
91 [label="DaysDiff <= 0.06\ngini = 0.219\nsamples = 72\nvalue = [9, 63]\nclass = Non-Fraudulent", fillcolor="#399de5db"] ;
87 -> 91 ;
92 [label="gini = 0.0\nsamples = 2\nvalue = [2, 0]\nclass = Fraudulent", fillcolor="#e58139ff"] ;
91 -> 92 ;
93 [label="PastNumberOfClaims_2 to 4 <= 0.5\ngini = 0.18\nsamples = 70\nvalue = [7, 63]\nclass = Non-Fraudulent", fillcolor="#399de5e3"] ;
91 -> 93 ;
94 [label="AddressChange-Claim_2 to 3 years <= 0.5\ngini = 0.136\nsamples = 68\nvalue = [5, 63]\nclass = Non-Fraudulent", fillcolor="#399de5eb"] ;
93 -> 94 ;
95 [label="AgeOfVehicle_6 years <= 0.5\ngini = 0.112\nsamples = 67\nvalue = [4, 63]\nclass = Non-Fraudulent", fillcolor="#399de5ef"] ;
94 -> 95 ;
96 [label="Age <= 0.775\ngini = 0.087\nsamples = 66\nvalue = [3, 63]\nclass = Non-Fraudulent", fillcolor="#399de5f3"] ;
95 -> 96 ;
97 [label="gini = 0.0\nsamples = 39\nvalue = [0, 39]\nclass = Non-Fraudulent", fillcolor="#399de5ff"] ;
96 -> 97 ;
98 [label="Deductible <= 0.667\ngini = 0.198\nsamples = 27\nvalue = [3, 24]\nclass = Non-Fraudulent", fillcolor="#399de5df"] ;
96 -> 98 ;
99 [label="AccidentArea_Urban <= 0.5\ngini = 0.077\nsamples = 25\nvalue = [1, 24]\nclass = Non-Fraudulent", fillcolor="#399de5f4"] ;
98 -> 99 ;
100 [label="gini = 0.0\nsamples = 1\nvalue = [1, 0]\nclass = Fraudulent", fillcolor="#e58139ff"] ;
99 -> 100 ;
101 [label="gini = 0.0\nsamples = 24\nvalue = [0, 24]\nclass = Non-Fraudulent", fillcolor="#399de5ff"] ;
99 -> 101 ;
102 [label="gini = 0.0\nsamples = 2\nvalue = [2, 0]\nclass = Fraudulent", fillcolor="#e58139ff"] ;
98 -> 102 ;
103 [label="gini = 0.0\nsamples = 1\nvalue = [1, 0]\nclass = Fraudulent", fillcolor="#e58139ff"] ;
95 -> 103 ;
104 [label="gini = 0.0\nsamples = 1\nvalue = [1, 0]\nclass = Fraudulent", fillcolor="#e58139ff"] ;
94 -> 104 ;
105 [label="gini = 0.0\nsamples = 2\nvalue = [2, 0]\nclass = Fraudulent", fillcolor="#e58139ff"] ;
93 -> 105 ;
106 [label="gini = 0.0\nsamples = 5\nvalue = [5, 0]\nclass = Fraudulent", fillcolor="#e58139ff"] ;
72 -> 106 ;
107 [label="Age <= 0.931\ngini = 0.322\nsamples = 6933\nvalue = [1400, 5533]\nclass = Non-Fraudulent", fillcolor="#399de5be"] ;
5 -> 107 ;
108 [label="Sex_Male <= 0.5\ngini = 0.318\nsamples = 6865\nvalue = [1362, 5503]\nclass = Non-Fraudulent", fillcolor="#399de5c0"] ;
107 -> 108 ;
109 [label="Make_Accura <= 0.5\ngini = 0.433\nsamples = 562\nvalue = [178, 384]\nclass = Non-Fraudulent", fillcolor="#399de589"] ;
108 -> 109 ;
110 [label="AgeOfVehicle_3 years <= 0.5\ngini = 0.425\nsamples = 554\nvalue = [170, 384]\nclass = Non-Fraudulent", fillcolor="#399de58e"] ;
109 -> 110 ;
111 [label="DaysDiff <= 0.237\ngini = 0.418\nsamples = 547\nvalue = [163, 384]\nclass = Non-Fraudulent", fillcolor="#399de593"] ;
110 -> 111 ;
112 [label="VehiclePrice_30,000 to 39,000 <= 0.5\ngini = 0.412\nsamples = 541\nvalue = [157, 384]\nclass = Non-Fraudulent", fillcolor="#399de597"] ;
111 -> 112 ;
113 [label="DaysDiff <= 0.083\ngini = 0.4\nsamples = 521\nvalue = [144, 377]\nclass = Non-Fraudulent", fillcolor="#399de59e"] ;
112 -> 113 ;
114 [label="DriverRating <= 0.833\ngini = 0.444\nsamples = 325\nvalue = [108, 217]\nclass = Non-Fraudulent", fillcolor="#399de580"] ;
113 -> 114 ;
115 [label="PastNumberOfClaims_2 to 4 <= 0.5\ngini = 0.401\nsamples = 256\nvalue = [71, 185]\nclass = Non-Fraudulent", fillcolor="#399de59d"] ;
114 -> 115 ;
116 [label="DaysDiff <= 0.053\ngini = 0.451\nsamples = 175\nvalue = [60, 115]\nclass = Non-Fraudulent", fillcolor="#399de57a"] ;
115 -> 116 ;
117 [label="AgeOfVehicle_7 years <= 0.5\ngini = 0.175\nsamples = 62\nvalue = [6, 56]\nclass = Non-Fraudulent", fillcolor="#399de5e4"] ;
116 -> 117 ;
118 [label="DaysDiff <= 0.045\ngini = 0.097\nsamples = 59\nvalue = [3, 56]\nclass = Non-Fraudulent", fillcolor="#399de5f1"] ;
117 -> 118 ;
119 [label="gini = 0.0\nsamples = 2\nvalue = [2, 0]\nclass = Fraudulent", fillcolor="#e58139ff"] ;
118 -> 119 ;
120 [label="NumberOfSuppliments_3 to 5 <= 0.5\ngini = 0.034\nsamples = 57\nvalue = [1, 56]\nclass = Non-Fraudulent", fillcolor="#399de5fa"] ;
118 -> 120 ;
121 [label="gini = 0.0\nsamples = 56\nvalue = [0, 56]\nclass = Non-Fraudulent", fillcolor="#399de5ff"] ;
120 -> 121 ;
122 [label="gini = 0.0\nsamples = 1\nvalue = [1, 0]\nclass = Fraudulent", fillcolor="#e58139ff"] ;
120 -> 122 ;
123 [label="gini = 0.0\nsamples = 3\nvalue = [3, 0]\nclass = Fraudulent", fillcolor="#e58139ff"] ;
117 -> 123 ;
124 [label="AgeOfVehicle_6 years <= 0.5\ngini = 0.499\nsamples = 113\nvalue = [54, 59]\nclass = Non-Fraudulent", fillcolor="#399de516"] ;
116 -> 124 ;
125 [label="DaysDiff <= 0.058\ngini = 0.471\nsamples = 95\nvalue = [36, 59]\nclass = Non-Fraudulent", fillcolor="#399de563"] ;
124 -> 125 ;
126 [label="gini = 0.0\nsamples = 10\nvalue = [10, 0]\nclass = Fraudulent", fillcolor="#e58139ff"] ;
125 -> 126 ;
127 [label="NumberOfSuppliments_3 to 5 <= 0.5\ngini = 0.425\nsamples = 85\nvalue = [26, 59]\nclass = Non-Fraudulent", fillcolor="#399de58f"] ;
125 -> 127 ;
128 [label="AgeOfVehicle_7 years <= 0.5\ngini = 0.378\nsamples = 79\nvalue = [20, 59]\nclass = Non-Fraudulent", fillcolor="#399de5a9"] ;
127 -> 128 ;
129 [label="Deductible <= 0.167\ngini = 0.214\nsamples = 41\nvalue = [5, 36]\nclass = Non-Fraudulent", fillcolor="#399de5dc"] ;
128 -> 129 ;
130 [label="gini = 0.0\nsamples = 3\nvalue = [3, 0]\nclass = Fraudulent", fillcolor="#e58139ff"] ;
129 -> 130 ;
131 [label="Make_Honda <= 0.5\ngini = 0.1\nsamples = 38\nvalue = [2, 36]\nclass = Non-Fraudulent", fillcolor="#399de5f1"] ;
129 -> 131 ;
132 [label="gini = 0.0\nsamples = 28\nvalue = [0, 28]\nclass = Non-Fraudulent", fillcolor="#399de5ff"] ;
131 -> 132 ;
133 [label="Age <= 0.606\ngini = 0.32\nsamples = 10\nvalue = [2, 8]\nclass = Non-Fraudulent", fillcolor="#399de5bf"] ;
131 -> 133 ;
134 [label="gini = 0.0\nsamples = 2\nvalue = [2, 0]\nclass = Fraudulent", fillcolor="#e58139ff"] ;
133 -> 134 ;
135 [label="gini = 0.0\nsamples = 8\nvalue = [0, 8]\nclass = Non-Fraudulent", fillcolor="#399de5ff"] ;
133 -> 135 ;
136 [label="DaysDiff <= 0.072\ngini = 0.478\nsamples = 38\nvalue = [15, 23]\nclass = Non-Fraudulent", fillcolor="#399de559"] ;
128 -> 136 ;
137 [label="DriverRating <= 0.5\ngini = 0.383\nsamples = 31\nvalue = [8, 23]\nclass = Non-Fraudulent", fillcolor="#399de5a6"] ;
136 -> 137 ;
138 [label="Make_Pontiac <= 0.5\ngini = 0.252\nsamples = 27\nvalue = [4, 23]\nclass = Non-Fraudulent", fillcolor="#399de5d3"] ;
137 -> 138 ;
139 [label="AccidentArea_Urban <= 0.5\ngini = 0.204\nsamples = 26\nvalue = [3, 23]\nclass = Non-Fraudulent", fillcolor="#399de5de"] ;
138 -> 139 ;
140 [label="gini = 0.0\nsamples = 1\nvalue = [1, 0]\nclass = Fraudulent", fillcolor="#e58139ff"] ;
139 -> 140 ;
141 [label="NumberOfSuppliments_none <= 0.5\ngini = 0.147\nsamples = 25\nvalue = [2, 23]\nclass = Non-Fraudulent", fillcolor="#399de5e9"] ;
139 -> 141 ;
142 [label="gini = 0.0\nsamples = 15\nvalue = [0, 15]\nclass = Non-Fraudulent", fillcolor="#399de5ff"] ;
141 -> 142 ;
143 [label="DaysDiff <= 0.067\ngini = 0.32\nsamples = 10\nvalue = [2, 8]\nclass = Non-Fraudulent", fillcolor="#399de5bf"] ;
141 -> 143 ;
144 [label="gini = 0.0\nsamples = 2\nvalue = [2, 0]\nclass = Fraudulent", fillcolor="#e58139ff"] ;
143 -> 144 ;
145 [label="gini = 0.0\nsamples = 8\nvalue = [0, 8]\nclass = Non-Fraudulent", fillcolor="#399de5ff"] ;
143 -> 145 ;
146 [label="gini = 0.0\nsamples = 1\nvalue = [1, 0]\nclass = Fraudulent", fillcolor="#e58139ff"] ;
138 -> 146 ;
147 [label="gini = 0.0\nsamples = 4\nvalue = [4, 0]\nclass = Fraudulent", fillcolor="#e58139ff"] ;
137 -> 147 ;
148 [label="gini = 0.0\nsamples = 7\nvalue = [7, 0]\nclass = Fraudulent", fillcolor="#e58139ff"] ;
136 -> 148 ;
149 [label="gini = 0.0\nsamples = 6\nvalue = [6, 0]\nclass = Fraudulent", fillcolor="#e58139ff"] ;
127 -> 149 ;
150 [label="gini = 0.0\nsamples = 18\nvalue = [18, 0]\nclass = Fraudulent", fillcolor="#e58139ff"] ;
124 -> 150 ;
151 [label="Make_Honda <= 0.5\ngini = 0.235\nsamples = 81\nvalue = [11, 70]\nclass = Non-Fraudulent", fillcolor="#399de5d7"] ;
115 -> 151 ;
152 [label="DaysDiff <= 0.069\ngini = 0.184\nsamples = 78\nvalue = [8, 70]\nclass = Non-Fraudulent", fillcolor="#399de5e2"] ;
151 -> 152 ;
153 [label="NumberOfSuppliments_more than 5 <= 0.5\ngini = 0.391\nsamples = 30\nvalue = [8, 22]\nclass = Non-Fraudulent", fillcolor="#399de5a2"] ;
152 -> 153 ;
154 [label="AccidentArea_Rural <= 0.5\ngini = 0.337\nsamples = 28\nvalue = [6, 22]\nclass = Non-Fraudulent", fillcolor="#399de5b9"] ;
153 -> 154 ;
155 [label="DaysDiff <= 0.045\ngini = 0.302\nsamples = 27\nvalue = [5, 22]\nclass = Non-Fraudulent", fillcolor="#399de5c5"] ;
154 -> 155 ;
156 [label="gini = 0.0\nsamples = 1\nvalue = [1, 0]\nclass = Fraudulent", fillcolor="#e58139ff"] ;
155 -> 156 ;
157 [label="DaysDiff <= 0.065\ngini = 0.26\nsamples = 26\nvalue = [4, 22]\nclass = Non-Fraudulent", fillcolor="#399de5d1"] ;
155 -> 157 ;
158 [label="Make_Toyota <= 0.5\ngini = 0.211\nsamples = 25\nvalue = [3, 22]\nclass = Non-Fraudulent", fillcolor="#399de5dc"] ;
157 -> 158 ;
159 [label="gini = 0.0\nsamples = 15\nvalue = [0, 15]\nclass = Non-Fraudulent", fillcolor="#399de5ff"] ;
158 -> 159 ;
160 [label="NumberOfSuppliments_1 to 2 <= 0.5\ngini = 0.42\nsamples = 10\nvalue = [3, 7]\nclass = Non-Fraudulent", fillcolor="#399de592"] ;
158 -> 160 ;
161 [label="gini = 0.0\nsamples = 2\nvalue = [2, 0]\nclass = Fraudulent", fillcolor="#e58139ff"] ;
160 -> 161 ;
162 [label="DaysDiff <= 0.056\ngini = 0.219\nsamples = 8\nvalue = [1, 7]\nclass = Non-Fraudulent", fillcolor="#399de5db"] ;
160 -> 162 ;
163 [label="gini = 0.0\nsamples = 1\nvalue = [1, 0]\nclass = Fraudulent", fillcolor="#e58139ff"] ;
162 -> 163 ;
164 [label="gini = 0.0\nsamples = 7\nvalue = [0, 7]\nclass = Non-Fraudulent", fillcolor="#399de5ff"] ;
162 -> 164 ;
165 [label="gini = 0.0\nsamples = 1\nvalue = [1, 0]\nclass = Fraudulent", fillcolor="#e58139ff"] ;
157 -> 165 ;
166 [label="gini = 0.0\nsamples = 1\nvalue = [1, 0]\nclass = Fraudulent", fillcolor="#e58139ff"] ;
154 -> 166 ;
167 [label="gini = 0.0\nsamples = 2\nvalue = [2, 0]\nclass = Fraudulent", fillcolor="#e58139ff"] ;
153 -> 167 ;
168 [label="gini = 0.0\nsamples = 48\nvalue = [0, 48]\nclass = Non-Fraudulent", fillcolor="#399de5ff"] ;
152 -> 168 ;
169 [label="gini = 0.0\nsamples = 3\nvalue = [3, 0]\nclass = Fraudulent", fillcolor="#e58139ff"] ;
151 -> 169 ;
170 [label="VehiclePrice_less than 20,000 <= 0.5\ngini = 0.497\nsamples = 69\nvalue = [37, 32]\nclass = Fraudulent", fillcolor="#e5813922"] ;
114 -> 170 ;
171 [label="Make_Mazda <= 0.5\ngini = 0.382\nsamples = 35\nvalue = [26, 9]\nclass = Fraudulent", fillcolor="#e58139a7"] ;
170 -> 171 ;
172 [label="gini = 0.0\nsamples = 23\nvalue = [23, 0]\nclass = Fraudulent", fillcolor="#e58139ff"] ;
171 -> 172 ;
173 [label="Age <= 0.494\ngini = 0.375\nsamples = 12\nvalue = [3, 9]\nclass = Non-Fraudulent", fillcolor="#399de5aa"] ;
171 -> 173 ;
174 [label="gini = 0.0\nsamples = 3\nvalue = [3, 0]\nclass = Fraudulent", fillcolor="#e58139ff"] ;
173 -> 174 ;
175 [label="gini = 0.0\nsamples = 9\nvalue = [0, 9]\nclass = Non-Fraudulent", fillcolor="#399de5ff"] ;
173 -> 175 ;
176 [label="Age <= 0.481\ngini = 0.438\nsamples = 34\nvalue = [11, 23]\nclass = Non-Fraudulent", fillcolor="#399de585"] ;
170 -> 176 ;
177 [label="Age <= 0.425\ngini = 0.328\nsamples = 29\nvalue = [6, 23]\nclass = Non-Fraudulent", fillcolor="#399de5bc"] ;
176 -> 177 ;
178 [label="PastNumberOfClaims_1 <= 0.5\ngini = 0.497\nsamples = 13\nvalue = [6, 7]\nclass = Non-Fraudulent", fillcolor="#399de524"] ;
177 -> 178 ;
179 [label="gini = 0.0\nsamples = 5\nvalue = [5, 0]\nclass = Fraudulent", fillcolor="#e58139ff"] ;
178 -> 179 ;
180 [label="Age <= 0.362\ngini = 0.219\nsamples = 8\nvalue = [1, 7]\nclass = Non-Fraudulent", fillcolor="#399de5db"] ;
178 -> 180 ;
181 [label="gini = 0.0\nsamples = 7\nvalue = [0, 7]\nclass = Non-Fraudulent", fillcolor="#399de5ff"] ;
180 -> 181 ;
182 [label="gini = 0.0\nsamples = 1\nvalue = [1, 0]\nclass = Fraudulent", fillcolor="#e58139ff"] ;
180 -> 182 ;
183 [label="gini = 0.0\nsamples = 16\nvalue = [0, 16]\nclass = Non-Fraudulent", fillcolor="#399de5ff"] ;
177 -> 183 ;
184 [label="gini = 0.0\nsamples = 5\nvalue = [5, 0]\nclass = Fraudulent", fillcolor="#e58139ff"] ;
176 -> 184 ;
185 [label="Age <= 0.344\ngini = 0.3\nsamples = 196\nvalue = [36, 160]\nclass = Non-Fraudulent", fillcolor="#399de5c6"] ;
113 -> 185 ;
186 [label="gini = 0.0\nsamples = 8\nvalue = [8, 0]\nclass = Fraudulent", fillcolor="#e58139ff"] ;
185 -> 186 ;
187 [label="Make_Chevrolet <= 0.5\ngini = 0.254\nsamples = 188\nvalue = [28, 160]\nclass = Non-Fraudulent", fillcolor="#399de5d2"] ;
185 -> 187 ;
188 [label="DaysDiff <= 0.11\ngini = 0.22\nsamples = 183\nvalue = [23, 160]\nclass = Non-Fraudulent", fillcolor="#399de5da"] ;
187 -> 188 ;
189 [label="AgeOfVehicle_5 years <= 0.5\ngini = 0.124\nsamples = 135\nvalue = [9, 126]\nclass = Non-Fraudulent", fillcolor="#399de5ed"] ;
188 -> 189 ;
190 [label="NumberOfSuppliments_3 to 5 <= 0.5\ngini = 0.087\nsamples = 132\nvalue = [6, 126]\nclass = Non-Fraudulent", fillcolor="#399de5f3"] ;
189 -> 190 ;
191 [label="Make_Honda <= 0.5\ngini = 0.073\nsamples = 131\nvalue = [5, 126]\nclass = Non-Fraudulent", fillcolor="#399de5f5"] ;
190 -> 191 ;
192 [label="VehiclePrice_more than 69,000 <= 0.5\ngini = 0.06\nsamples = 130\nvalue = [4, 126]\nclass = Non-Fraudulent", fillcolor="#399de5f7"] ;
191 -> 192 ;
193 [label="Age <= 0.406\ngini = 0.045\nsamples = 129\nvalue = [3, 126]\nclass = Non-Fraudulent", fillcolor="#399de5f9"] ;
192 -> 193 ;
194 [label="gini = 0.0\nsamples = 59\nvalue = [0, 59]\nclass = Non-Fraudulent", fillcolor="#399de5ff"] ;
193 -> 194 ;
195 [label="Age <= 0.456\ngini = 0.082\nsamples = 70\nvalue = [3, 67]\nclass = Non-Fraudulent", fillcolor="#399de5f4"] ;
193 -> 195 ;
196 [label="gini = 0.0\nsamples = 1\nvalue = [1, 0]\nclass = Fraudulent", fillcolor="#e58139ff"] ;
195 -> 196 ;
197 [label="Age <= 0.519\ngini = 0.056\nsamples = 69\nvalue = [2, 67]\nclass = Non-Fraudulent", fillcolor="#399de5f7"] ;
195 -> 197 ;
198 [label="MartalStatus_Single <= 0.5\ngini = 0.245\nsamples = 7\nvalue = [1, 6]\nclass = Non-Fraudulent", fillcolor="#399de5d4"] ;
197 -> 198 ;
199 [label="gini = 0.0\nsamples = 1\nvalue = [1, 0]\nclass = Fraudulent", fillcolor="#e58139ff"] ;
198 -> 199 ;
200 [label="gini = 0.0\nsamples = 6\nvalue = [0, 6]\nclass = Non-Fraudulent", fillcolor="#399de5ff"] ;
198 -> 200 ;
201 [label="Age <= 0.594\ngini = 0.032\nsamples = 62\nvalue = [1, 61]\nclass = Non-Fraudulent", fillcolor="#399de5fb"] ;
197 -> 201 ;
202 [label="Age <= 0.575\ngini = 0.091\nsamples = 21\nvalue = [1, 20]\nclass = Non-Fraudulent", fillcolor="#399de5f2"] ;
201 -> 202 ;
203 [label="gini = 0.0\nsamples = 20\nvalue = [0, 20]\nclass = Non-Fraudulent", fillcolor="#399de5ff"] ;
202 -> 203 ;
204 [label="gini = 0.0\nsamples = 1\nvalue = [1, 0]\nclass = Fraudulent", fillcolor="#e58139ff"] ;
202 -> 204 ;
205 [label="gini = 0.0\nsamples = 41\nvalue = [0, 41]\nclass = Non-Fraudulent", fillcolor="#399de5ff"] ;
201 -> 205 ;
206 [label="gini = 0.0\nsamples = 1\nvalue = [1, 0]\nclass = Fraudulent", fillcolor="#e58139ff"] ;
192 -> 206 ;
207 [label="gini = 0.0\nsamples = 1\nvalue = [1, 0]\nclass = Fraudulent", fillcolor="#e58139ff"] ;
191 -> 207 ;
208 [label="gini = 0.0\nsamples = 1\nvalue = [1, 0]\nclass = Fraudulent", fillcolor="#e58139ff"] ;
190 -> 208 ;
209 [label="gini = 0.0\nsamples = 3\nvalue = [3, 0]\nclass = Fraudulent", fillcolor="#e58139ff"] ;
189 -> 209 ;
210 [label="Age <= 0.45\ngini = 0.413\nsamples = 48\nvalue = [14, 34]\nclass = Non-Fraudulent", fillcolor="#399de596"] ;
188 -> 210 ;
211 [label="VehiclePrice_less than 20,000 <= 0.5\ngini = 0.283\nsamples = 41\nvalue = [7, 34]\nclass = Non-Fraudulent", fillcolor="#399de5ca"] ;
210 -> 211 ;
212 [label="AgeOfVehicle_6 years <= 0.5\ngini = 0.188\nsamples = 38\nvalue = [4, 34]\nclass = Non-Fraudulent", fillcolor="#399de5e1"] ;
211 -> 212 ;
213 [label="NumberOfSuppliments_1 to 2 <= 0.5\ngini = 0.105\nsamples = 36\nvalue = [2, 34]\nclass = Non-Fraudulent", fillcolor="#399de5f0"] ;
212 -> 213 ;
214 [label="DriverRating <= 0.5\ngini = 0.056\nsamples = 35\nvalue = [1, 34]\nclass = Non-Fraudulent", fillcolor="#399de5f8"] ;
213 -> 214 ;
215 [label="Deductible <= 0.167\ngini = 0.219\nsamples = 8\nvalue = [1, 7]\nclass = Non-Fraudulent", fillcolor="#399de5db"] ;
214 -> 215 ;
216 [label="gini = 0.0\nsamples = 7\nvalue = [0, 7]\nclass = Non-Fraudulent", fillcolor="#399de5ff"] ;
215 -> 216 ;
217 [label="gini = 0.0\nsamples = 1\nvalue = [1, 0]\nclass = Fraudulent", fillcolor="#e58139ff"] ;
215 -> 217 ;
218 [label="gini = 0.0\nsamples = 27\nvalue = [0, 27]\nclass = Non-Fraudulent", fillcolor="#399de5ff"] ;
214 -> 218 ;
219 [label="gini = 0.0\nsamples = 1\nvalue = [1, 0]\nclass = Fraudulent", fillcolor="#e58139ff"] ;
213 -> 219 ;
220 [label="gini = 0.0\nsamples = 2\nvalue = [2, 0]\nclass = Fraudulent", fillcolor="#e58139ff"] ;
212 -> 220 ;
221 [label="gini = 0.0\nsamples = 3\nvalue = [3, 0]\nclass = Fraudulent", fillcolor="#e58139ff"] ;
211 -> 221 ;
222 [label="gini = 0.0\nsamples = 7\nvalue = [7, 0]\nclass = Fraudulent", fillcolor="#e58139ff"] ;
210 -> 222 ;
223 [label="gini = 0.0\nsamples = 5\nvalue = [5, 0]\nclass = Fraudulent", fillcolor="#e58139ff"] ;
187 -> 223 ;
224 [label="Age <= 0.356\ngini = 0.455\nsamples = 20\nvalue = [13, 7]\nclass = Fraudulent", fillcolor="#e5813976"] ;
112 -> 224 ;
225 [label="gini = 0.0\nsamples = 7\nvalue = [0, 7]\nclass = Non-Fraudulent", fillcolor="#399de5ff"] ;
224 -> 225 ;
226 [label="gini = 0.0\nsamples = 13\nvalue = [13, 0]\nclass = Fraudulent", fillcolor="#e58139ff"] ;
224 -> 226 ;
227 [label="gini = 0.0\nsamples = 6\nvalue = [6, 0]\nclass = Fraudulent", fillcolor="#e58139ff"] ;
111 -> 227 ;
228 [label="gini = 0.0\nsamples = 7\nvalue = [7, 0]\nclass = Fraudulent", fillcolor="#e58139ff"] ;
110 -> 228 ;
229 [label="gini = 0.0\nsamples = 8\nvalue = [8, 0]\nclass = Fraudulent", fillcolor="#e58139ff"] ;
109 -> 229 ;
230 [label="AgeOfVehicle_more than 7 <= 0.5\ngini = 0.305\nsamples = 6303\nvalue = [1184, 5119]\nclass = Non-Fraudulent", fillcolor="#399de5c4"] ;
108 -> 230 ;
231 [label="DaysDiff <= 0.045\ngini = 0.279\nsamples = 4628\nvalue = [776, 3852]\nclass = Non-Fraudulent", fillcolor="#399de5cc"] ;
230 -> 231 ;
232 [label="AgeOfVehicle_5 years <= 0.5\ngini = 0.461\nsamples = 36\nvalue = [23, 13]\nclass = Fraudulent", fillcolor="#e581396f"] ;
231 -> 232 ;
233 [label="gini = 0.0\nsamples = 21\nvalue = [21, 0]\nclass = Fraudulent", fillcolor="#e58139ff"] ;
232 -> 233 ;
234 [label="Deductible <= 0.333\ngini = 0.231\nsamples = 15\nvalue = [2, 13]\nclass = Non-Fraudulent", fillcolor="#399de5d8"] ;
232 -> 234 ;
235 [label="gini = 0.0\nsamples = 13\nvalue = [0, 13]\nclass = Non-Fraudulent", fillcolor="#399de5ff"] ;
234 -> 235 ;
236 [label="gini = 0.0\nsamples = 2\nvalue = [2, 0]\nclass = Fraudulent", fillcolor="#e58139ff"] ;
234 -> 236 ;
237 [label="Make_VW <= 0.5\ngini = 0.274\nsamples = 4592\nvalue = [753, 3839]\nclass = Non-Fraudulent", fillcolor="#399de5cd"] ;
231 -> 237 ;
238 [label="DaysDiff <= 0.06\ngini = 0.271\nsamples = 4563\nvalue = [737, 3826]\nclass = Non-Fraudulent", fillcolor="#399de5ce"] ;
237 -> 238 ;
239 [label="VehiclePrice_30,000 to 39,000 <= 0.5\ngini = 0.345\nsamples = 847\nvalue = [188, 659]\nclass = Non-Fraudulent", fillcolor="#399de5b6"] ;
238 -> 239 ;
240 [label="PastNumberOfClaims_more than 4 <= 0.5\ngini = 0.32\nsamples = 780\nvalue = [156, 624]\nclass = Non-Fraudulent", fillcolor="#399de5bf"] ;
239 -> 240 ;
241 [label="Make_Honda <= 0.5\ngini = 0.309\nsamples = 771\nvalue = [147, 624]\nclass = Non-Fraudulent", fillcolor="#399de5c3"] ;
240 -> 241 ;
242 [label="Make_Toyota <= 0.5\ngini = 0.282\nsamples = 670\nvalue = [114, 556]\nclass = Non-Fraudulent", fillcolor="#399de5cb"] ;
241 -> 242 ;
243 [label="AgeOfVehicle_7 years <= 0.5\ngini = 0.239\nsamples = 483\nvalue = [67, 416]\nclass = Non-Fraudulent", fillcolor="#399de5d6"] ;
242 -> 243 ;
244 [label="DaysDiff <= 0.053\ngini = 0.377\nsamples = 115\nvalue = [29, 86]\nclass = Non-Fraudulent", fillcolor="#399de5a9"] ;
243 -> 244 ;
245 [label="NumberOfSuppliments_more than 5 <= 0.5\ngini = 0.204\nsamples = 78\nvalue = [9, 69]\nclass = Non-Fraudulent", fillcolor="#399de5de"] ;
244 -> 245 ;
246 [label="AgeOfVehicle_6 years <= 0.5\ngini = 0.167\nsamples = 76\nvalue = [7, 69]\nclass = Non-Fraudulent", fillcolor="#399de5e5"] ;
245 -> 246 ;
247 [label="gini = 0.0\nsamples = 2\nvalue = [2, 0]\nclass = Fraudulent", fillcolor="#e58139ff"] ;
246 -> 247 ;
248 [label="Days:Policy-Accident_more than 30 <= 0.5\ngini = 0.126\nsamples = 74\nvalue = [5, 69]\nclass = Non-Fraudulent", fillcolor="#399de5ed"] ;
246 -> 248 ;
249 [label="gini = 0.0\nsamples = 1\nvalue = [1, 0]\nclass = Fraudulent", fillcolor="#e58139ff"] ;
248 -> 249 ;
250 [label="Make_Chevrolet <= 0.5\ngini = 0.104\nsamples = 73\nvalue = [4, 69]\nclass = Non-Fraudulent", fillcolor="#399de5f0"] ;
248 -> 250 ;
251 [label="Age <= 0.644\ngini = 0.08\nsamples = 72\nvalue = [3, 69]\nclass = Non-Fraudulent", fillcolor="#399de5f4"] ;
250 -> 251 ;
252 [label="Make_Pontiac <= 0.5\ngini = 0.055\nsamples = 71\nvalue = [2, 69]\nclass = Non-Fraudulent", fillcolor="#399de5f8"] ;
251 -> 252 ;
253 [label="gini = 0.0\nsamples = 44\nvalue = [0, 44]\nclass = Non-Fraudulent", fillcolor="#399de5ff"] ;
252 -> 253 ;
254 [label="MartalStatus_Married <= 0.5\ngini = 0.137\nsamples = 27\nvalue = [2, 25]\nclass = Non-Fraudulent", fillcolor="#399de5eb"] ;
252 -> 254 ;
255 [label="gini = 0.0\nsamples = 25\nvalue = [0, 25]\nclass = Non-Fraudulent", fillcolor="#399de5ff"] ;
254 -> 255 ;
256 [label="gini = 0.0\nsamples = 2\nvalue = [2, 0]\nclass = Fraudulent", fillcolor="#e58139ff"] ;
254 -> 256 ;
257 [label="gini = 0.0\nsamples = 1\nvalue = [1, 0]\nclass = Fraudulent", fillcolor="#e58139ff"] ;
251 -> 257 ;
258 [label="gini = 0.0\nsamples = 1\nvalue = [1, 0]\nclass = Fraudulent", fillcolor="#e58139ff"] ;
250 -> 258 ;
259 [label="gini = 0.0\nsamples = 2\nvalue = [2, 0]\nclass = Fraudulent", fillcolor="#e58139ff"] ;
245 -> 259 ;
260 [label="Age <= 0.294\ngini = 0.497\nsamples = 37\nvalue = [20, 17]\nclass = Fraudulent", fillcolor="#e5813926"] ;
244 -> 260 ;
261 [label="Make_Pontiac <= 0.5\ngini = 0.188\nsamples = 19\nvalue = [2, 17]\nclass = Non-Fraudulent", fillcolor="#399de5e1"] ;
260 -> 261 ;
262 [label="gini = 0.0\nsamples = 17\nvalue = [0, 17]\nclass = Non-Fraudulent", fillcolor="#399de5ff"] ;
261 -> 262 ;
263 [label="gini = 0.0\nsamples = 2\nvalue = [2, 0]\nclass = Fraudulent", fillcolor="#e58139ff"] ;
261 -> 263 ;
264 [label="gini = 0.0\nsamples = 18\nvalue = [18, 0]\nclass = Fraudulent", fillcolor="#e58139ff"] ;
260 -> 264 ;
265 [label="Make_Saturn <= 0.5\ngini = 0.185\nsamples = 368\nvalue = [38, 330]\nclass = Non-Fraudulent", fillcolor="#399de5e2"] ;
243 -> 265 ;
266 [label="AccidentArea_Rural <= 0.5\ngini = 0.177\nsamples = 366\nvalue = [36, 330]\nclass = Non-Fraudulent", fillcolor="#399de5e3"] ;
265 -> 266 ;
267 [label="VehiclePrice_less than 20,000 <= 0.5\ngini = 0.159\nsamples = 344\nvalue = [30, 314]\nclass = Non-Fraudulent", fillcolor="#399de5e7"] ;
266 -> 267 ;
268 [label="Age <= 0.344\ngini = 0.127\nsamples = 308\nvalue = [21, 287]\nclass = Non-Fraudulent", fillcolor="#399de5ec"] ;
267 -> 268 ;
269 [label="gini = 0.0\nsamples = 1\nvalue = [1, 0]\nclass = Fraudulent", fillcolor="#e58139ff"] ;
268 -> 269 ;
270 [label="Age <= 0.406\ngini = 0.122\nsamples = 307\nvalue = [20, 287]\nclass = Non-Fraudulent", fillcolor="#399de5ed"] ;
268 -> 270 ;
271 [label="Deductible <= 0.5\ngini = 0.23\nsamples = 68\nvalue = [9, 59]\nclass = Non-Fraudulent", fillcolor="#399de5d8"] ;
270 -> 271 ;
272 [label="gini = 0.0\nsamples = 5\nvalue = [5, 0]\nclass = Fraudulent", fillcolor="#e58139ff"] ;
271 -> 272 ;
273 [label="PastNumberOfClaims_1 <= 0.5\ngini = 0.119\nsamples = 63\nvalue = [4, 59]\nclass = Non-Fraudulent", fillcolor="#399de5ee"] ;
271 -> 273 ;
274 [label="NumberOfSuppliments_1 to 2 <= 0.5\ngini = 0.063\nsamples = 61\nvalue = [2, 59]\nclass = Non-Fraudulent", fillcolor="#399de5f6"] ;
273 -> 274 ;
275 [label="NumberOfSuppliments_more than 5 <= 0.5\ngini = 0.033\nsamples = 60\nvalue = [1, 59]\nclass = Non-Fraudulent", fillcolor="#399de5fb"] ;
274 -> 275 ;
276 [label="DaysDiff <= 0.058\ngini = 0.095\nsamples = 20\nvalue = [1, 19]\nclass = Non-Fraudulent", fillcolor="#399de5f2"] ;
275 -> 276 ;
277 [label="gini = 0.0\nsamples = 1\nvalue = [1, 0]\nclass = Fraudulent", fillcolor="#e58139ff"] ;
276 -> 277 ;
278 [label="gini = 0.0\nsamples = 19\nvalue = [0, 19]\nclass = Non-Fraudulent", fillcolor="#399de5ff"] ;
276 -> 278 ;
279 [label="gini = 0.0\nsamples = 40\nvalue = [0, 40]\nclass = Non-Fraudulent", fillcolor="#399de5ff"] ;
275 -> 279 ;
280 [label="gini = 0.0\nsamples = 1\nvalue = [1, 0]\nclass = Fraudulent", fillcolor="#e58139ff"] ;
274 -> 280 ;
281 [label="gini = 0.0\nsamples = 2\nvalue = [2, 0]\nclass = Fraudulent", fillcolor="#e58139ff"] ;
273 -> 281 ;
282 [label="DaysDiff <= 0.047\ngini = 0.088\nsamples = 239\nvalue = [11, 228]\nclass = Non-Fraudulent", fillcolor="#399de5f3"] ;
270 -> 282 ;
283 [label="NumberOfSuppliments_1 to 2 <= 0.5\ngini = 0.305\nsamples = 16\nvalue = [3, 13]\nclass = Non-Fraudulent", fillcolor="#399de5c4"] ;
282 -> 283 ;
284 [label="gini = 0.0\nsamples = 3\nvalue = [3, 0]\nclass = Fraudulent", fillcolor="#e58139ff"] ;
283 -> 284 ;
285 [label="gini = 0.0\nsamples = 13\nvalue = [0, 13]\nclass = Non-Fraudulent", fillcolor="#399de5ff"] ;
283 -> 285 ;
286 [label="VehiclePrice_20,000 to 29,000 <= 0.5\ngini = 0.069\nsamples = 223\nvalue = [8, 215]\nclass = Non-Fraudulent", fillcolor="#399de5f6"] ;
282 -> 286 ;
287 [label="Make_Mercury <= 0.5\ngini = 0.035\nsamples = 111\nvalue = [2, 109]\nclass = Non-Fraudulent", fillcolor="#399de5fa"] ;
286 -> 287 ;
288 [label="NumberOfSuppliments_3 to 5 <= 0.5\ngini = 0.018\nsamples = 110\nvalue = [1, 109]\nclass = Non-Fraudulent", fillcolor="#399de5fd"] ;
287 -> 288 ;
289 [label="gini = 0.0\nsamples = 90\nvalue = [0, 90]\nclass = Non-Fraudulent", fillcolor="#399de5ff"] ;
288 -> 289 ;
290 [label="PastNumberOfClaims_none <= 0.5\ngini = 0.095\nsamples = 20\nvalue = [1, 19]\nclass = Non-Fraudulent", fillcolor="#399de5f2"] ;
288 -> 290 ;
291 [label="gini = 0.0\nsamples = 1\nvalue = [1, 0]\nclass = Fraudulent", fillcolor="#e58139ff"] ;
290 -> 291 ;
292 [label="gini = 0.0\nsamples = 19\nvalue = [0, 19]\nclass = Non-Fraudulent", fillcolor="#399de5ff"] ;
290 -> 292 ;
293 [label="gini = 0.0\nsamples = 1\nvalue = [1, 0]\nclass = Fraudulent", fillcolor="#e58139ff"] ;
287 -> 293 ;
294 [label="Age <= 0.431\ngini = 0.101\nsamples = 112\nvalue = [6, 106]\nclass = Non-Fraudulent", fillcolor="#399de5f1"] ;
286 -> 294 ;
295 [label="gini = 0.0\nsamples = 1\nvalue = [1, 0]\nclass = Fraudulent", fillcolor="#e58139ff"] ;
294 -> 295 ;
296 [label="Age <= 0.481\ngini = 0.086\nsamples = 111\nvalue = [5, 106]\nclass = Non-Fraudulent", fillcolor="#399de5f3"] ;
294 -> 296 ;
297 [label="gini = 0.0\nsamples = 49\nvalue = [0, 49]\nclass = Non-Fraudulent", fillcolor="#399de5ff"] ;
296 -> 297 ;
298 [label="DaysDiff <= 0.058\ngini = 0.148\nsamples = 62\nvalue = [5, 57]\nclass = Non-Fraudulent", fillcolor="#399de5e9"] ;
296 -> 298 ;
299 [label="DaysDiff <= 0.053\ngini = 0.065\nsamples = 59\nvalue = [2, 57]\nclass = Non-Fraudulent", fillcolor="#399de5f6"] ;
298 -> 299 ;
300 [label="gini = 0.0\nsamples = 45\nvalue = [0, 45]\nclass = Non-Fraudulent", fillcolor="#399de5ff"] ;
299 -> 300 ;
301 [label="DriverRating <= 0.167\ngini = 0.245\nsamples = 14\nvalue = [2, 12]\nclass = Non-Fraudulent", fillcolor="#399de5d4"] ;
299 -> 301 ;
302 [label="gini = 0.0\nsamples = 12\nvalue = [0, 12]\nclass = Non-Fraudulent", fillcolor="#399de5ff"] ;
301 -> 302 ;
303 [label="gini = 0.0\nsamples = 2\nvalue = [2, 0]\nclass = Fraudulent", fillcolor="#e58139ff"] ;
301 -> 303 ;
304 [label="gini = 0.0\nsamples = 3\nvalue = [3, 0]\nclass = Fraudulent", fillcolor="#e58139ff"] ;
298 -> 304 ;
305 [label="Age <= 0.394\ngini = 0.375\nsamples = 36\nvalue = [9, 27]\nclass = Non-Fraudulent", fillcolor="#399de5aa"] ;
267 -> 305 ;
306 [label="gini = 0.0\nsamples = 27\nvalue = [0, 27]\nclass = Non-Fraudulent", fillcolor="#399de5ff"] ;
305 -> 306 ;
307 [label="gini = 0.0\nsamples = 9\nvalue = [9, 0]\nclass = Fraudulent", fillcolor="#e58139ff"] ;
305 -> 307 ;
308 [label="MartalStatus_Married <= 0.5\ngini = 0.397\nsamples = 22\nvalue = [6, 16]\nclass = Non-Fraudulent", fillcolor="#399de59f"] ;
266 -> 308 ;
309 [label="gini = 0.0\nsamples = 16\nvalue = [0, 16]\nclass = Non-Fraudulent", fillcolor="#399de5ff"] ;
308 -> 309 ;
310 [label="gini = 0.0\nsamples = 6\nvalue = [6, 0]\nclass = Fraudulent", fillcolor="#e58139ff"] ;
308 -> 310 ;
311 [label="gini = 0.0\nsamples = 2\nvalue = [2, 0]\nclass = Fraudulent", fillcolor="#e58139ff"] ;
265 -> 311 ;
312 [label="PastNumberOfClaims_2 to 4 <= 0.5\ngini = 0.376\nsamples = 187\nvalue = [47, 140]\nclass = Non-Fraudulent", fillcolor="#399de5a9"] ;
242 -> 312 ;
313 [label="DaysDiff <= 0.047\ngini = 0.316\nsamples = 168\nvalue = [33, 135]\nclass = Non-Fraudulent", fillcolor="#399de5c1"] ;
312 -> 313 ;
314 [label="gini = 0.0\nsamples = 6\nvalue = [6, 0]\nclass = Fraudulent", fillcolor="#e58139ff"] ;
313 -> 314 ;
315 [label="NumberOfSuppliments_3 to 5 <= 0.5\ngini = 0.278\nsamples = 162\nvalue = [27, 135]\nclass = Non-Fraudulent", fillcolor="#399de5cc"] ;
313 -> 315 ;
316 [label="VehiclePrice_more than 69,000 <= 0.5\ngini = 0.241\nsamples = 157\nvalue = [22, 135]\nclass = Non-Fraudulent", fillcolor="#399de5d5"] ;
315 -> 316 ;
317 [label="Age <= 0.331\ngini = 0.216\nsamples = 154\nvalue = [19, 135]\nclass = Non-Fraudulent", fillcolor="#399de5db"] ;
316 -> 317 ;
318 [label="gini = 0.0\nsamples = 2\nvalue = [2, 0]\nclass = Fraudulent", fillcolor="#e58139ff"] ;
317 -> 318 ;
319 [label="NumberOfSuppliments_1 to 2 <= 0.5\ngini = 0.199\nsamples = 152\nvalue = [17, 135]\nclass = Non-Fraudulent", fillcolor="#399de5df"] ;
317 -> 319 ;
320 [label="Age <= 0.769\ngini = 0.156\nsamples = 141\nvalue = [12, 129]\nclass = Non-Fraudulent", fillcolor="#399de5e7"] ;
319 -> 320 ;
321 [label="Age <= 0.375\ngini = 0.134\nsamples = 139\nvalue = [10, 129]\nclass = Non-Fraudulent", fillcolor="#399de5eb"] ;
320 -> 321 ;
322 [label="Age <= 0.344\ngini = 0.308\nsamples = 21\nvalue = [4, 17]\nclass = Non-Fraudulent", fillcolor="#399de5c3"] ;
321 -> 322 ;
323 [label="gini = 0.0\nsamples = 17\nvalue = [0, 17]\nclass = Non-Fraudulent", fillcolor="#399de5ff"] ;
322 -> 323 ;
324 [label="gini = 0.0\nsamples = 4\nvalue = [4, 0]\nclass = Fraudulent", fillcolor="#e58139ff"] ;
322 -> 324 ;
325 [label="Deductible <= 0.5\ngini = 0.097\nsamples = 118\nvalue = [6, 112]\nclass = Non-Fraudulent", fillcolor="#399de5f1"] ;
321 -> 325 ;
326 [label="AgeOfVehicle_7 years <= 0.5\ngini = 0.251\nsamples = 34\nvalue = [5, 29]\nclass = Non-Fraudulent", fillcolor="#399de5d3"] ;
325 -> 326 ;
327 [label="AccidentArea_Urban <= 0.5\ngini = 0.17\nsamples = 32\nvalue = [3, 29]\nclass = Non-Fraudulent", fillcolor="#399de5e5"] ;
326 -> 327 ;
328 [label="gini = 0.0\nsamples = 1\nvalue = [1, 0]\nclass = Fraudulent", fillcolor="#e58139ff"] ;
327 -> 328 ;
329 [label="DriverRating <= 0.167\ngini = 0.121\nsamples = 31\nvalue = [2, 29]\nclass = Non-Fraudulent", fillcolor="#399de5ed"] ;
327 -> 329 ;
330 [label="VehiclePrice_less than 20,000 <= 0.5\ngini = 0.064\nsamples = 30\nvalue = [1, 29]\nclass = Non-Fraudulent", fillcolor="#399de5f6"] ;
329 -> 330 ;
331 [label="gini = 0.0\nsamples = 18\nvalue = [0, 18]\nclass = Non-Fraudulent", fillcolor="#399de5ff"] ;
330 -> 331 ;
332 [label="PastNumberOfClaims_none <= 0.5\ngini = 0.153\nsamples = 12\nvalue = [1, 11]\nclass = Non-Fraudulent", fillcolor="#399de5e8"] ;
330 -> 332 ;
333 [label="gini = 0.0\nsamples = 11\nvalue = [0, 11]\nclass = Non-Fraudulent", fillcolor="#399de5ff"] ;
332 -> 333 ;
334 [label="gini = 0.0\nsamples = 1\nvalue = [1, 0]\nclass = Fraudulent", fillcolor="#e58139ff"] ;
332 -> 334 ;
335 [label="gini = 0.0\nsamples = 1\nvalue = [1, 0]\nclass = Fraudulent", fillcolor="#e58139ff"] ;
329 -> 335 ;
336 [label="gini = 0.0\nsamples = 2\nvalue = [2, 0]\nclass = Fraudulent", fillcolor="#e58139ff"] ;
326 -> 336 ;
337 [label="Age <= 0.644\ngini = 0.024\nsamples = 84\nvalue = [1, 83]\nclass = Non-Fraudulent", fillcolor="#399de5fc"] ;
325 -> 337 ;
338 [label="gini = 0.0\nsamples = 83\nvalue = [0, 83]\nclass = Non-Fraudulent", fillcolor="#399de5ff"] ;
337 -> 338 ;
339 [label="gini = 0.0\nsamples = 1\nvalue = [1, 0]\nclass = Fraudulent", fillcolor="#e58139ff"] ;
337 -> 339 ;
340 [label="gini = 0.0\nsamples = 2\nvalue = [2, 0]\nclass = Fraudulent", fillcolor="#e58139ff"] ;
320 -> 340 ;
341 [label="Age <= 0.663\ngini = 0.496\nsamples = 11\nvalue = [5, 6]\nclass = Non-Fraudulent", fillcolor="#399de52a"] ;
319 -> 341 ;
342 [label="gini = 0.0\nsamples = 5\nvalue = [5, 0]\nclass = Fraudulent", fillcolor="#e58139ff"] ;
341 -> 342 ;
343 [label="gini = 0.0\nsamples = 6\nvalue = [0, 6]\nclass = Non-Fraudulent", fillcolor="#399de5ff"] ;
341 -> 343 ;
344 [label="gini = 0.0\nsamples = 3\nvalue = [3, 0]\nclass = Fraudulent", fillcolor="#e58139ff"] ;
316 -> 344 ;
345 [label="gini = 0.0\nsamples = 5\nvalue = [5, 0]\nclass = Fraudulent", fillcolor="#e58139ff"] ;
315 -> 345 ;
346 [label="NumberOfCars_3 to 4 <= 0.5\ngini = 0.388\nsamples = 19\nvalue = [14, 5]\nclass = Fraudulent", fillcolor="#e58139a4"] ;
312 -> 346 ;
347 [label="gini = 0.0\nsamples = 14\nvalue = [14, 0]\nclass = Fraudulent", fillcolor="#e58139ff"] ;
346 -> 347 ;
348 [label="gini = 0.0\nsamples = 5\nvalue = [0, 5]\nclass = Non-Fraudulent", fillcolor="#399de5ff"] ;
346 -> 348 ;
349 [label="Age <= 0.456\ngini = 0.44\nsamples = 101\nvalue = [33, 68]\nclass = Non-Fraudulent", fillcolor="#399de583"] ;
241 -> 349 ;
350 [label="DaysDiff <= 0.051\ngini = 0.32\nsamples = 85\nvalue = [17, 68]\nclass = Non-Fraudulent", fillcolor="#399de5bf"] ;
349 -> 350 ;
351 [label="NumberOfSuppliments_more than 5 <= 0.5\ngini = 0.168\nsamples = 65\nvalue = [6, 59]\nclass = Non-Fraudulent", fillcolor="#399de5e5"] ;
350 -> 351 ;
352 [label="AccidentArea_Urban <= 0.5\ngini = 0.119\nsamples = 63\nvalue = [4, 59]\nclass = Non-Fraudulent", fillcolor="#399de5ee"] ;
351 -> 352 ;
353 [label="gini = 0.0\nsamples = 2\nvalue = [2, 0]\nclass = Fraudulent", fillcolor="#e58139ff"] ;
352 -> 353 ;
354 [label="AddressChange-Claim_no change <= 0.5\ngini = 0.063\nsamples = 61\nvalue = [2, 59]\nclass = Non-Fraudulent", fillcolor="#399de5f6"] ;
352 -> 354 ;
355 [label="gini = 0.0\nsamples = 1\nvalue = [1, 0]\nclass = Fraudulent", fillcolor="#e58139ff"] ;
354 -> 355 ;
356 [label="AgeOfVehicle_5 years <= 0.5\ngini = 0.033\nsamples = 60\nvalue = [1, 59]\nclass = Non-Fraudulent", fillcolor="#399de5fb"] ;
354 -> 356 ;
357 [label="gini = 0.0\nsamples = 59\nvalue = [0, 59]\nclass = Non-Fraudulent", fillcolor="#399de5ff"] ;
356 -> 357 ;
358 [label="gini = 0.0\nsamples = 1\nvalue = [1, 0]\nclass = Fraudulent", fillcolor="#e58139ff"] ;
356 -> 358 ;
359 [label="gini = 0.0\nsamples = 2\nvalue = [2, 0]\nclass = Fraudulent", fillcolor="#e58139ff"] ;
351 -> 359 ;
360 [label="AddressChange-Claim_1 year <= 0.5\ngini = 0.495\nsamples = 20\nvalue = [11, 9]\nclass = Fraudulent", fillcolor="#e581392e"] ;
350 -> 360 ;
361 [label="gini = 0.0\nsamples = 11\nvalue = [11, 0]\nclass = Fraudulent", fillcolor="#e58139ff"] ;
360 -> 361 ;
362 [label="gini = 0.0\nsamples = 9\nvalue = [0, 9]\nclass = Non-Fraudulent", fillcolor="#399de5ff"] ;
360 -> 362 ;
363 [label="gini = 0.0\nsamples = 16\nvalue = [16, 0]\nclass = Fraudulent", fillcolor="#e58139ff"] ;
349 -> 363 ;
364 [label="gini = 0.0\nsamples = 9\nvalue = [9, 0]\nclass = Fraudulent", fillcolor="#e58139ff"] ;
240 -> 364 ;
365 [label="Age <= 0.4\ngini = 0.499\nsamples = 67\nvalue = [32, 35]\nclass = Non-Fraudulent", fillcolor="#399de516"] ;
239 -> 365 ;
366 [label="DaysDiff <= 0.058\ngini = 0.364\nsamples = 46\nvalue = [11, 35]\nclass = Non-Fraudulent", fillcolor="#399de5af"] ;
365 -> 366 ;
367 [label="gini = 0.0\nsamples = 7\nvalue = [7, 0]\nclass = Fraudulent", fillcolor="#e58139ff"] ;
366 -> 367 ;
368 [label="PastNumberOfClaims_2 to 4 <= 0.5\ngini = 0.184\nsamples = 39\nvalue = [4, 35]\nclass = Non-Fraudulent", fillcolor="#399de5e2"] ;
366 -> 368 ;
369 [label="Age <= 0.344\ngini = 0.054\nsamples = 36\nvalue = [1, 35]\nclass = Non-Fraudulent", fillcolor="#399de5f8"] ;
368 -> 369 ;
370 [label="gini = 0.0\nsamples = 1\nvalue = [1, 0]\nclass = Fraudulent", fillcolor="#e58139ff"] ;
369 -> 370 ;
371 [label="gini = 0.0\nsamples = 35\nvalue = [0, 35]\nclass = Non-Fraudulent", fillcolor="#399de5ff"] ;
369 -> 371 ;
372 [label="gini = 0.0\nsamples = 3\nvalue = [3, 0]\nclass = Fraudulent", fillcolor="#e58139ff"] ;
368 -> 372 ;
373 [label="gini = 0.0\nsamples = 21\nvalue = [21, 0]\nclass = Fraudulent", fillcolor="#e58139ff"] ;
365 -> 373 ;
374 [label="NumberOfCars_3 to 4 <= 0.5\ngini = 0.252\nsamples = 3716\nvalue = [549, 3167]\nclass = Non-Fraudulent", fillcolor="#399de5d3"] ;
238 -> 374 ;
375 [label="AgeOfVehicle_6 years <= 0.5\ngini = 0.247\nsamples = 3676\nvalue = [531, 3145]\nclass = Non-Fraudulent", fillcolor="#399de5d4"] ;
374 -> 375 ;
376 [label="DaysDiff <= 0.129\ngini = 0.273\nsamples = 2395\nvalue = [391, 2004]\nclass = Non-Fraudulent", fillcolor="#399de5cd"] ;
375 -> 376 ;
377 [label="VehiclePrice_less than 20,000 <= 0.5\ngini = 0.253\nsamples = 2075\nvalue = [309, 1766]\nclass = Non-Fraudulent", fillcolor="#399de5d2"] ;
376 -> 377 ;
378 [label="Make_Honda <= 0.5\ngini = 0.236\nsamples = 1842\nvalue = [252, 1590]\nclass = Non-Fraudulent", fillcolor="#399de5d7"] ;
377 -> 378 ;
379 [label="Deductible <= 0.5\ngini = 0.258\nsamples = 1433\nvalue = [218, 1215]\nclass = Non-Fraudulent", fillcolor="#399de5d1"] ;
378 -> 379 ;
380 [label="Age <= 0.344\ngini = 0.307\nsamples = 666\nvalue = [126, 540]\nclass = Non-Fraudulent", fillcolor="#399de5c4"] ;
379 -> 380 ;
381 [label="PastNumberOfClaims_none <= 0.5\ngini = 0.5\nsamples = 48\nvalue = [24, 24]\nclass = Fraudulent", fillcolor="#e5813900"] ;
380 -> 381 ;
382 [label="gini = 0.0\nsamples = 15\nvalue = [15, 0]\nclass = Fraudulent", fillcolor="#e58139ff"] ;
381 -> 382 ;
383 [label="MartalStatus_Married <= 0.5\ngini = 0.397\nsamples = 33\nvalue = [9, 24]\nclass = Non-Fraudulent", fillcolor="#399de59f"] ;
381 -> 383 ;
384 [label="DaysDiff <= 0.092\ngini = 0.245\nsamples = 28\nvalue = [4, 24]\nclass = Non-Fraudulent", fillcolor="#399de5d4"] ;
383 -> 384 ;
385 [label="DaysDiff <= 0.065\ngini = 0.142\nsamples = 26\nvalue = [2, 24]\nclass = Non-Fraudulent", fillcolor="#399de5ea"] ;
384 -> 385 ;
386 [label="gini = 0.0\nsamples = 1\nvalue = [1, 0]\nclass = Fraudulent", fillcolor="#e58139ff"] ;
385 -> 386 ;
387 [label="Age <= 0.231\ngini = 0.077\nsamples = 25\nvalue = [1, 24]\nclass = Non-Fraudulent", fillcolor="#399de5f4"] ;
385 -> 387 ;
388 [label="gini = 0.0\nsamples = 1\nvalue = [1, 0]\nclass = Fraudulent", fillcolor="#e58139ff"] ;
387 -> 388 ;
389 [label="gini = 0.0\nsamples = 24\nvalue = [0, 24]\nclass = Non-Fraudulent", fillcolor="#399de5ff"] ;
387 -> 389 ;
390 [label="gini = 0.0\nsamples = 2\nvalue = [2, 0]\nclass = Fraudulent", fillcolor="#e58139ff"] ;
384 -> 390 ;
391 [label="gini = 0.0\nsamples = 5\nvalue = [5, 0]\nclass = Fraudulent", fillcolor="#e58139ff"] ;
383 -> 391 ;
392 [label="DaysDiff <= 0.071\ngini = 0.276\nsamples = 618\nvalue = [102, 516]\nclass = Non-Fraudulent", fillcolor="#399de5cd"] ;
380 -> 392 ;
393 [label="Make_Toyota <= 0.5\ngini = 0.409\nsamples = 129\nvalue = [37, 92]\nclass = Non-Fraudulent", fillcolor="#399de598"] ;
392 -> 393 ;
394 [label="DaysDiff <= 0.068\ngini = 0.344\nsamples = 118\nvalue = [26, 92]\nclass = Non-Fraudulent", fillcolor="#399de5b7"] ;
393 -> 394 ;
395 [label="Age <= 0.631\ngini = 0.303\nsamples = 113\nvalue = [21, 92]\nclass = Non-Fraudulent", fillcolor="#399de5c5"] ;
394 -> 395 ;
396 [label="PastNumberOfClaims_more than 4 <= 0.5\ngini = 0.252\nsamples = 108\nvalue = [16, 92]\nclass = Non-Fraudulent", fillcolor="#399de5d3"] ;
395 -> 396 ;
397 [label="Make_Ford <= 0.5\ngini = 0.229\nsamples = 106\nvalue = [14, 92]\nclass = Non-Fraudulent", fillcolor="#399de5d8"] ;
396 -> 397 ;
398 [label="Age <= 0.369\ngini = 0.204\nsamples = 104\nvalue = [12, 92]\nclass = Non-Fraudulent", fillcolor="#399de5de"] ;
397 -> 398 ;
399 [label="gini = 0.0\nsamples = 2\nvalue = [2, 0]\nclass = Fraudulent", fillcolor="#e58139ff"] ;
398 -> 399 ;
400 [label="MartalStatus_Divorced <= 0.5\ngini = 0.177\nsamples = 102\nvalue = [10, 92]\nclass = Non-Fraudulent", fillcolor="#399de5e3"] ;
398 -> 400 ;
401 [label="AgeOfVehicle_4 years <= 0.5\ngini = 0.162\nsamples = 101\nvalue = [9, 92]\nclass = Non-Fraudulent", fillcolor="#399de5e6"] ;
400 -> 401 ;
402 [label="Make_Dodge <= 0.5\ngini = 0.147\nsamples = 100\nvalue = [8, 92]\nclass = Non-Fraudulent", fillcolor="#399de5e9"] ;
401 -> 402 ;
403 [label="Age <= 0.431\ngini = 0.131\nsamples = 99\nvalue = [7, 92]\nclass = Non-Fraudulent", fillcolor="#399de5ec"] ;
402 -> 403 ;
404 [label="gini = 0.0\nsamples = 45\nvalue = [0, 45]\nclass = Non-Fraudulent", fillcolor="#399de5ff"] ;
403 -> 404 ;
405 [label="Age <= 0.494\ngini = 0.226\nsamples = 54\nvalue = [7, 47]\nclass = Non-Fraudulent", fillcolor="#399de5d9"] ;
403 -> 405 ;
406 [label="gini = 0.0\nsamples = 3\nvalue = [3, 0]\nclass = Fraudulent", fillcolor="#e58139ff"] ;
405 -> 406 ;
407 [label="Make_Chevrolet <= 0.5\ngini = 0.145\nsamples = 51\nvalue = [4, 47]\nclass = Non-Fraudulent", fillcolor="#399de5e9"] ;
405 -> 407 ;
408 [label="AccidentArea_Rural <= 0.5\ngini = 0.113\nsamples = 50\nvalue = [3, 47]\nclass = Non-Fraudulent", fillcolor="#399de5ef"] ;
407 -> 408 ;
409 [label="PastNumberOfClaims_1 <= 0.5\ngini = 0.078\nsamples = 49\nvalue = [2, 47]\nclass = Non-Fraudulent", fillcolor="#399de5f4"] ;
408 -> 409 ;
410 [label="Age <= 0.537\ngini = 0.041\nsamples = 48\nvalue = [1, 47]\nclass = Non-Fraudulent", fillcolor="#399de5fa"] ;
409 -> 410 ;
411 [label="PastNumberOfClaims_2 to 4 <= 0.5\ngini = 0.133\nsamples = 14\nvalue = [1, 13]\nclass = Non-Fraudulent", fillcolor="#399de5eb"] ;
410 -> 411 ;
412 [label="gini = 0.0\nsamples = 1\nvalue = [1, 0]\nclass = Fraudulent", fillcolor="#e58139ff"] ;
411 -> 412 ;
413 [label="gini = 0.0\nsamples = 13\nvalue = [0, 13]\nclass = Non-Fraudulent", fillcolor="#399de5ff"] ;
411 -> 413 ;
414 [label="gini = 0.0\nsamples = 34\nvalue = [0, 34]\nclass = Non-Fraudulent", fillcolor="#399de5ff"] ;
410 -> 414 ;
415 [label="gini = 0.0\nsamples = 1\nvalue = [1, 0]\nclass = Fraudulent", fillcolor="#e58139ff"] ;
409 -> 415 ;
416 [label="gini = 0.0\nsamples = 1\nvalue = [1, 0]\nclass = Fraudulent", fillcolor="#e58139ff"] ;
408 -> 416 ;
417 [label="gini = 0.0\nsamples = 1\nvalue = [1, 0]\nclass = Fraudulent", fillcolor="#e58139ff"] ;
407 -> 417 ;
418 [label="gini = 0.0\nsamples = 1\nvalue = [1, 0]\nclass = Fraudulent", fillcolor="#e58139ff"] ;
402 -> 418 ;
419 [label="gini = 0.0\nsamples = 1\nvalue = [1, 0]\nclass = Fraudulent", fillcolor="#e58139ff"] ;
401 -> 419 ;
420 [label="gini = 0.0\nsamples = 1\nvalue = [1, 0]\nclass = Fraudulent", fillcolor="#e58139ff"] ;
400 -> 420 ;
421 [label="gini = 0.0\nsamples = 2\nvalue = [2, 0]\nclass = Fraudulent", fillcolor="#e58139ff"] ;
397 -> 421 ;
422 [label="gini = 0.0\nsamples = 2\nvalue = [2, 0]\nclass = Fraudulent", fillcolor="#e58139ff"] ;
396 -> 422 ;
423 [label="gini = 0.0\nsamples = 5\nvalue = [5, 0]\nclass = Fraudulent", fillcolor="#e58139ff"] ;
395 -> 423 ;
424 [label="gini = 0.0\nsamples = 5\nvalue = [5, 0]\nclass = Fraudulent", fillcolor="#e58139ff"] ;
394 -> 424 ;
425 [label="gini = 0.0\nsamples = 11\nvalue = [11, 0]\nclass = Fraudulent", fillcolor="#e58139ff"] ;
393 -> 425 ;
426 [label="VehiclePrice_20,000 to 29,000 <= 0.5\ngini = 0.231\nsamples = 489\nvalue = [65, 424]\nclass = Non-Fraudulent", fillcolor="#399de5d8"] ;
392 -> 426 ;
427 [label="MartalStatus_Married <= 0.5\ngini = 0.342\nsamples = 146\nvalue = [32, 114]\nclass = Non-Fraudulent", fillcolor="#399de5b7"] ;
426 -> 427 ;
428 [label="gini = 0.0\nsamples = 6\nvalue = [6, 0]\nclass = Fraudulent", fillcolor="#e58139ff"] ;
427 -> 428 ;
429 [label="Make_Chevrolet <= 0.5\ngini = 0.302\nsamples = 140\nvalue = [26, 114]\nclass = Non-Fraudulent", fillcolor="#399de5c5"] ;
427 -> 429 ;
430 [label="DaysDiff <= 0.112\ngini = 0.263\nsamples = 135\nvalue = [21, 114]\nclass = Non-Fraudulent", fillcolor="#399de5d0"] ;
429 -> 430 ;
431 [label="NumberOfSuppliments_more than 5 <= 0.5\ngini = 0.226\nsamples = 131\nvalue = [17, 114]\nclass = Non-Fraudulent", fillcolor="#399de5d9"] ;
430 -> 431 ;
432 [label="AccidentArea_Rural <= 0.5\ngini = 0.184\nsamples = 127\nvalue = [13, 114]\nclass = Non-Fraudulent", fillcolor="#399de5e2"] ;
431 -> 432 ;
433 [label="Make_Ford <= 0.5\ngini = 0.161\nsamples = 125\nvalue = [11, 114]\nclass = Non-Fraudulent", fillcolor="#399de5e6"] ;
432 -> 433 ;
434 [label="Make_Nisson <= 0.5\ngini = 0.136\nsamples = 123\nvalue = [9, 114]\nclass = Non-Fraudulent", fillcolor="#399de5eb"] ;
433 -> 434 ;
435 [label="Make_Saturn <= 0.5\ngini = 0.123\nsamples = 122\nvalue = [8, 114]\nclass = Non-Fraudulent", fillcolor="#399de5ed"] ;
434 -> 435 ;
436 [label="Age <= 0.431\ngini = 0.109\nsamples = 121\nvalue = [7, 114]\nclass = Non-Fraudulent", fillcolor="#399de5ef"] ;
435 -> 436 ;
437 [label="PastNumberOfClaims_more than 4 <= 0.5\ngini = 0.278\nsamples = 24\nvalue = [4, 20]\nclass = Non-Fraudulent", fillcolor="#399de5cc"] ;
436 -> 437 ;
438 [label="gini = 0.0\nsamples = 4\nvalue = [4, 0]\nclass = Fraudulent", fillcolor="#e58139ff"] ;
437 -> 438 ;
439 [label="gini = 0.0\nsamples = 20\nvalue = [0, 20]\nclass = Non-Fraudulent", fillcolor="#399de5ff"] ;
437 -> 439 ;
440 [label="PastNumberOfClaims_more than 4 <= 0.5\ngini = 0.06\nsamples = 97\nvalue = [3, 94]\nclass = Non-Fraudulent", fillcolor="#399de5f7"] ;
436 -> 440 ;
441 [label="DriverRating <= 0.167\ngini = 0.041\nsamples = 96\nvalue = [2, 94]\nclass = Non-Fraudulent", fillcolor="#399de5fa"] ;
440 -> 441 ;
442 [label="gini = 0.0\nsamples = 59\nvalue = [0, 59]\nclass = Non-Fraudulent", fillcolor="#399de5ff"] ;
441 -> 442 ;
443 [label="PastNumberOfClaims_none <= 0.5\ngini = 0.102\nsamples = 37\nvalue = [2, 35]\nclass = Non-Fraudulent", fillcolor="#399de5f0"] ;
441 -> 443 ;
444 [label="gini = 0.0\nsamples = 35\nvalue = [0, 35]\nclass = Non-Fraudulent", fillcolor="#399de5ff"] ;
443 -> 444 ;
445 [label="gini = 0.0\nsamples = 2\nvalue = [2, 0]\nclass = Fraudulent", fillcolor="#e58139ff"] ;
443 -> 445 ;
446 [label="gini = 0.0\nsamples = 1\nvalue = [1, 0]\nclass = Fraudulent", fillcolor="#e58139ff"] ;
440 -> 446 ;
447 [label="gini = 0.0\nsamples = 1\nvalue = [1, 0]\nclass = Fraudulent", fillcolor="#e58139ff"] ;
435 -> 447 ;
448 [label="gini = 0.0\nsamples = 1\nvalue = [1, 0]\nclass = Fraudulent", fillcolor="#e58139ff"] ;
434 -> 448 ;
449 [label="gini = 0.0\nsamples = 2\nvalue = [2, 0]\nclass = Fraudulent", fillcolor="#e58139ff"] ;
433 -> 449 ;
450 [label="gini = 0.0\nsamples = 2\nvalue = [2, 0]\nclass = Fraudulent", fillcolor="#e58139ff"] ;
432 -> 450 ;
451 [label="gini = 0.0\nsamples = 4\nvalue = [4, 0]\nclass = Fraudulent", fillcolor="#e58139ff"] ;
431 -> 451 ;
452 [label="gini = 0.0\nsamples = 4\nvalue = [4, 0]\nclass = Fraudulent", fillcolor="#e58139ff"] ;
430 -> 452 ;
453 [label="gini = 0.0\nsamples = 5\nvalue = [5, 0]\nclass = Fraudulent", fillcolor="#e58139ff"] ;
429 -> 453 ;
454 [label="Make_Mercury <= 0.5\ngini = 0.174\nsamples = 343\nvalue = [33, 310]\nclass = Non-Fraudulent", fillcolor="#399de5e4"] ;
426 -> 454 ;
455 [label="NumberOfSuppliments_3 to 5 <= 0.5\ngini = 0.165\nsamples = 341\nvalue = [31, 310]\nclass = Non-Fraudulent", fillcolor="#399de5e6"] ;
454 -> 455 ;
456 [label="WitnessPresent_Yes <= 0.5\ngini = 0.144\nsamples = 321\nvalue = [25, 296]\nclass = Non-Fraudulent", fillcolor="#399de5e9"] ;
455 -> 456 ;
457 [label="Age <= 0.406\ngini = 0.139\nsamples = 320\nvalue = [24, 296]\nclass = Non-Fraudulent", fillcolor="#399de5ea"] ;
456 -> 457 ;
458 [label="MartalStatus_Single <= 0.5\ngini = 0.055\nsamples = 107\nvalue = [3, 104]\nclass = Non-Fraudulent", fillcolor="#399de5f8"] ;
457 -> 458 ;
459 [label="Age <= 0.356\ngini = 0.02\nsamples = 99\nvalue = [1, 98]\nclass = Non-Fraudulent", fillcolor="#399de5fc"] ;
458 -> 459 ;
460 [label="NumberOfSuppliments_more than 5 <= 0.5\ngini = 0.117\nsamples = 16\nvalue = [1, 15]\nclass = Non-Fraudulent", fillcolor="#399de5ee"] ;
459 -> 460 ;
461 [label="gini = 0.0\nsamples = 1\nvalue = [1, 0]\nclass = Fraudulent", fillcolor="#e58139ff"] ;
460 -> 461 ;
462 [label="gini = 0.0\nsamples = 15\nvalue = [0, 15]\nclass = Non-Fraudulent", fillcolor="#399de5ff"] ;
460 -> 462 ;
463 [label="gini = 0.0\nsamples = 83\nvalue = [0, 83]\nclass = Non-Fraudulent", fillcolor="#399de5ff"] ;
459 -> 463 ;
464 [label="PastNumberOfClaims_2 to 4 <= 0.5\ngini = 0.375\nsamples = 8\nvalue = [2, 6]\nclass = Non-Fraudulent", fillcolor="#399de5aa"] ;
458 -> 464 ;
465 [label="gini = 0.0\nsamples = 6\nvalue = [0, 6]\nclass = Non-Fraudulent", fillcolor="#399de5ff"] ;
464 -> 465 ;
466 [label="gini = 0.0\nsamples = 2\nvalue = [2, 0]\nclass = Fraudulent", fillcolor="#e58139ff"] ;
464 -> 466 ;
467 [label="DaysDiff <= 0.112\ngini = 0.178\nsamples = 213\nvalue = [21, 192]\nclass = Non-Fraudulent", fillcolor="#399de5e3"] ;
457 -> 467 ;
468 [label="Make_Saturn <= 0.5\ngini = 0.164\nsamples = 211\nvalue = [19, 192]\nclass = Non-Fraudulent", fillcolor="#399de5e6"] ;
467 -> 468 ;
469 [label="Make_Chevrolet <= 0.5\ngini = 0.157\nsamples = 210\nvalue = [18, 192]\nclass = Non-Fraudulent", fillcolor="#399de5e7"] ;
468 -> 469 ;
470 [label="DaysDiff <= 0.076\ngini = 0.149\nsamples = 209\nvalue = [17, 192]\nclass = Non-Fraudulent", fillcolor="#399de5e8"] ;
469 -> 470 ;
471 [label="Age <= 0.519\ngini = 0.034\nsamples = 57\nvalue = [1, 56]\nclass = Non-Fraudulent", fillcolor="#399de5fa"] ;
470 -> 471 ;
472 [label="gini = 0.0\nsamples = 1\nvalue = [1, 0]\nclass = Fraudulent", fillcolor="#e58139ff"] ;
471 -> 472 ;
473 [label="gini = 0.0\nsamples = 56\nvalue = [0, 56]\nclass = Non-Fraudulent", fillcolor="#399de5ff"] ;
471 -> 473 ;
474 [label="DaysDiff <= 0.088\ngini = 0.188\nsamples = 152\nvalue = [16, 136]\nclass = Non-Fraudulent", fillcolor="#399de5e1"] ;
470 -> 474 ;
475 [label="Age <= 0.644\ngini = 0.252\nsamples = 88\nvalue = [13, 75]\nclass = Non-Fraudulent", fillcolor="#399de5d3"] ;
474 -> 475 ;
476 [label="DaysDiff <= 0.086\ngini = 0.208\nsamples = 85\nvalue = [10, 75]\nclass = Non-Fraudulent", fillcolor="#399de5dd"] ;
475 -> 476 ;
477 [label="DriverRating <= 0.167\ngini = 0.174\nsamples = 83\nvalue = [8, 75]\nclass = Non-Fraudulent", fillcolor="#399de5e4"] ;
476 -> 477 ;
478 [label="AccidentArea_Urban <= 0.5\ngini = 0.444\nsamples = 15\nvalue = [5, 10]\nclass = Non-Fraudulent", fillcolor="#399de57f"] ;
477 -> 478 ;
479 [label="gini = 0.0\nsamples = 10\nvalue = [0, 10]\nclass = Non-Fraudulent", fillcolor="#399de5ff"] ;
478 -> 479 ;
480 [label="gini = 0.0\nsamples = 5\nvalue = [5, 0]\nclass = Fraudulent", fillcolor="#e58139ff"] ;
478 -> 480 ;
481 [label="Make_Toyota <= 0.5\ngini = 0.084\nsamples = 68\nvalue = [3, 65]\nclass = Non-Fraudulent", fillcolor="#399de5f3"] ;
477 -> 481 ;
482 [label="Age <= 0.562\ngini = 0.03\nsamples = 66\nvalue = [1, 65]\nclass = Non-Fraudulent", fillcolor="#399de5fb"] ;
481 -> 482 ;
483 [label="gini = 0.0\nsamples = 65\nvalue = [0, 65]\nclass = Non-Fraudulent", fillcolor="#399de5ff"] ;
482 -> 483 ;
484 [label="gini = 0.0\nsamples = 1\nvalue = [1, 0]\nclass = Fraudulent", fillcolor="#e58139ff"] ;
482 -> 484 ;
485 [label="gini = 0.0\nsamples = 2\nvalue = [2, 0]\nclass = Fraudulent", fillcolor="#e58139ff"] ;
481 -> 485 ;
486 [label="gini = 0.0\nsamples = 2\nvalue = [2, 0]\nclass = Fraudulent", fillcolor="#e58139ff"] ;
476 -> 486 ;
487 [label="gini = 0.0\nsamples = 3\nvalue = [3, 0]\nclass = Fraudulent", fillcolor="#e58139ff"] ;
475 -> 487 ;
488 [label="PastNumberOfClaims_1 <= 0.5\ngini = 0.089\nsamples = 64\nvalue = [3, 61]\nclass = Non-Fraudulent", fillcolor="#399de5f2"] ;
474 -> 488 ;
489 [label="Make_Mazda <= 0.5\ngini = 0.032\nsamples = 62\nvalue = [1, 61]\nclass = Non-Fraudulent", fillcolor="#399de5fb"] ;
488 -> 489 ;
490 [label="gini = 0.0\nsamples = 61\nvalue = [0, 61]\nclass = Non-Fraudulent", fillcolor="#399de5ff"] ;
489 -> 490 ;
491 [label="gini = 0.0\nsamples = 1\nvalue = [1, 0]\nclass = Fraudulent", fillcolor="#e58139ff"] ;
489 -> 491 ;
492 [label="gini = 0.0\nsamples = 2\nvalue = [2, 0]\nclass = Fraudulent", fillcolor="#e58139ff"] ;
488 -> 492 ;
493 [label="gini = 0.0\nsamples = 1\nvalue = [1, 0]\nclass = Fraudulent", fillcolor="#e58139ff"] ;
469 -> 493 ;
494 [label="gini = 0.0\nsamples = 1\nvalue = [1, 0]\nclass = Fraudulent", fillcolor="#e58139ff"] ;
468 -> 494 ;
495 [label="gini = 0.0\nsamples = 2\nvalue = [2, 0]\nclass = Fraudulent", fillcolor="#e58139ff"] ;
467 -> 495 ;
496 [label="gini = 0.0\nsamples = 1\nvalue = [1, 0]\nclass = Fraudulent", fillcolor="#e58139ff"] ;
456 -> 496 ;
497 [label="Make_Mazda <= 0.5\ngini = 0.42\nsamples = 20\nvalue = [6, 14]\nclass = Non-Fraudulent", fillcolor="#399de592"] ;
455 -> 497 ;
498 [label="gini = 0.0\nsamples = 6\nvalue = [6, 0]\nclass = Fraudulent", fillcolor="#e58139ff"] ;
497 -> 498 ;
499 [label="gini = 0.0\nsamples = 14\nvalue = [0, 14]\nclass = Non-Fraudulent", fillcolor="#399de5ff"] ;
497 -> 499 ;
500 [label="gini = 0.0\nsamples = 2\nvalue = [2, 0]\nclass = Fraudulent", fillcolor="#e58139ff"] ;
454 -> 500 ;
501 [label="AddressChange-Claim_2 to 3 years <= 0.5\ngini = 0.211\nsamples = 767\nvalue = [92, 675]\nclass = Non-Fraudulent", fillcolor="#399de5dc"] ;
379 -> 501 ;
502 [label="PastNumberOfClaims_more than 4 <= 0.5\ngini = 0.206\nsamples = 764\nvalue = [89, 675]\nclass = Non-Fraudulent", fillcolor="#399de5dd"] ;
501 -> 502 ;
503 [label="Make_Saturn <= 0.5\ngini = 0.202\nsamples = 762\nvalue = [87, 675]\nclass = Non-Fraudulent", fillcolor="#399de5de"] ;
502 -> 503 ;
504 [label="DaysDiff <= 0.119\ngini = 0.199\nsamples = 760\nvalue = [85, 675]\nclass = Non-Fraudulent", fillcolor="#399de5df"] ;
503 -> 504 ;
505 [label="DaysDiff <= 0.115\ngini = 0.215\nsamples = 695\nvalue = [85, 610]\nclass = Non-Fraudulent", fillcolor="#399de5db"] ;
504 -> 505 ;
506 [label="Days:Policy-Accident_15 to 30 <= 0.5\ngini = 0.209\nsamples = 692\nvalue = [82, 610]\nclass = Non-Fraudulent", fillcolor="#399de5dd"] ;
505 -> 506 ;
507 [label="AgeOfVehicle_3 years <= 0.5\ngini = 0.207\nsamples = 691\nvalue = [81, 610]\nclass = Non-Fraudulent", fillcolor="#399de5dd"] ;
506 -> 507 ;
508 [label="Make_Ford <= 0.5\ngini = 0.205\nsamples = 690\nvalue = [80, 610]\nclass = Non-Fraudulent", fillcolor="#399de5de"] ;
507 -> 508 ;
509 [label="VehiclePrice_40,000 to 59,000 <= 0.5\ngini = 0.196\nsamples = 664\nvalue = [73, 591]\nclass = Non-Fraudulent", fillcolor="#399de5e0"] ;
508 -> 509 ;
510 [label="Make_Toyota <= 0.5\ngini = 0.194\nsamples = 663\nvalue = [72, 591]\nclass = Non-Fraudulent", fillcolor="#399de5e0"] ;
509 -> 510 ;
511 [label="PastNumberOfClaims_1 <= 0.5\ngini = 0.16\nsamples = 468\nvalue = [41, 427]\nclass = Non-Fraudulent", fillcolor="#399de5e7"] ;
510 -> 511 ;
512 [label="AddressChange-Claim_1 year <= 0.5\ngini = 0.113\nsamples = 381\nvalue = [23, 358]\nclass = Non-Fraudulent", fillcolor="#399de5ef"] ;
511 -> 512 ;
513 [label="DaysDiff <= 0.071\ngini = 0.109\nsamples = 380\nvalue = [22, 358]\nclass = Non-Fraudulent", fillcolor="#399de5ef"] ;
512 -> 513 ;
514 [label="AgeOfVehicle_4 years <= 0.5\ngini = 0.036\nsamples = 164\nvalue = [3, 161]\nclass = Non-Fraudulent", fillcolor="#399de5fa"] ;
513 -> 514 ;
515 [label="NumberOfSuppliments_more than 5 <= 0.5\ngini = 0.024\nsamples = 163\nvalue = [2, 161]\nclass = Non-Fraudulent", fillcolor="#399de5fc"] ;
514 -> 515 ;
516 [label="gini = 0.0\nsamples = 143\nvalue = [0, 143]\nclass = Non-Fraudulent", fillcolor="#399de5ff"] ;
515 -> 516 ;
517 [label="DaysDiff <= 0.064\ngini = 0.18\nsamples = 20\nvalue = [2, 18]\nclass = Non-Fraudulent", fillcolor="#399de5e3"] ;
515 -> 517 ;
518 [label="gini = 0.0\nsamples = 18\nvalue = [0, 18]\nclass = Non-Fraudulent", fillcolor="#399de5ff"] ;
517 -> 518 ;
519 [label="gini = 0.0\nsamples = 2\nvalue = [2, 0]\nclass = Fraudulent", fillcolor="#e58139ff"] ;
517 -> 519 ;
520 [label="gini = 0.0\nsamples = 1\nvalue = [1, 0]\nclass = Fraudulent", fillcolor="#e58139ff"] ;
514 -> 520 ;
521 [label="DaysDiff <= 0.073\ngini = 0.16\nsamples = 216\nvalue = [19, 197]\nclass = Non-Fraudulent", fillcolor="#399de5e6"] ;
513 -> 521 ;
522 [label="gini = 0.0\nsamples = 4\nvalue = [4, 0]\nclass = Fraudulent", fillcolor="#e58139ff"] ;
521 -> 522 ;
523 [label="VehiclePrice_more than 69,000 <= 0.5\ngini = 0.131\nsamples = 212\nvalue = [15, 197]\nclass = Non-Fraudulent", fillcolor="#399de5ec"] ;
521 -> 523 ;
524 [label="Age <= 0.669\ngini = 0.116\nsamples = 210\nvalue = [13, 197]\nclass = Non-Fraudulent", fillcolor="#399de5ee"] ;
523 -> 524 ;
525 [label="Make_Accura <= 0.5\ngini = 0.108\nsamples = 209\nvalue = [12, 197]\nclass = Non-Fraudulent", fillcolor="#399de5ef"] ;
524 -> 525 ;
526 [label="NumberOfSuppliments_3 to 5 <= 0.5\ngini = 0.076\nsamples = 177\nvalue = [7, 170]\nclass = Non-Fraudulent", fillcolor="#399de5f4"] ;
525 -> 526 ;
527 [label="Age <= 0.419\ngini = 0.059\nsamples = 163\nvalue = [5, 158]\nclass = Non-Fraudulent", fillcolor="#399de5f7"] ;
526 -> 527 ;
528 [label="Age <= 0.356\ngini = 0.133\nsamples = 56\nvalue = [4, 52]\nclass = Non-Fraudulent", fillcolor="#399de5eb"] ;
527 -> 528 ;
529 [label="AgeOfVehicle_7 years <= 0.5\ngini = 0.037\nsamples = 53\nvalue = [1, 52]\nclass = Non-Fraudulent", fillcolor="#399de5fa"] ;
528 -> 529 ;
530 [label="gini = 0.0\nsamples = 52\nvalue = [0, 52]\nclass = Non-Fraudulent", fillcolor="#399de5ff"] ;
529 -> 530 ;
531 [label="gini = 0.0\nsamples = 1\nvalue = [1, 0]\nclass = Fraudulent", fillcolor="#e58139ff"] ;
529 -> 531 ;
532 [label="gini = 0.0\nsamples = 3\nvalue = [3, 0]\nclass = Fraudulent", fillcolor="#e58139ff"] ;
528 -> 532 ;
533 [label="Age <= 0.5\ngini = 0.019\nsamples = 107\nvalue = [1, 106]\nclass = Non-Fraudulent", fillcolor="#399de5fd"] ;
527 -> 533 ;
534 [label="gini = 0.0\nsamples = 88\nvalue = [0, 88]\nclass = Non-Fraudulent", fillcolor="#399de5ff"] ;
533 -> 534 ;
535 [label="Age <= 0.587\ngini = 0.1\nsamples = 19\nvalue = [1, 18]\nclass = Non-Fraudulent", fillcolor="#399de5f1"] ;
533 -> 535 ;
536 [label="gini = 0.0\nsamples = 1\nvalue = [1, 0]\nclass = Fraudulent", fillcolor="#e58139ff"] ;
535 -> 536 ;
537 [label="gini = 0.0\nsamples = 18\nvalue = [0, 18]\nclass = Non-Fraudulent", fillcolor="#399de5ff"] ;
535 -> 537 ;
538 [label="DaysDiff <= 0.105\ngini = 0.245\nsamples = 14\nvalue = [2, 12]\nclass = Non-Fraudulent", fillcolor="#399de5d4"] ;
526 -> 538 ;
539 [label="gini = 0.0\nsamples = 2\nvalue = [2, 0]\nclass = Fraudulent", fillcolor="#e58139ff"] ;
538 -> 539 ;
540 [label="gini = 0.0\nsamples = 12\nvalue = [0, 12]\nclass = Non-Fraudulent", fillcolor="#399de5ff"] ;
538 -> 540 ;
541 [label="Age <= 0.594\ngini = 0.264\nsamples = 32\nvalue = [5, 27]\nclass = Non-Fraudulent", fillcolor="#399de5d0"] ;
525 -> 541 ;
542 [label="gini = 0.0\nsamples = 5\nvalue = [5, 0]\nclass = Fraudulent", fillcolor="#e58139ff"] ;
541 -> 542 ;
543 [label="gini = 0.0\nsamples = 27\nvalue = [0, 27]\nclass = Non-Fraudulent", fillcolor="#399de5ff"] ;
541 -> 543 ;
544 [label="gini = 0.0\nsamples = 1\nvalue = [1, 0]\nclass = Fraudulent", fillcolor="#e58139ff"] ;
524 -> 544 ;
545 [label="gini = 0.0\nsamples = 2\nvalue = [2, 0]\nclass = Fraudulent", fillcolor="#e58139ff"] ;
523 -> 545 ;
546 [label="gini = 0.0\nsamples = 1\nvalue = [1, 0]\nclass = Fraudulent", fillcolor="#e58139ff"] ;
512 -> 546 ;
547 [label="DaysDiff <= 0.088\ngini = 0.328\nsamples = 87\nvalue = [18, 69]\nclass = Non-Fraudulent", fillcolor="#399de5bc"] ;
511 -> 547 ;
548 [label="Make_Accura <= 0.5\ngini = 0.267\nsamples = 82\nvalue = [13, 69]\nclass = Non-Fraudulent", fillcolor="#399de5cf"] ;
547 -> 548 ;
549 [label="Make_Mazda <= 0.5\ngini = 0.237\nsamples = 80\nvalue = [11, 69]\nclass = Non-Fraudulent", fillcolor="#399de5d6"] ;
548 -> 549 ;
550 [label="NumberOfSuppliments_1 to 2 <= 0.5\ngini = 0.204\nsamples = 78\nvalue = [9, 69]\nclass = Non-Fraudulent", fillcolor="#399de5de"] ;
549 -> 550 ;
551 [label="NumberOfSuppliments_3 to 5 <= 0.5\ngini = 0.119\nsamples = 63\nvalue = [4, 59]\nclass = Non-Fraudulent", fillcolor="#399de5ee"] ;
550 -> 551 ;
552 [label="Age <= 0.338\ngini = 0.092\nsamples = 62\nvalue = [3, 59]\nclass = Non-Fraudulent", fillcolor="#399de5f2"] ;
551 -> 552 ;
553 [label="gini = 0.0\nsamples = 1\nvalue = [1, 0]\nclass = Fraudulent", fillcolor="#e58139ff"] ;
552 -> 553 ;
554 [label="Make_Pontiac <= 0.5\ngini = 0.063\nsamples = 61\nvalue = [2, 59]\nclass = Non-Fraudulent", fillcolor="#399de5f6"] ;
552 -> 554 ;
555 [label="gini = 0.0\nsamples = 45\nvalue = [0, 45]\nclass = Non-Fraudulent", fillcolor="#399de5ff"] ;
554 -> 555 ;
556 [label="NumberOfSuppliments_more than 5 <= 0.5\ngini = 0.219\nsamples = 16\nvalue = [2, 14]\nclass = Non-Fraudulent", fillcolor="#399de5db"] ;
554 -> 556 ;
557 [label="gini = 0.0\nsamples = 2\nvalue = [2, 0]\nclass = Fraudulent", fillcolor="#e58139ff"] ;
556 -> 557 ;
558 [label="gini = 0.0\nsamples = 14\nvalue = [0, 14]\nclass = Non-Fraudulent", fillcolor="#399de5ff"] ;
556 -> 558 ;
559 [label="gini = 0.0\nsamples = 1\nvalue = [1, 0]\nclass = Fraudulent", fillcolor="#e58139ff"] ;
551 -> 559 ;
560 [label="AgeOfVehicle_7 years <= 0.5\ngini = 0.444\nsamples = 15\nvalue = [5, 10]\nclass = Non-Fraudulent", fillcolor="#399de57f"] ;
550 -> 560 ;
561 [label="gini = 0.0\nsamples = 10\nvalue = [0, 10]\nclass = Non-Fraudulent", fillcolor="#399de5ff"] ;
560 -> 561 ;
562 [label="gini = 0.0\nsamples = 5\nvalue = [5, 0]\nclass = Fraudulent", fillcolor="#e58139ff"] ;
560 -> 562 ;
563 [label="gini = 0.0\nsamples = 2\nvalue = [2, 0]\nclass = Fraudulent", fillcolor="#e58139ff"] ;
549 -> 563 ;
564 [label="gini = 0.0\nsamples = 2\nvalue = [2, 0]\nclass = Fraudulent", fillcolor="#e58139ff"] ;
548 -> 564 ;
565 [label="gini = 0.0\nsamples = 5\nvalue = [5, 0]\nclass = Fraudulent", fillcolor="#e58139ff"] ;
547 -> 565 ;
566 [label="Age <= 0.506\ngini = 0.267\nsamples = 195\nvalue = [31, 164]\nclass = Non-Fraudulent", fillcolor="#399de5cf"] ;
510 -> 566 ;
567 [label="Age <= 0.331\ngini = 0.191\nsamples = 178\nvalue = [19, 159]\nclass = Non-Fraudulent", fillcolor="#399de5e1"] ;
566 -> 567 ;
568 [label="gini = 0.0\nsamples = 4\nvalue = [4, 0]\nclass = Fraudulent", fillcolor="#e58139ff"] ;
567 -> 568 ;
569 [label="DaysDiff <= 0.103\ngini = 0.158\nsamples = 174\nvalue = [15, 159]\nclass = Non-Fraudulent", fillcolor="#399de5e7"] ;
567 -> 569 ;
570 [label="VehiclePrice_30,000 to 39,000 <= 0.5\ngini = 0.14\nsamples = 172\nvalue = [13, 159]\nclass = Non-Fraudulent", fillcolor="#399de5ea"] ;
569 -> 570 ;
571 [label="DaysDiff <= 0.072\ngini = 0.131\nsamples = 171\nvalue = [12, 159]\nclass = Non-Fraudulent", fillcolor="#399de5ec"] ;
570 -> 571 ;
572 [label="Deductible <= 0.833\ngini = 0.342\nsamples = 32\nvalue = [7, 25]\nclass = Non-Fraudulent", fillcolor="#399de5b8"] ;
571 -> 572 ;
573 [label="gini = 0.0\nsamples = 5\nvalue = [5, 0]\nclass = Fraudulent", fillcolor="#e58139ff"] ;
572 -> 573 ;
574 [label="Age <= 0.438\ngini = 0.137\nsamples = 27\nvalue = [2, 25]\nclass = Non-Fraudulent", fillcolor="#399de5eb"] ;
572 -> 574 ;
575 [label="gini = 0.0\nsamples = 2\nvalue = [2, 0]\nclass = Fraudulent", fillcolor="#e58139ff"] ;
574 -> 575 ;
576 [label="gini = 0.0\nsamples = 25\nvalue = [0, 25]\nclass = Non-Fraudulent", fillcolor="#399de5ff"] ;
574 -> 576 ;
577 [label="NumberOfSuppliments_more than 5 <= 0.5\ngini = 0.069\nsamples = 139\nvalue = [5, 134]\nclass = Non-Fraudulent", fillcolor="#399de5f5"] ;
571 -> 577 ;
578 [label="AgeOfVehicle_7 years <= 0.5\ngini = 0.043\nsamples = 137\nvalue = [3, 134]\nclass = Non-Fraudulent", fillcolor="#399de5f9"] ;
577 -> 578 ;
579 [label="gini = 0.0\nsamples = 1\nvalue = [1, 0]\nclass = Fraudulent", fillcolor="#e58139ff"] ;
578 -> 579 ;
580 [label="DaysDiff <= 0.079\ngini = 0.029\nsamples = 136\nvalue = [2, 134]\nclass = Non-Fraudulent", fillcolor="#399de5fb"] ;
578 -> 580 ;
581 [label="NumberOfSuppliments_1 to 2 <= 0.5\ngini = 0.061\nsamples = 63\nvalue = [2, 61]\nclass = Non-Fraudulent", fillcolor="#399de5f7"] ;
580 -> 581 ;
582 [label="Age <= 0.388\ngini = 0.032\nsamples = 62\nvalue = [1, 61]\nclass = Non-Fraudulent", fillcolor="#399de5fb"] ;
581 -> 582 ;
583 [label="gini = 0.0\nsamples = 1\nvalue = [1, 0]\nclass = Fraudulent", fillcolor="#e58139ff"] ;
582 -> 583 ;
584 [label="gini = 0.0\nsamples = 61\nvalue = [0, 61]\nclass = Non-Fraudulent", fillcolor="#399de5ff"] ;
582 -> 584 ;
585 [label="gini = 0.0\nsamples = 1\nvalue = [1, 0]\nclass = Fraudulent", fillcolor="#e58139ff"] ;
581 -> 585 ;
586 [label="gini = 0.0\nsamples = 73\nvalue = [0, 73]\nclass = Non-Fraudulent", fillcolor="#399de5ff"] ;
580 -> 586 ;
587 [label="gini = 0.0\nsamples = 2\nvalue = [2, 0]\nclass = Fraudulent", fillcolor="#e58139ff"] ;
577 -> 587 ;
588 [label="gini = 0.0\nsamples = 1\nvalue = [1, 0]\nclass = Fraudulent", fillcolor="#e58139ff"] ;
570 -> 588 ;
589 [label="gini = 0.0\nsamples = 2\nvalue = [2, 0]\nclass = Fraudulent", fillcolor="#e58139ff"] ;
569 -> 589 ;
590 [label="NumberOfCars_2 vehicles <= 0.5\ngini = 0.415\nsamples = 17\nvalue = [12, 5]\nclass = Fraudulent", fillcolor="#e5813995"] ;
566 -> 590 ;
591 [label="gini = 0.0\nsamples = 12\nvalue = [12, 0]\nclass = Fraudulent", fillcolor="#e58139ff"] ;
590 -> 591 ;
592 [label="gini = 0.0\nsamples = 5\nvalue = [0, 5]\nclass = Non-Fraudulent", fillcolor="#399de5ff"] ;
590 -> 592 ;
593 [label="gini = 0.0\nsamples = 1\nvalue = [1, 0]\nclass = Fraudulent", fillcolor="#e58139ff"] ;
509 -> 593 ;
594 [label="DaysDiff <= 0.065\ngini = 0.393\nsamples = 26\nvalue = [7, 19]\nclass = Non-Fraudulent", fillcolor="#399de5a1"] ;
508 -> 594 ;
595 [label="gini = 0.0\nsamples = 19\nvalue = [0, 19]\nclass = Non-Fraudulent", fillcolor="#399de5ff"] ;
594 -> 595 ;
596 [label="gini = 0.0\nsamples = 7\nvalue = [7, 0]\nclass = Fraudulent", fillcolor="#e58139ff"] ;
594 -> 596 ;
597 [label="gini = 0.0\nsamples = 1\nvalue = [1, 0]\nclass = Fraudulent", fillcolor="#e58139ff"] ;
507 -> 597 ;
598 [label="gini = 0.0\nsamples = 1\nvalue = [1, 0]\nclass = Fraudulent", fillcolor="#e58139ff"] ;
506 -> 598 ;
599 [label="gini = 0.0\nsamples = 3\nvalue = [3, 0]\nclass = Fraudulent", fillcolor="#e58139ff"] ;
505 -> 599 ;
600 [label="gini = 0.0\nsamples = 65\nvalue = [0, 65]\nclass = Non-Fraudulent", fillcolor="#399de5ff"] ;
504 -> 600 ;
601 [label="gini = 0.0\nsamples = 2\nvalue = [2, 0]\nclass = Fraudulent", fillcolor="#e58139ff"] ;
503 -> 601 ;
602 [label="gini = 0.0\nsamples = 2\nvalue = [2, 0]\nclass = Fraudulent", fillcolor="#e58139ff"] ;
502 -> 602 ;
603 [label="gini = 0.0\nsamples = 3\nvalue = [3, 0]\nclass = Fraudulent", fillcolor="#e58139ff"] ;
501 -> 603 ;
604 [label="AddressChange-Claim_no change <= 0.5\ngini = 0.152\nsamples = 409\nvalue = [34, 375]\nclass = Non-Fraudulent", fillcolor="#399de5e8"] ;
378 -> 604 ;
605 [label="gini = 0.0\nsamples = 1\nvalue = [1, 0]\nclass = Fraudulent", fillcolor="#e58139ff"] ;
604 -> 605 ;
606 [label="Days:Policy-Accident_none <= 0.5\ngini = 0.149\nsamples = 408\nvalue = [33, 375]\nclass = Non-Fraudulent", fillcolor="#399de5e9"] ;
604 -> 606 ;
607 [label="AgeOfVehicle_5 years <= 0.5\ngini = 0.145\nsamples = 407\nvalue = [32, 375]\nclass = Non-Fraudulent", fillcolor="#399de5e9"] ;
606 -> 607 ;
608 [label="VehiclePrice_40,000 to 59,000 <= 0.5\ngini = 0.141\nsamples = 406\nvalue = [31, 375]\nclass = Non-Fraudulent", fillcolor="#399de5ea"] ;
607 -> 608 ;
609 [label="DaysDiff <= 0.114\ngini = 0.137\nsamples = 405\nvalue = [30, 375]\nclass = Non-Fraudulent", fillcolor="#399de5eb"] ;
608 -> 609 ;
610 [label="Age <= 0.544\ngini = 0.131\nsamples = 397\nvalue = [28, 369]\nclass = Non-Fraudulent", fillcolor="#399de5ec"] ;
609 -> 610 ;
611 [label="NumberOfSuppliments_1 to 2 <= 0.5\ngini = 0.15\nsamples = 330\nvalue = [27, 303]\nclass = Non-Fraudulent", fillcolor="#399de5e8"] ;
610 -> 611 ;
612 [label="Age <= 0.519\ngini = 0.136\nsamples = 327\nvalue = [24, 303]\nclass = Non-Fraudulent", fillcolor="#399de5eb"] ;
611 -> 612 ;
613 [label="VehiclePrice_30,000 to 39,000 <= 0.5\ngini = 0.126\nsamples = 325\nvalue = [22, 303]\nclass = Non-Fraudulent", fillcolor="#399de5ec"] ;
612 -> 613 ;
614 [label="Age <= 0.356\ngini = 0.121\nsamples = 324\nvalue = [21, 303]\nclass = Non-Fraudulent", fillcolor="#399de5ed"] ;
613 -> 614 ;
615 [label="PastNumberOfClaims_2 to 4 <= 0.5\ngini = 0.158\nsamples = 185\nvalue = [16, 169]\nclass = Non-Fraudulent", fillcolor="#399de5e7"] ;
614 -> 615 ;
616 [label="AgeOfVehicle_7 years <= 0.5\ngini = 0.141\nsamples = 183\nvalue = [14, 169]\nclass = Non-Fraudulent", fillcolor="#399de5ea"] ;
615 -> 616 ;
617 [label="DaysDiff <= 0.078\ngini = 0.133\nsamples = 182\nvalue = [13, 169]\nclass = Non-Fraudulent", fillcolor="#399de5eb"] ;
616 -> 617 ;
618 [label="Deductible <= 0.167\ngini = 0.192\nsamples = 102\nvalue = [11, 91]\nclass = Non-Fraudulent", fillcolor="#399de5e0"] ;
617 -> 618 ;
619 [label="gini = 0.0\nsamples = 5\nvalue = [5, 0]\nclass = Fraudulent", fillcolor="#e58139ff"] ;
618 -> 619 ;
620 [label="DaysDiff <= 0.076\ngini = 0.116\nsamples = 97\nvalue = [6, 91]\nclass = Non-Fraudulent", fillcolor="#399de5ee"] ;
618 -> 620 ;
621 [label="DaysDiff <= 0.073\ngini = 0.099\nsamples = 96\nvalue = [5, 91]\nclass = Non-Fraudulent", fillcolor="#399de5f1"] ;
620 -> 621 ;
622 [label="DaysDiff <= 0.065\ngini = 0.067\nsamples = 87\nvalue = [3, 84]\nclass = Non-Fraudulent", fillcolor="#399de5f6"] ;
621 -> 622 ;
623 [label="gini = 0.0\nsamples = 43\nvalue = [0, 43]\nclass = Non-Fraudulent", fillcolor="#399de5ff"] ;
622 -> 623 ;
624 [label="Deductible <= 0.5\ngini = 0.127\nsamples = 44\nvalue = [3, 41]\nclass = Non-Fraudulent", fillcolor="#399de5ec"] ;
622 -> 624 ;
625 [label="gini = 0.0\nsamples = 1\nvalue = [1, 0]\nclass = Fraudulent", fillcolor="#e58139ff"] ;
624 -> 625 ;
626 [label="Deductible <= 0.833\ngini = 0.089\nsamples = 43\nvalue = [2, 41]\nclass = Non-Fraudulent", fillcolor="#399de5f3"] ;
624 -> 626 ;
627 [label="PastNumberOfClaims_none <= 0.5\ngini = 0.124\nsamples = 30\nvalue = [2, 28]\nclass = Non-Fraudulent", fillcolor="#399de5ed"] ;
626 -> 627 ;
628 [label="gini = 0.0\nsamples = 10\nvalue = [0, 10]\nclass = Non-Fraudulent", fillcolor="#399de5ff"] ;
627 -> 628 ;
629 [label="DaysDiff <= 0.069\ngini = 0.18\nsamples = 20\nvalue = [2, 18]\nclass = Non-Fraudulent", fillcolor="#399de5e3"] ;
627 -> 629 ;
630 [label="gini = 0.0\nsamples = 1\nvalue = [1, 0]\nclass = Fraudulent", fillcolor="#e58139ff"] ;
629 -> 630 ;
631 [label="gini = 0.1\nsamples = 19\nvalue = [1, 18]\nclass = Non-Fraudulent", fillcolor="#399de5f1"] ;
629 -> 631 ;
632 [label="gini = 0.0\nsamples = 13\nvalue = [0, 13]\nclass = Non-Fraudulent", fillcolor="#399de5ff"] ;
626 -> 632 ;
633 [label="NumberOfSuppliments_more than 5 <= 0.5\ngini = 0.346\nsamples = 9\nvalue = [2, 7]\nclass = Non-Fraudulent", fillcolor="#399de5b6"] ;
621 -> 633 ;
634 [label="gini = 0.0\nsamples = 2\nvalue = [2, 0]\nclass = Fraudulent", fillcolor="#e58139ff"] ;
633 -> 634 ;
635 [label="gini = 0.0\nsamples = 7\nvalue = [0, 7]\nclass = Non-Fraudulent", fillcolor="#399de5ff"] ;
633 -> 635 ;
636 [label="gini = 0.0\nsamples = 1\nvalue = [1, 0]\nclass = Fraudulent", fillcolor="#e58139ff"] ;
620 -> 636 ;
637 [label="DaysDiff <= 0.095\ngini = 0.049\nsamples = 80\nvalue = [2, 78]\nclass = Non-Fraudulent", fillcolor="#399de5f8"] ;
617 -> 637 ;
638 [label="gini = 0.0\nsamples = 36\nvalue = [0, 36]\nclass = Non-Fraudulent", fillcolor="#399de5ff"] ;
637 -> 638 ;
639 [label="DriverRating <= 0.5\ngini = 0.087\nsamples = 44\nvalue = [2, 42]\nclass = Non-Fraudulent", fillcolor="#399de5f3"] ;
637 -> 639 ;
640 [label="gini = 0.0\nsamples = 1\nvalue = [1, 0]\nclass = Fraudulent", fillcolor="#e58139ff"] ;
639 -> 640 ;
641 [label="DaysDiff <= 0.099\ngini = 0.045\nsamples = 43\nvalue = [1, 42]\nclass = Non-Fraudulent", fillcolor="#399de5f9"] ;
639 -> 641 ;
642 [label="Deductible <= 0.833\ngini = 0.142\nsamples = 13\nvalue = [1, 12]\nclass = Non-Fraudulent", fillcolor="#399de5ea"] ;
641 -> 642 ;
643 [label="gini = 0.0\nsamples = 1\nvalue = [1, 0]\nclass = Fraudulent", fillcolor="#e58139ff"] ;
642 -> 643 ;
644 [label="gini = 0.0\nsamples = 12\nvalue = [0, 12]\nclass = Non-Fraudulent", fillcolor="#399de5ff"] ;
642 -> 644 ;
645 [label="gini = 0.0\nsamples = 30\nvalue = [0, 30]\nclass = Non-Fraudulent", fillcolor="#399de5ff"] ;
641 -> 645 ;
646 [label="gini = 0.0\nsamples = 1\nvalue = [1, 0]\nclass = Fraudulent", fillcolor="#e58139ff"] ;
616 -> 646 ;
647 [label="gini = 0.0\nsamples = 2\nvalue = [2, 0]\nclass = Fraudulent", fillcolor="#e58139ff"] ;
615 -> 647 ;
648 [label="DriverRating <= 0.667\ngini = 0.069\nsamples = 139\nvalue = [5, 134]\nclass = Non-Fraudulent", fillcolor="#399de5f5"] ;
614 -> 648 ;
649 [label="NumberOfSuppliments_3 to 5 <= 0.5\ngini = 0.021\nsamples = 96\nvalue = [1, 95]\nclass = Non-Fraudulent", fillcolor="#399de5fc"] ;
648 -> 649 ;
650 [label="gini = 0.0\nsamples = 95\nvalue = [0, 95]\nclass = Non-Fraudulent", fillcolor="#399de5ff"] ;
649 -> 650 ;
651 [label="gini = 0.0\nsamples = 1\nvalue = [1, 0]\nclass = Fraudulent", fillcolor="#e58139ff"] ;
649 -> 651 ;
652 [label="Age <= 0.444\ngini = 0.169\nsamples = 43\nvalue = [4, 39]\nclass = Non-Fraudulent", fillcolor="#399de5e5"] ;
648 -> 652 ;
653 [label="NumberOfSuppliments_more than 5 <= 0.5\ngini = 0.093\nsamples = 41\nvalue = [2, 39]\nclass = Non-Fraudulent", fillcolor="#399de5f2"] ;
652 -> 653 ;
654 [label="Age <= 0.4\ngini = 0.049\nsamples = 40\nvalue = [1, 39]\nclass = Non-Fraudulent", fillcolor="#399de5f8"] ;
653 -> 654 ;
655 [label="gini = 0.0\nsamples = 1\nvalue = [1, 0]\nclass = Fraudulent", fillcolor="#e58139ff"] ;
654 -> 655 ;
656 [label="gini = 0.0\nsamples = 39\nvalue = [0, 39]\nclass = Non-Fraudulent", fillcolor="#399de5ff"] ;
654 -> 656 ;
657 [label="gini = 0.0\nsamples = 1\nvalue = [1, 0]\nclass = Fraudulent", fillcolor="#e58139ff"] ;
653 -> 657 ;
658 [label="gini = 0.0\nsamples = 2\nvalue = [2, 0]\nclass = Fraudulent", fillcolor="#e58139ff"] ;
652 -> 658 ;
659 [label="gini = 0.0\nsamples = 1\nvalue = [1, 0]\nclass = Fraudulent", fillcolor="#e58139ff"] ;
613 -> 659 ;
660 [label="gini = 0.0\nsamples = 2\nvalue = [2, 0]\nclass = Fraudulent", fillcolor="#e58139ff"] ;
612 -> 660 ;
661 [label="gini = 0.0\nsamples = 3\nvalue = [3, 0]\nclass = Fraudulent", fillcolor="#e58139ff"] ;
611 -> 661 ;
662 [label="PastNumberOfClaims_2 to 4 <= 0.5\ngini = 0.029\nsamples = 67\nvalue = [1, 66]\nclass = Non-Fraudulent", fillcolor="#399de5fb"] ;
610 -> 662 ;
663 [label="gini = 0.0\nsamples = 66\nvalue = [0, 66]\nclass = Non-Fraudulent", fillcolor="#399de5ff"] ;
662 -> 663 ;
664 [label="gini = 0.0\nsamples = 1\nvalue = [1, 0]\nclass = Fraudulent", fillcolor="#e58139ff"] ;
662 -> 664 ;
665 [label="DriverRating <= 0.833\ngini = 0.375\nsamples = 8\nvalue = [2, 6]\nclass = Non-Fraudulent", fillcolor="#399de5aa"] ;
609 -> 665 ;
666 [label="gini = 0.0\nsamples = 2\nvalue = [2, 0]\nclass = Fraudulent", fillcolor="#e58139ff"] ;
665 -> 666 ;
667 [label="gini = 0.0\nsamples = 6\nvalue = [0, 6]\nclass = Non-Fraudulent", fillcolor="#399de5ff"] ;
665 -> 667 ;
668 [label="gini = 0.0\nsamples = 1\nvalue = [1, 0]\nclass = Fraudulent", fillcolor="#e58139ff"] ;
608 -> 668 ;
669 [label="gini = 0.0\nsamples = 1\nvalue = [1, 0]\nclass = Fraudulent", fillcolor="#e58139ff"] ;
607 -> 669 ;
670 [label="gini = 0.0\nsamples = 1\nvalue = [1, 0]\nclass = Fraudulent", fillcolor="#e58139ff"] ;
606 -> 670 ;
671 [label="PastNumberOfClaims_1 <= 0.5\ngini = 0.37\nsamples = 233\nvalue = [57, 176]\nclass = Non-Fraudulent", fillcolor="#399de5ac"] ;
377 -> 671 ;
672 [label="Age <= 0.588\ngini = 0.484\nsamples = 100\nvalue = [41, 59]\nclass = Non-Fraudulent", fillcolor="#399de54e"] ;
671 -> 672 ;
673 [label="MartalStatus_Single <= 0.5\ngini = 0.442\nsamples = 88\nvalue = [29, 59]\nclass = Non-Fraudulent", fillcolor="#399de582"] ;
672 -> 673 ;
674 [label="NumberOfSuppliments_3 to 5 <= 0.5\ngini = 0.369\nsamples = 78\nvalue = [19, 59]\nclass = Non-Fraudulent", fillcolor="#399de5ad"] ;
673 -> 674 ;
675 [label="DaysDiff <= 0.068\ngini = 0.323\nsamples = 74\nvalue = [15, 59]\nclass = Non-Fraudulent", fillcolor="#399de5be"] ;
674 -> 675 ;
676 [label="Make_Pontiac <= 0.5\ngini = 0.188\nsamples = 38\nvalue = [4, 34]\nclass = Non-Fraudulent", fillcolor="#399de5e1"] ;
675 -> 676 ;
677 [label="NumberOfSuppliments_1 to 2 <= 0.5\ngini = 0.149\nsamples = 37\nvalue = [3, 34]\nclass = Non-Fraudulent", fillcolor="#399de5e9"] ;
676 -> 677 ;
678 [label="DaysDiff <= 0.065\ngini = 0.105\nsamples = 36\nvalue = [2, 34]\nclass = Non-Fraudulent", fillcolor="#399de5f0"] ;
677 -> 678 ;
679 [label="Age <= 0.5\ngini = 0.346\nsamples = 9\nvalue = [2, 7]\nclass = Non-Fraudulent", fillcolor="#399de5b6"] ;
678 -> 679 ;
680 [label="gini = 0.0\nsamples = 2\nvalue = [2, 0]\nclass = Fraudulent", fillcolor="#e58139ff"] ;
679 -> 680 ;
681 [label="gini = 0.0\nsamples = 7\nvalue = [0, 7]\nclass = Non-Fraudulent", fillcolor="#399de5ff"] ;
679 -> 681 ;
682 [label="gini = 0.0\nsamples = 27\nvalue = [0, 27]\nclass = Non-Fraudulent", fillcolor="#399de5ff"] ;
678 -> 682 ;
683 [label="gini = 0.0\nsamples = 1\nvalue = [1, 0]\nclass = Fraudulent", fillcolor="#e58139ff"] ;
677 -> 683 ;
684 [label="gini = 0.0\nsamples = 1\nvalue = [1, 0]\nclass = Fraudulent", fillcolor="#e58139ff"] ;
676 -> 684 ;
685 [label="DaysDiff <= 0.073\ngini = 0.424\nsamples = 36\nvalue = [11, 25]\nclass = Non-Fraudulent", fillcolor="#399de58f"] ;
675 -> 685 ;
686 [label="gini = 0.0\nsamples = 3\nvalue = [3, 0]\nclass = Fraudulent", fillcolor="#e58139ff"] ;
685 -> 686 ;
687 [label="Make_Honda <= 0.5\ngini = 0.367\nsamples = 33\nvalue = [8, 25]\nclass = Non-Fraudulent", fillcolor="#399de5ad"] ;
685 -> 687 ;
688 [label="NumberOfSuppliments_1 to 2 <= 0.5\ngini = 0.312\nsamples = 31\nvalue = [6, 25]\nclass = Non-Fraudulent", fillcolor="#399de5c2"] ;
687 -> 688 ;
689 [label="AccidentArea_Urban <= 0.5\ngini = 0.48\nsamples = 15\nvalue = [6, 9]\nclass = Non-Fraudulent", fillcolor="#399de555"] ;
688 -> 689 ;
690 [label="gini = 0.0\nsamples = 9\nvalue = [0, 9]\nclass = Non-Fraudulent", fillcolor="#399de5ff"] ;
689 -> 690 ;
691 [label="gini = 0.0\nsamples = 6\nvalue = [6, 0]\nclass = Fraudulent", fillcolor="#e58139ff"] ;
689 -> 691 ;
692 [label="gini = 0.0\nsamples = 16\nvalue = [0, 16]\nclass = Non-Fraudulent", fillcolor="#399de5ff"] ;
688 -> 692 ;
693 [label="gini = 0.0\nsamples = 2\nvalue = [2, 0]\nclass = Fraudulent", fillcolor="#e58139ff"] ;
687 -> 693 ;
694 [label="gini = 0.0\nsamples = 4\nvalue = [4, 0]\nclass = Fraudulent", fillcolor="#e58139ff"] ;
674 -> 694 ;
695 [label="gini = 0.0\nsamples = 10\nvalue = [10, 0]\nclass = Fraudulent", fillcolor="#e58139ff"] ;
673 -> 695 ;
696 [label="gini = 0.0\nsamples = 12\nvalue = [12, 0]\nclass = Fraudulent", fillcolor="#e58139ff"] ;
672 -> 696 ;
697 [label="AccidentArea_Urban <= 0.5\ngini = 0.212\nsamples = 133\nvalue = [16, 117]\nclass = Non-Fraudulent", fillcolor="#399de5dc"] ;
671 -> 697 ;
698 [label="gini = 0.0\nsamples = 2\nvalue = [2, 0]\nclass = Fraudulent", fillcolor="#e58139ff"] ;
697 -> 698 ;
699 [label="Make_Honda <= 0.5\ngini = 0.191\nsamples = 131\nvalue = [14, 117]\nclass = Non-Fraudulent", fillcolor="#399de5e0"] ;
697 -> 699 ;
700 [label="DaysDiff <= 0.094\ngini = 0.169\nsamples = 129\nvalue = [12, 117]\nclass = Non-Fraudulent", fillcolor="#399de5e5"] ;
699 -> 700 ;
701 [label="DaysDiff <= 0.073\ngini = 0.157\nsamples = 128\nvalue = [11, 117]\nclass = Non-Fraudulent", fillcolor="#399de5e7"] ;
700 -> 701 ;
702 [label="Deductible <= 0.833\ngini = 0.346\nsamples = 27\nvalue = [6, 21]\nclass = Non-Fraudulent", fillcolor="#399de5b6"] ;
701 -> 702 ;
703 [label="gini = 0.0\nsamples = 5\nvalue = [5, 0]\nclass = Fraudulent", fillcolor="#e58139ff"] ;
702 -> 703 ;
704 [label="NumberOfSuppliments_none <= 0.5\ngini = 0.087\nsamples = 22\nvalue = [1, 21]\nclass = Non-Fraudulent", fillcolor="#399de5f3"] ;
702 -> 704 ;
705 [label="gini = 0.0\nsamples = 21\nvalue = [0, 21]\nclass = Non-Fraudulent", fillcolor="#399de5ff"] ;
704 -> 705 ;
706 [label="gini = 0.0\nsamples = 1\nvalue = [1, 0]\nclass = Fraudulent", fillcolor="#e58139ff"] ;
704 -> 706 ;
707 [label="NumberOfSuppliments_more than 5 <= 0.5\ngini = 0.094\nsamples = 101\nvalue = [5, 96]\nclass = Non-Fraudulent", fillcolor="#399de5f2"] ;
701 -> 707 ;
708 [label="NumberOfSuppliments_1 to 2 <= 0.5\ngini = 0.02\nsamples = 97\nvalue = [1, 96]\nclass = Non-Fraudulent", fillcolor="#399de5fc"] ;
707 -> 708 ;
709 [label="gini = 0.0\nsamples = 96\nvalue = [0, 96]\nclass = Non-Fraudulent", fillcolor="#399de5ff"] ;
708 -> 709 ;
710 [label="gini = 0.0\nsamples = 1\nvalue = [1, 0]\nclass = Fraudulent", fillcolor="#e58139ff"] ;
708 -> 710 ;
711 [label="gini = 0.0\nsamples = 4\nvalue = [4, 0]\nclass = Fraudulent", fillcolor="#e58139ff"] ;
707 -> 711 ;
712 [label="gini = 0.0\nsamples = 1\nvalue = [1, 0]\nclass = Fraudulent", fillcolor="#e58139ff"] ;
700 -> 712 ;
713 [label="gini = 0.0\nsamples = 2\nvalue = [2, 0]\nclass = Fraudulent", fillcolor="#e58139ff"] ;
699 -> 713 ;
714 [label="DaysDiff <= 0.145\ngini = 0.381\nsamples = 320\nvalue = [82, 238]\nclass = Non-Fraudulent", fillcolor="#399de5a7"] ;
376 -> 714 ;
715 [label="gini = 0.0\nsamples = 23\nvalue = [23, 0]\nclass = Fraudulent", fillcolor="#e58139ff"] ;
714 -> 715 ;
716 [label="VehiclePrice_more than 69,000 <= 0.5\ngini = 0.318\nsamples = 297\nvalue = [59, 238]\nclass = Non-Fraudulent", fillcolor="#399de5c0"] ;
714 -> 716 ;
717 [label="Age <= 0.269\ngini = 0.26\nsamples = 261\nvalue = [40, 221]\nclass = Non-Fraudulent", fillcolor="#399de5d1"] ;
716 -> 717 ;
718 [label="gini = 0.0\nsamples = 5\nvalue = [5, 0]\nclass = Fraudulent", fillcolor="#e58139ff"] ;
717 -> 718 ;
719 [label="Age <= 0.669\ngini = 0.236\nsamples = 256\nvalue = [35, 221]\nclass = Non-Fraudulent", fillcolor="#399de5d7"] ;
717 -> 719 ;
720 [label="Days:Policy-Accident_none <= 0.5\ngini = 0.216\nsamples = 252\nvalue = [31, 221]\nclass = Non-Fraudulent", fillcolor="#399de5db"] ;
719 -> 720 ;
721 [label="DaysDiff <= 0.153\ngini = 0.205\nsamples = 250\nvalue = [29, 221]\nclass = Non-Fraudulent", fillcolor="#399de5de"] ;
720 -> 721 ;
722 [label="gini = 0.0\nsamples = 2\nvalue = [2, 0]\nclass = Fraudulent", fillcolor="#e58139ff"] ;
721 -> 722 ;
723 [label="Make_Toyota <= 0.5\ngini = 0.194\nsamples = 248\nvalue = [27, 221]\nclass = Non-Fraudulent", fillcolor="#399de5e0"] ;
721 -> 723 ;
724 [label="DaysDiff <= 0.247\ngini = 0.149\nsamples = 222\nvalue = [18, 204]\nclass = Non-Fraudulent", fillcolor="#399de5e9"] ;
723 -> 724 ;
725 [label="AgeOfVehicle_2 years <= 0.5\ngini = 0.084\nsamples = 204\nvalue = [9, 195]\nclass = Non-Fraudulent", fillcolor="#399de5f3"] ;
724 -> 725 ;
726 [label="Make_Honda <= 0.5\ngini = 0.076\nsamples = 203\nvalue = [8, 195]\nclass = Non-Fraudulent", fillcolor="#399de5f5"] ;
725 -> 726 ;
727 [label="Age <= 0.3\ngini = 0.042\nsamples = 185\nvalue = [4, 181]\nclass = Non-Fraudulent", fillcolor="#399de5f9"] ;
726 -> 727 ;
728 [label="gini = 0.0\nsamples = 1\nvalue = [1, 0]\nclass = Fraudulent", fillcolor="#e58139ff"] ;
727 -> 728 ;
729 [label="NumberOfSuppliments_more than 5 <= 0.5\ngini = 0.032\nsamples = 184\nvalue = [3, 181]\nclass = Non-Fraudulent", fillcolor="#399de5fb"] ;
727 -> 729 ;
730 [label="PastNumberOfClaims_1 <= 0.5\ngini = 0.013\nsamples = 153\nvalue = [1, 152]\nclass = Non-Fraudulent", fillcolor="#399de5fd"] ;
729 -> 730 ;
731 [label="gini = 0.0\nsamples = 140\nvalue = [0, 140]\nclass = Non-Fraudulent", fillcolor="#399de5ff"] ;
730 -> 731 ;
732 [label="DaysDiff <= 0.182\ngini = 0.142\nsamples = 13\nvalue = [1, 12]\nclass = Non-Fraudulent", fillcolor="#399de5ea"] ;
730 -> 732 ;
733 [label="gini = 0.0\nsamples = 12\nvalue = [0, 12]\nclass = Non-Fraudulent", fillcolor="#399de5ff"] ;
732 -> 733 ;
734 [label="gini = 0.0\nsamples = 1\nvalue = [1, 0]\nclass = Fraudulent", fillcolor="#e58139ff"] ;
732 -> 734 ;
735 [label="Make_Chevrolet <= 0.5\ngini = 0.121\nsamples = 31\nvalue = [2, 29]\nclass = Non-Fraudulent", fillcolor="#399de5ed"] ;
729 -> 735 ;
736 [label="DriverRating <= 0.833\ngini = 0.064\nsamples = 30\nvalue = [1, 29]\nclass = Non-Fraudulent", fillcolor="#399de5f6"] ;
735 -> 736 ;
737 [label="gini = 0.0\nsamples = 29\nvalue = [0, 29]\nclass = Non-Fraudulent", fillcolor="#399de5ff"] ;
736 -> 737 ;
738 [label="gini = 0.0\nsamples = 1\nvalue = [1, 0]\nclass = Fraudulent", fillcolor="#e58139ff"] ;
736 -> 738 ;
739 [label="gini = 0.0\nsamples = 1\nvalue = [1, 0]\nclass = Fraudulent", fillcolor="#e58139ff"] ;
735 -> 739 ;
740 [label="AgeOfVehicle_7 years <= 0.5\ngini = 0.346\nsamples = 18\nvalue = [4, 14]\nclass = Non-Fraudulent", fillcolor="#399de5b6"] ;
726 -> 740 ;
741 [label="gini = 0.0\nsamples = 14\nvalue = [0, 14]\nclass = Non-Fraudulent", fillcolor="#399de5ff"] ;
740 -> 741 ;
742 [label="gini = 0.0\nsamples = 4\nvalue = [4, 0]\nclass = Fraudulent", fillcolor="#e58139ff"] ;
740 -> 742 ;
743 [label="gini = 0.0\nsamples = 1\nvalue = [1, 0]\nclass = Fraudulent", fillcolor="#e58139ff"] ;
725 -> 743 ;
744 [label="AccidentArea_Urban <= 0.5\ngini = 0.5\nsamples = 18\nvalue = [9, 9]\nclass = Fraudulent", fillcolor="#e5813900"] ;
724 -> 744 ;
745 [label="gini = 0.0\nsamples = 9\nvalue = [0, 9]\nclass = Non-Fraudulent", fillcolor="#399de5ff"] ;
744 -> 745 ;
746 [label="gini = 0.0\nsamples = 9\nvalue = [9, 0]\nclass = Fraudulent", fillcolor="#e58139ff"] ;
744 -> 746 ;
747 [label="DaysDiff <= 0.504\ngini = 0.453\nsamples = 26\nvalue = [9, 17]\nclass = Non-Fraudulent", fillcolor="#399de578"] ;
723 -> 747 ;
748 [label="gini = 0.0\nsamples = 8\nvalue = [8, 0]\nclass = Fraudulent", fillcolor="#e58139ff"] ;
747 -> 748 ;
749 [label="Age <= 0.45\ngini = 0.105\nsamples = 18\nvalue = [1, 17]\nclass = Non-Fraudulent", fillcolor="#399de5f0"] ;
747 -> 749 ;
750 [label="gini = 0.0\nsamples = 1\nvalue = [1, 0]\nclass = Fraudulent", fillcolor="#e58139ff"] ;
749 -> 750 ;
751 [label="gini = 0.0\nsamples = 17\nvalue = [0, 17]\nclass = Non-Fraudulent", fillcolor="#399de5ff"] ;
749 -> 751 ;
752 [label="gini = 0.0\nsamples = 2\nvalue = [2, 0]\nclass = Fraudulent", fillcolor="#e58139ff"] ;
720 -> 752 ;
753 [label="gini = 0.0\nsamples = 4\nvalue = [4, 0]\nclass = Fraudulent", fillcolor="#e58139ff"] ;
719 -> 753 ;
754 [label="DaysDiff <= 0.151\ngini = 0.498\nsamples = 36\nvalue = [19, 17]\nclass = Fraudulent", fillcolor="#e581391b"] ;
716 -> 754 ;
755 [label="gini = 0.0\nsamples = 9\nvalue = [0, 9]\nclass = Non-Fraudulent", fillcolor="#399de5ff"] ;
754 -> 755 ;
756 [label="Deductible <= 0.167\ngini = 0.417\nsamples = 27\nvalue = [19, 8]\nclass = Fraudulent", fillcolor="#e5813994"] ;
754 -> 756 ;
757 [label="DaysDiff <= 0.235\ngini = 0.444\nsamples = 12\nvalue = [4, 8]\nclass = Non-Fraudulent", fillcolor="#399de57f"] ;
756 -> 757 ;
758 [label="gini = 0.0\nsamples = 3\nvalue = [3, 0]\nclass = Fraudulent", fillcolor="#e58139ff"] ;
757 -> 758 ;
759 [label="DaysDiff <= 0.386\ngini = 0.198\nsamples = 9\nvalue = [1, 8]\nclass = Non-Fraudulent", fillcolor="#399de5df"] ;
757 -> 759 ;
760 [label="gini = 0.0\nsamples = 8\nvalue = [0, 8]\nclass = Non-Fraudulent", fillcolor="#399de5ff"] ;
759 -> 760 ;
761 [label="gini = 0.0\nsamples = 1\nvalue = [1, 0]\nclass = Fraudulent", fillcolor="#e58139ff"] ;
759 -> 761 ;
762 [label="gini = 0.0\nsamples = 15\nvalue = [15, 0]\nclass = Fraudulent", fillcolor="#e58139ff"] ;
756 -> 762 ;
763 [label="DaysDiff <= 0.451\ngini = 0.195\nsamples = 1281\nvalue = [140, 1141]\nclass = Non-Fraudulent", fillcolor="#399de5e0"] ;
375 -> 763 ;
764 [label="Age <= 0.3\ngini = 0.191\nsamples = 1278\nvalue = [137, 1141]\nclass = Non-Fraudulent", fillcolor="#399de5e0"] ;
763 -> 764 ;
765 [label="gini = 0.0\nsamples = 2\nvalue = [2, 0]\nclass = Fraudulent", fillcolor="#e58139ff"] ;
764 -> 765 ;
766 [label="Make_Saturn <= 0.5\ngini = 0.189\nsamples = 1276\nvalue = [135, 1141]\nclass = Non-Fraudulent", fillcolor="#399de5e1"] ;
764 -> 766 ;
767 [label="Make_Accura <= 0.5\ngini = 0.187\nsamples = 1274\nvalue = [133, 1141]\nclass = Non-Fraudulent", fillcolor="#399de5e1"] ;
766 -> 767 ;
768 [label="Make_Mercury <= 0.5\ngini = 0.18\nsamples = 1249\nvalue = [125, 1124]\nclass = Non-Fraudulent", fillcolor="#399de5e3"] ;
767 -> 768 ;
769 [label="AddressChange-Claim_1 year <= 0.5\ngini = 0.179\nsamples = 1248\nvalue = [124, 1124]\nclass = Non-Fraudulent", fillcolor="#399de5e3"] ;
768 -> 769 ;
770 [label="MartalStatus_Single <= 0.5\ngini = 0.178\nsamples = 1247\nvalue = [123, 1124]\nclass = Non-Fraudulent", fillcolor="#399de5e3"] ;
769 -> 770 ;
